tree
version=v4
num_class=1
num_tree_per_iteration=1
label_index=0
max_feature_idx=476
objective=binary sigmoid:1
feature_names=ret_1 close_norm_1 vol_ratio_1 ret_2 close_norm_2 vol_ratio_2 ret_3 close_norm_3 vol_ratio_3 ret_4 close_norm_4 vol_ratio_4 ret_5 close_norm_5 vol_ratio_5 ret_6 close_norm_6 vol_ratio_6 ret_7 close_norm_7 vol_ratio_7 ret_8 close_norm_8 vol_ratio_8 ret_9 close_norm_9 vol_ratio_9 ret_10 close_norm_10 vol_ratio_10 ret_11 close_norm_11 vol_ratio_11 ret_12 close_norm_12 vol_ratio_12 ret_13 close_norm_13 vol_ratio_13 ret_14 close_norm_14 vol_ratio_14 ret_15 close_norm_15 vol_ratio_15 ret_16 close_norm_16 vol_ratio_16 ret_17 close_norm_17 vol_ratio_17 ret_18 close_norm_18 vol_ratio_18 ret_19 close_norm_19 vol_ratio_19 ret_20 close_norm_20 vol_ratio_20 ret_21 close_norm_21 vol_ratio_21 ret_22 close_norm_22 vol_ratio_22 ret_23 close_norm_23 vol_ratio_23 ret_24 close_norm_24 vol_ratio_24 ret_25 close_norm_25 vol_ratio_25 ret_26 close_norm_26 vol_ratio_26 ret_27 close_norm_27 vol_ratio_27 ret_28 close_norm_28 vol_ratio_28 ret_29 close_norm_29 vol_ratio_29 ret_30 close_norm_30 vol_ratio_30 ret_31 close_norm_31 vol_ratio_31 ret_32 close_norm_32 vol_ratio_32 ret_33 close_norm_33 vol_ratio_33 ret_34 close_norm_34 vol_ratio_34 ret_35 close_norm_35 vol_ratio_35 ret_36 close_norm_36 vol_ratio_36 ret_37 close_norm_37 vol_ratio_37 ret_38 close_norm_38 vol_ratio_38 ret_39 close_norm_39 vol_ratio_39 ret_40 close_norm_40 vol_ratio_40 ret_41 close_norm_41 vol_ratio_41 ret_42 close_norm_42 vol_ratio_42 ret_43 close_norm_43 vol_ratio_43 ret_44 close_norm_44 vol_ratio_44 ret_45 close_norm_45 vol_ratio_45 ret_46 close_norm_46 vol_ratio_46 ret_47 close_norm_47 vol_ratio_47 ret_48 close_norm_48 vol_ratio_48 ret_49 close_norm_49 vol_ratio_49 ret_50 close_norm_50 vol_ratio_50 ret_51 close_norm_51 vol_ratio_51 ret_52 close_norm_52 vol_ratio_52 ret_53 close_norm_53 vol_ratio_53 ret_54 close_norm_54 vol_ratio_54 ret_55 close_norm_55 vol_ratio_55 ret_56 close_norm_56 vol_ratio_56 ret_57 close_norm_57 vol_ratio_57 ret_58 close_norm_58 vol_ratio_58 ret_59 close_norm_59 vol_ratio_59 ret_60 close_norm_60 vol_ratio_60 ret_61 close_norm_61 vol_ratio_61 ret_62 close_norm_62 vol_ratio_62 ret_63 close_norm_63 vol_ratio_63 ret_64 close_norm_64 vol_ratio_64 ret_65 close_norm_65 vol_ratio_65 ret_66 close_norm_66 vol_ratio_66 ret_67 close_norm_67 vol_ratio_67 ret_68 close_norm_68 vol_ratio_68 ret_69 close_norm_69 vol_ratio_69 ret_70 close_norm_70 vol_ratio_70 ret_71 close_norm_71 vol_ratio_71 ret_72 close_norm_72 vol_ratio_72 ret_73 close_norm_73 vol_ratio_73 ret_74 close_norm_74 vol_ratio_74 ret_75 close_norm_75 vol_ratio_75 ret_76 close_norm_76 vol_ratio_76 ret_77 close_norm_77 vol_ratio_77 ret_78 close_norm_78 vol_ratio_78 ret_79 close_norm_79 vol_ratio_79 ret_80 close_norm_80 vol_ratio_80 ret_81 close_norm_81 vol_ratio_81 ret_82 close_norm_82 vol_ratio_82 ret_83 close_norm_83 vol_ratio_83 ret_84 close_norm_84 vol_ratio_84 ret_85 close_norm_85 vol_ratio_85 ret_86 close_norm_86 vol_ratio_86 ret_87 close_norm_87 vol_ratio_87 ret_88 close_norm_88 vol_ratio_88 ret_89 close_norm_89 vol_ratio_89 ret_90 close_norm_90 vol_ratio_90 ret_91 close_norm_91 vol_ratio_91 ret_92 close_norm_92 vol_ratio_92 ret_93 close_norm_93 vol_ratio_93 ret_94 close_norm_94 vol_ratio_94 ret_95 close_norm_95 vol_ratio_95 ret_96 close_norm_96 vol_ratio_96 ret_97 close_norm_97 vol_ratio_97 ret_98 close_norm_98 vol_ratio_98 ret_99 close_norm_99 vol_ratio_99 ret_100 close_norm_100 vol_ratio_100 ret_101 close_norm_101 vol_ratio_101 ret_102 close_norm_102 vol_ratio_102 ret_103 close_norm_103 vol_ratio_103 ret_104 close_norm_104 vol_ratio_104 ret_105 close_norm_105 vol_ratio_105 ret_106 close_norm_106 vol_ratio_106 ret_107 close_norm_107 vol_ratio_107 ret_108 close_norm_108 vol_ratio_108 ret_109 close_norm_109 vol_ratio_109 ret_110 close_norm_110 vol_ratio_110 ret_111 close_norm_111 vol_ratio_111 ret_112 close_norm_112 vol_ratio_112 ret_113 close_norm_113 vol_ratio_113 ret_114 close_norm_114 vol_ratio_114 ret_115 close_norm_115 vol_ratio_115 ret_116 close_norm_116 vol_ratio_116 ret_117 close_norm_117 vol_ratio_117 ret_118 close_norm_118 vol_ratio_118 ret_119 close_norm_119 vol_ratio_119 ret_120 close_norm_120 vol_ratio_120 ret_121 close_norm_121 vol_ratio_121 ret_122 close_norm_122 vol_ratio_122 ret_123 close_norm_123 vol_ratio_123 ret_124 close_norm_124 vol_ratio_124 ret_125 close_norm_125 vol_ratio_125 ret_126 close_norm_126 vol_ratio_126 ret_127 close_norm_127 vol_ratio_127 ret_128 close_norm_128 vol_ratio_128 ret_129 close_norm_129 vol_ratio_129 ret_130 close_norm_130 vol_ratio_130 ret_131 close_norm_131 vol_ratio_131 ret_132 close_norm_132 vol_ratio_132 ret_133 close_norm_133 vol_ratio_133 ret_134 close_norm_134 vol_ratio_134 ret_135 close_norm_135 vol_ratio_135 ret_136 close_norm_136 vol_ratio_136 ret_137 close_norm_137 vol_ratio_137 ret_138 close_norm_138 vol_ratio_138 ret_139 close_norm_139 vol_ratio_139 ret_140 close_norm_140 vol_ratio_140 ret_141 close_norm_141 vol_ratio_141 ret_142 close_norm_142 vol_ratio_142 ret_143 close_norm_143 vol_ratio_143 ret_144 close_norm_144 vol_ratio_144 ret_145 close_norm_145 vol_ratio_145 ret_146 close_norm_146 vol_ratio_146 ret_147 close_norm_147 vol_ratio_147 ret_148 close_norm_148 vol_ratio_148 ret_149 close_norm_149 vol_ratio_149 ret_150 close_norm_150 vol_ratio_150 rs_at_d2 rs_20 rs_50 rs_150 rs_trend rsi_14 bb_pos pos_52w_high pos_52w_low atr_ratio ma20_pos ma50_pos sec_Technology sec_Healthcare sec_Financial sec_Consumer sec_Energy sec_Industrial sec_Materials sec_Utilities sec_Real_Estate sec_Communication sec_Other cap_MegaCap cap_LargeCap cap_MidCap cap_SmallCap
feature_infos=none [0:1] [0.060699999332427979:58.884101867675781] [-16.909799575805664:26.992799758911133] [0:1] [0.13490000367164612:58.884101867675781] [-18.633100509643555:24.164400100708008] [0:1] [0.13210000097751617:58.884101867675781] [-19.576299667358398:24.164400100708008] [0:0.99570000171661377] [0.067100003361701965:58.884101867675781] [-22.943700790405273:17.971500396728516] [0:0.99570000171661377] [0.11349999904632568:19.651699066162109] [-22.943700790405273:26.992799758911133] [0:0.99260002374649048] [0.075300000607967377:19.651699066162109] [-22.943700790405273:24.164400100708008] [0:0.99260002374649048] [0.075300000607967377:16.41309928894043] [-21.150299072265625:24.164400100708008] [0:0.993399977684021] [0.13570000231266022:22.401599884033203] [-30.626699447631836:26.992799758911133] [0:1] [0.095299996435642242:24.170200347900391] [-30.626699447631836:21.793600082397461] [0:1] [0.095299996435642242:16.956300735473633] [-19.704900741577148:22.222200393676758] [0:1] [0.067100003361701965:28.107500076293945] [-21.150299072265625:25.09589958190918] [0:1] [0.10740000009536743:22.516199111938477] [-19.086799621582031:27.097900390625] [0:1] [0.067100003361701965:17.940200805664062] [-19.086799621582031:21.432600021362305] [0:1] [0.067100003361701965:17.940200805664062] [-18.633100509643555:32.902900695800781] [0:1] [0.067100003361701965:17.940200805664062] [-25:32.902900695800781] [0:1] [0.067100003361701965:22.516199111938477] [-16.291799545288086:32.902900695800781] [0:1] [0.098800003528594971:16.406099319458008] [-16.46820068359375:19.594600677490234] [0:0.99479997158050537] [0.082500003278255463:33.137599945068359] [-16.46820068359375:32.902900695800781] [0:1] [0.082500003278255463:22.06049919128418] [-17.527099609375:19.788700103759766] [0:1] [0.098800003528594971:61.598499298095703] [-17.527099609375:23.631500244140625] [0:1] [0.10170000046491623:61.598499298095703] [-22.943700790405273:23.631500244140625] [0:1] [0.10170000046491623:61.598499298095703] [-17.527099609375:23.631500244140625] [0:1] [0:61.598499298095703] [-16.314300537109375:32.902900695800781] [0:1] [0.050400000065565109:61.598499298095703] [-17.527099609375:23.631500244140625] [0:1] [0.050400000065565109:14.531700134277344] [-16.771999359130859:20.634899139404297] [0:1] [0.067900002002716064:61.598499298095703] [-17.527099609375:20.538600921630859] [0:1] [0.13120000064373016:29.308799743652344] [-17.527099609375:33.141998291015625] [0:1] [0.11659999936819077:17.742000579833984] [-17.527099609375:33.141998291015625] [0:1] [0.11879999935626984:18.841999053955078] [-17.527099609375:19.981599807739258] [0:1] [0.16390000283718109:20.701700210571289] [-21.767599105834961:19.981599807739258] [0:1] [0.12919999659061432:13.321200370788574] [-21.122400283813477:38.247501373291016] [0:1] [0.11500000208616257:21.231800079345703] [-21.122400283813477:38.247501373291016] [0:1] [0.11500000208616257:19.180500030517578] [-21.122400283813477:23.748899459838867] [0:1] [0.11659999936819077:21.231800079345703] [-19.034599304199219:38.247501373291016] [0:1] [0.062300000339746475:21.231800079345703] [-19.034599304199219:26.644199371337891] [0:0.98549997806549072] [0.11100000143051147:20.701700210571289] [-19.034599304199219:26.556299209594727] [0:1] [0.12909999489784241:15.793800354003906] [-21.54789924621582:24.927999496459961] [0:1] [0.1062999963760376:13.750900268554688] [-21.767599105834961:24.927999496459961] [0:0.98420000076293945] [0.1062999963760376:15.793800354003906] [-21.54789924621582:24.060199737548828] [0:1] [0.097400002181529999:15.793800354003906] [-24.809299468994141:24.927999496459961] [0:1] [0.1062999963760376:15.793800354003906] [-24.809299468994141:24.672000885009766] [0:1] [0.11349999904632568:12.546299934387207] [-13.38029956817627:26.369899749755859] [0:1] [0.067100003361701965:16.536300659179688] [-35.14739990234375:21.163600921630859] [0:1] [0.067100003361701965:45.87969970703125] [-21.767599105834961:21.163600921630859] [0:1] [0.067100003361701965:45.87969970703125] [-52.361499786376953:24.060199737548828] [0:1] [0.095899999141693115:45.87969970703125] [-22.729799270629883:20.33329963684082] [0:1] [0.095899999141693115:17.749700546264648] [-22.729799270629883:20.634899139404297] [0:1] [0.095899999141693115:45.87969970703125] [-22.729799270629883:20.449300765991211] [0:1] [0.095899999141693115:28.063400268554688] [-22.729799270629883:23.965799331665039] [0:1] [0.095899999141693115:14.81350040435791] [-24.059099197387695:38.247501373291016] [0:1] [0.097400002181529999:14.81350040435791] [-25:38.247501373291016] [0:1] [0.097400002181529999:16.498899459838867] [-25:20.449300765991211] [0:0.99029999971389771] [0.12700000405311584:13.583999633789062] [-22.729799270629883:20.52079963684082] [0:1] [0.093400001525878906:14.81350040435791] [-14.138899803161621:24.285699844360352] [0:0.99639999866485596] [0.093400001525878906:36.175201416015625] [-17.184299468994141:24.879499435424805] [0:1] [0.093400001525878906:13.583999633789062] [-17.41670036315918:23.755500793457031] [0:1] [0.093400001525878906:14.81350040435791] [-16.519699096679688:26.200899124145508] [0:0.99459999799728394] [0:28.063400268554688] [-14.644599914550781:34.978000640869141] [0:1] [0.098800003528594971:28.063400268554688] [-15.979399681091309:24.879499435424805] [0:1] [0.1005999967455864:29.587299346923828] [-21.190500259399414:28.25] [0:0.99470001459121704] [0.01119999960064888:29.587299346923828] [-18.934200286865234:23.594999313354492] [0:0.99470001459121704] [0.074100002646446228:29.587299346923828] [-14.644599914550781:30.929800033569336] [0:1] [0.065999999642372131:29.587299346923828] [-26.125799179077148:23.593500137329102] [0:1] [0.15049999952316284:29.587299346923828] [-17.149200439453125:23.869300842285156] [0:0.9968000054359436] [0.13439999520778656:29.587299346923828] [-21.940200805664062:24.150899887084961] [0:0.9968000054359436] [0.13259999454021454:29.587299346923828] [-14.644599914550781:30.929800033569336] [0:0.9968000054359436] [0.125:22.401599884033203] [-34.3760986328125:23.869300842285156] [0:1] [0.13259999454021454:21.008899688720703] [-34.3760986328125:28.25] [0:1] [0.13279999792575836:21.032199859619141] [-16.419000625610352:30.929800033569336] [0:1] [0.1315000057220459:21.032199859619141] [-19.128900527954102:24.285699844360352] [0:1] [0.11320000141859055:29.587299346923828] [-22.520000457763672:19.533899307250977] [0:0.99739998579025269] [0:29.587299346923828] [-15.294099807739258:25.64579963684082] [0:0.99739998579025269] [0.11320000141859055:29.587299346923828] [-22.520000457763672:25.64579963684082] [0:0.99550002813339233] [0.13279999792575836:20.276300430297852] [-22.520000457763672:25.64579963684082] [0:0.99550002813339233] [0:20.276300430297852] [-21.134899139404297:43.741901397705078] [0:0.99379998445510864] [0.12389999628067017:20.276300430297852] [-21.134899139404297:43.741901397705078] [0:1] [0.12680000066757202:20.276300430297852] [-13.956600189208984:24.335100173950195] [0:0.99140000343322754] [0.097999997437000275:20.276300430297852] [-19.128900527954102:24.285699844360352] [0:0.99140000343322754] [0.08959999680519104:33.333099365234375] [-17.639999389648438:24.285699844360352] [0:0.99140000343322754] [0.06679999828338623:33.333099365234375] [-13.956600189208984:20.858100891113281] [0:0.99140000343322754] [0.06679999828338623:20.276300430297852] [-19.713100433349609:28.25] [0:0.99220001697540283] [0.06679999828338623:21.032199859619141] [-19.713100433349609:24.285699844360352] [0:0.99140000343322754] [0.06679999828338623:47.418399810791016] [-19.713100433349609:24.440399169921875] [0:0.99940001964569092] [0.06679999828338623:47.418399810791016] [-15.21560001373291:24.440399169921875] [0:1] [0.06679999828338623:18.096099853515625] [-19.713100433349609:25.820199966430664] [0:0.99949997663497925] [0.10429999977350235:12.347700119018555] [-19.162900924682617:25.820199966430664] [0:0.99949997663497925] [0.11640000343322754:14.047200202941895] [-19.162900924682617:21.572200775146484] [0:0.99949997663497925] [0:13.859199523925781] [-13.161499977111816:25.960699081420898] [0:0.99949997663497925] [0:29.587299346923828] [-13.161499977111816:25.960699081420898] [0:0.9968000054359436] [0:12.347700119018555] [-13.161499977111816:24.739900588989258] [0:0.99690002202987671] [0.094999998807907104:29.587299346923828] [-16.732000350952148:24.739900588989258] [0:0.99690002202987671] [0.11209999769926071:29.587299346923828] [-15.282899856567383:21.387899398803711] [0:0.99690002202987671] [0.15770000219345093:21.008899688720703] [-13.161499977111816:31.651399612426758] [0:0.99589997529983521] [0:16.85460090637207] [-13.774100303649902:31.651399612426758] [0:0.99589997529983521] [0.10350000113248825:20.464599609375] [-12.919899940490723:31.651399612426758] [0:0.99930000305175781] [0.10350000113248825:21.008899688720703] [-18.1697998046875:24.031200408935547] [0:0.99930000305175781] [0.10859999805688858:19.960399627685547] [-18.1697998046875:31.651399612426758] [0:0.99930000305175781] [0.08959999680519104:20.464599609375] [-18.1697998046875:31.651399612426758] [0:0.99930000305175781] [0.08959999680519104:20.464599609375] [-18.1697998046875:24.440399169921875] [0:0.99449998140335083] [0.11949999630451202:20.464599609375] [-9.8887996673583984:24.440399169921875] [0:0.99930000305175781] [0.11949999630451202:17.905799865722656] [-18.1697998046875:17.714700698852539] [0:0.99930000305175781] [0.11010000109672546:15.272899627685547] [-11.725199699401855:24.440399169921875] [0:0.99930000305175781] [0.11010000109672546:36.410400390625] [-18.1697998046875:17.080699920654297] [0:0.99959999322891235] [0.017300000414252281:36.410400390625] [-18.1697998046875:21.855899810791016] [0:0.99930000305175781] [0.11029999703168869:36.410400390625] [-18.1697998046875:18.793699264526367] [0:0.99930000305175781] [0.11029999703168869:36.410400390625] [-18.1697998046875:38.136501312255859] [0:0.99930000305175781] [0.097499996423721313:19.899799346923828] [-13.823599815368652:28.472700119018555] [0:0.99809998273849487] [0.078299999237060547:19.899799346923828] [-13.823599815368652:28.472700119018555] [0:0.99610000848770142] [0.10790000110864639:36.410400390625] [-11.842100143432617:28.472700119018555] [0:0.99870002269744873] [0.10790000110864639:19.899799346923828] [-12.12600040435791:28.472700119018555] [0:0.99870002269744873] [0.1632000058889389:19.899799346923828] [-11.714599609375:20.452800750732422] [0:0.99870002269744873] [0.082800000905990601:14.593299865722656] [-12.639100074768066:38.136501312255859] [0:0.99870002269744873] [0.1526000052690506:26.473699569702148] [-12.639100074768066:38.136501312255859] [0:0.99709999561309814] [0.14699999988079071:16.85460090637207] [-12.639100074768066:41.754001617431641] [0:0.99870002269744873] [0.14699999988079071:38.948001861572266] [-12.698399543762207:38.136501312255859] [0:0.99910002946853638] [0.12060000002384186:29.872299194335938] [-11.480299949645996:23.881099700927734] [0:0.99930000305175781] [0.11630000174045563:29.872299194335938] [-18.427499771118164:23.881099700927734] [0:0.99930000305175781] [0.11630000174045563:24.608499526977539] [-13.043499946594238:23.881099700927734] [0:0.99870002269744873] [0.11630000174045563:18.096099853515625] [-11.094599723815918:23.881099700927734] [0:0.99870002269744873] [0.084100000560283661:18.096099853515625] [-18.427499771118164:23.881099700927734] [0:0.99900001287460327] [0:18.096099853515625] [-18.427499771118164:23.881099700927734] [0:0.99879997968673706] [0:18.096099853515625] [-23.239599227905273:41.754001617431641] [0:0.99879997968673706] [0.11479999870061874:38.948001861572266] [-18.427499771118164:41.754001617431641] [0:0.9976000189781189] [0.12129999697208405:38.948001861572266] [-18.427499771118164:18.385299682617188] [0:0.9976000189781189] [0.12129999697208405:16.957399368286133] [-23.239599227905273:20] [0:0.99860000610351562] [0.12129999697208405:34.231601715087891] [-18.427499771118164:19.533899307250977] [0:0.99860000610351562] [0.1379999965429306:34.231601715087891] [-13.956600189208984:32.669300079345703] [0:0.99910002946853638] [0.14069999754428864:34.231601715087891] [-11.842100143432617:20.022600173950195] [0:0.99930000305175781] [0.070000000298023224:37.207401275634766] [-11.116800308227539:25.456600189208984] [0:0.99959999322891235] [0.070000000298023224:34.231601715087891] [-8.5664997100830078:25.456600189208984] [0:0.99959999322891235] [0.070000000298023224:18.673000335693359] [-16.488000869750977:25.456600189208984] [0:0.99940001964569092] [0.1445000022649765:37.207401275634766] [-11.250699996948242:25.456600189208984] [0.027699999511241913:0.99940001964569092] [0.1445000022649765:37.207401275634766] [-10.133299827575684:25.456600189208984] [0.027699999511241913:1] [0.13079999387264252:37.207401275634766] [-8.9509000778198242:25.262399673461914] [0.046700000762939453:1] [0.094300001859664917:37.207401275634766] [-14.475299835205078:21.436500549316406] [0.02759999968111515:1] [0.065999999642372131:37.207401275634766] [-14.475299835205078:18.752099990844727] [0:1] [0.095299996435642242:24.777200698852539] [-14.475299835205078:30.222200393676758] [0:1] [0.12449999898672104:17.122600555419922] [-14.475299835205078:20.195699691772461] [0.02759999968111515:1] [0.17000000178813934:20.977699279785156] [-11.677000045776367:30.222200393676758] [0.021600000560283661:1] [0.13079999387264252:17.122600555419922] [-10.757800102233887:40.405601501464844] [0:1] [0.12999999523162842:54.056900024414062] [-10.998299598693848:28.820600509643555] [0:1] [0.12449999898672104:34.750801086425781] [-10.998299598693848:25.820199966430664] [0.02759999968111515:1] [0.11699999868869781:25.18440055847168] [-11.269000053405762:40.405601501464844] [0.059700001031160355:1] [0.082800000905990601:54.056900024414062] [-13.86139965057373:40.405601501464844] [0.14980000257492065:1] [0.082800000905990601:54.056900024414062] [-13.86139965057373:27.011199951171875] [0.29559999704360962:1] [0.082800000905990601:20.399900436401367] [-11.250699996948242:22.404699325561523] [0.26159998774528503:1] [0.082800000905990601:25.18440055847168] [-11.269000053405762:16.749599456787109] [0.30660000443458557:1] [0.082800000905990601:25.18440055847168] [-11.269000053405762:15.572400093078613] [0.28830000758171082:1] [0.082800000905990601:31.590499877929688] [-9.6835002899169922:10.544899940490723] [0.28830000758171082:1] [0.11500000208616257:31.590499877929688] [-18.210699081420898:63.790401458740234] [-17.297100067138672:57.148601531982422] [-17.971700668334961:78.282997131347656] [-28.99839973449707:101.73690032958984] [-73.53289794921875:29.568000793457031] [27.825199127197266:79.609298706054688] [0:1] [0.21449999511241913:1] [1.1591000556945801:2.0657000541687012] [0.0096000004559755325:0.096500001847743988] [0.91089999675750732:1.2489999532699585] [0.93889999389648438:1.3543000221252441] none none none none none none none none none none none none none none none
tree_sizes=6652 6774 6712 6792 6754 6774 6783 6783 6752 6763 6775 6767 6821 6750 6779 6809 6789 6807 6799 6803

Tree=0
num_leaves=63
num_cat=0
split_feature=458 382 49 226 457 295 302 362 459 325 54 58 418 6 265 127 448 259 181 326 309 387 176 19 334 128 297 381 40 134 230 282 289 167 160 179 40 342 44 154 163 247 443 412 323 245 86 459 335 250 377 419 353 266 207 207 258 13 35 80 303 117
split_gain=93.1561 65.3127 41.3706 40.8788 55.6423 55.146 38.6984 30.5412 28.8948 33.8562 27.2911 27.2092 28.313 26.2252 24.0491 41.0575 36.3463 24.4216 47.937 24.0303 40.2519 25.2715 24.9711 21.6738 20.8771 39.5347 19.3923 20.8484 20.3256 32.5871 53.0027 19.2427 16.9356 16.7384 16.5721 27.9385 29.3376 16.1276 25.3145 15.5575 18.5048 25.8369 25.7568 18.8627 14.3263 13.9164 13.8268 13.7704 17.9617 27.5945 31.9599 16.4144 19.8876 22.7187 35.263 18.8009 21.1767 16.3723 16.2791 13.621 21.7149 14.8784
threshold=1.4777500033378603 0.40805000066757208 0.33104999363422399 0.31135000288486486 0.89835000038146984 0.61515000462532055 1.1251500248908999 0.9053499996662141 0.044050000607967384 0.32524999976158148 -2.0745500326156612 0.012050000019371511 0.57025000452995311 -1.0206999778747556 0.18785000592470172 0.34025000035762792 0.89265000820159923 0.85565000772476207 0.38654999434947973 0.39945000410079962 0.77274999022483837 3.9912999868392949 0.82850000262260448 0.73515000939369213 0.77764999866485607 0.69644999504089367 1.382950007915497 4.9198501110076913 0.093350000679492964 0.8887000083923341 0.90995001792907726 6.9297499656677255 0.62704998254776012 0.58134999871253978 0.60350000858306896 0.45735000073909765 0.082949999719858183 -4.0292499065399161 0.7730500102043153 0.28814999759197241 0.22625000029802325 0.42565000057220465 1.1707499623298647 0.99979999661445629 1.1062499880790713 1.0192499756813052 0.67105001211166393 0.021550000645220283 0.48115000128746038 0.57449999451637279 0.86704999208450328 1.065299987792969 0.59254997968673717 1.2725999951362612 0.21059999614953998 -3.6985499858856197 -0.12955000251531598 0.11425000056624414 0.56685000658035289 0.75295001268386852 2.7743999958038335 -0.060949999839067452
decision_type=2 2 2 2 2 2 2 2 2 2 2 2 2 2 2 2 2 2 2 2 2 2 2 2 2 2 2 2 2 2 2 2 2 2 2 2 2 2 2 2 2 2 2 2 2 2 2 2 2 2 2 2 2 2 2 2 2 2 2 2 2 2
left_child=31 2 6 4 5 13 7 -2 14 -10 -11 -6 -13 -3 15 16 -5 23 -19 20 -14 24 -23 26 39 -26 34 28 29 30 -28 37 -27 -12 -16 -36 -37 38 -1 40 43 42 -42 -21 -15 -4 -20 -39 49 -49 -51 52 53 57 -55 56 -54 -50 -59 -30 61 -61
right_child=1 3 45 8 11 -7 -8 -9 9 10 33 12 19 44 17 -17 -18 18 46 21 -22 22 -24 -25 25 32 27 -29 59 -31 -32 -33 -34 -35 35 36 -38 47 -40 -41 41 -43 -44 -45 -46 -47 -48 48 51 50 -52 -53 55 54 -56 -57 -58 58 -60 60 -62 -63
leaf_value=-2.2307821339722591 -2.3403187792256048 -2.2295118784577381 -2.5198520242004188 -2.4257030818630674 -2.2307821339722591 -2.0887952256640214 -2.4498014924985649 -2.0759759672068769 -2.2050352546754239 -2.2717214464360822 -2.3388942356140752 -2.2307821339722591 -2.4916177021255916 -2.5053366149123382 -2.49123732851506 -2.4831871468447146 -2.0683480107299195 -2.133321660026855 -2.3282426079176632 -2.4811912508176377 -2.168040091543884 -2.466215646770904 -2.194782142734355 -2.3042570556803414 -2.2031241136465591 -2.5206197243172981 -2.4447314891756879 -2.2862309712726994 -2.5114769803163668 -2.4929833546506766 -2.085307229788369 -2.323761307637179 -2.356016995864445 -2.507006025058264 -2.2438531217306914 -2.3115939370935292 -2.4850978513515174 -2.5049330932614979 -2.4834635660971736 -2.49638931219308 -2.4784168124159245 -2.1982953093237914 -2.2695211508130524 -2.3202616804476364 -2.3316257839168379 -2.3369606940043113 -2.5067735691319029 -2.4684124342023854 -2.3359603665364967 -2.4611041237024711 -2.1333216600268554 -2.5046879872883774 -2.4875363204695078 -2.1528161006767093 -2.4692059583981729 -2.487827223862999 -2.2307821339722591 -2.3282426079176632 -2.5026079681691566 -2.4196771638172554 -2.2862309712726994 -2.5012873098456039
leaf_weight=1.4390854537487019 2.0866739079356176 1.9427653625607488 2.8062166348099709 1.4390854537487023 1.4390854537487019 2.0866739079356194 1.9427653625607488 2.8062166348099709 1.9427653625607479 2.0866739079356185 1.7988568171858768 1.4390854537487019 1.7988568171858781 3.23794227093458 144.62808810174465 3.8855307251214981 1.4390854537487028 1.4390854537487019 1.4390854537487028 23.816864259541038 1.8708110898733137 1.6549482718110078 1.7269025444984434 1.7269025444984425 2.0866739079356176 3.5977136343717575 2.4464452713727942 1.7988568171858776 13.311540447175501 3.5257593616843224 1.7269025444984434 1.6549482718110073 2.5903538167476654 6.6197930872440338 1.5110397264361406 2.7342623621225384 17.125116899609566 111.24130557477474 2.6623080894351006 29.861023165285587 5.6843875423073751 1.4390854537487028 1.8708110898733137 1.8708110898733128 1.7269025444984434 1.5110397264361379 3.5257593616843224 8.994284085929392 2.3025367259979275 1.5110397264361375 1.4390854537487028 75.120260685682297 1.5829939991235735 1.6549482718110078 1.7988568171858785 88.647663950920105 1.4390854537487019 1.4390854537487019 10.001643903553484 10.505323812365532 1.7988568171858776 11.656592175364498
leaf_count=20 29 27 39 20 20 29 27 39 27 29 25 20 25 45 2010 54 20 20 20 331 26 23 24 24 29 50 34 25 185 49 24 23 36 92 21 38 238 1546 37 415 79 20 26 26 24 21 49 125 32 21 20 1044 22 23 25 1232 20 20 139 146 25 162
internal_value=-2.46887 -2.45087 -2.33234 -2.4549 -2.42653 -2.30897 -2.25664 -2.18287 -2.46578 -2.39191 -2.42911 -2.43954 -2.44359 -2.38068 -2.46983 -2.37768 -2.23789 -2.47271 -2.37731 -2.44778 -2.32437 -2.45397 -2.32227 -2.47563 -2.46035 -2.38607 -2.47712 -2.44876 -2.45576 -2.38234 -2.28933 -2.48858 -2.45181 -2.46939 -2.48515 -2.44424 -2.46079 -2.48952 -2.39243 -2.46991 -2.44724 -2.38594 -2.42541 -2.46913 -2.44438 -2.45543 -2.45425 -2.49086 -2.48283 -2.42377 -2.2938 -2.48671 -2.47425 -2.42513 -2.31228 -2.48355 -2.36315 -2.45478 -2.47921 -2.47098 -2.44861 -2.46278
internal_weight=655.935 343.006 11.1529 331.853 91.7417 8.99428 6.83566 4.89289 240.111 12.4481 10.5053 82.7474 81.3083 6.90761 227.663 6.7637 2.87817 220.9 6.40393 79.8692 3.66967 76.1996 3.38185 214.496 72.8177 8.27474 212.769 46.7703 44.9714 7.69911 4.17335 312.929 6.18807 8.41865 165.999 21.3704 19.8594 311.274 4.10139 64.543 34.682 8.99428 7.5552 25.6877 4.96484 4.31726 4.96484 307.173 195.931 11.9444 2.95013 183.987 108.867 17.1971 3.45381 91.6697 3.02208 13.7433 11.4407 37.2723 23.9608 22.1619
internal_count=9116 4767 155 4612 1275 125 95 68 3337 173 146 1150 1130 96 3164 94 40 3070 89 1110 51 1059 47 2981 1012 115 2957 650 625 107 58 4349 86 117 2307 297 276 4326 57 897 482 125 105 357 69 60 69 4269 2723 166 41 2557 1513 239 48 1274 42 191 159 518 333 308
is_linear=0
shrinkage=1


Tree=1
num_leaves=63
num_cat=0
split_feature=458 382 253 108 3 219 262 259 294 437 201 102 377 443 68 427 276 193 243 357 428 262 280 83 34 139 106 178 308 364 429 443 339 38 311 32 421 8 276 290 96 282 383 357 348 439 450 331 407 288 108 317 102 3 62 300 335 53 72 23 153 230
split_gain=83.7267 50.4524 35.4042 42.3407 35.7991 33.3635 31.1497 39.9476 29.0445 31.1493 28.5646 28.1939 26.2271 26.0739 24.7854 23.2714 21.8857 38.7751 18.6219 23.0569 24.9022 19.5024 18.1276 18.0351 17.9434 25.8698 39.2565 30.0365 25.3592 18.0438 17.7425 36.2927 18.0977 24.0799 18.6663 26.5405 17.6769 19.9567 16.6552 16.9834 40.2119 16.5942 15.9841 16.0401 15.5837 16.7146 26.7494 15.9266 31.0873 14.6899 14.4463 30.4493 15.4818 14.172 14.1244 13.8797 22.5835 15.8073 29.1008 12.9564 11.867 17.2618
threshold=1.4777500033378603 0.40805000066757208 0.24750000238418582 4.4079501628875741 -3.1876499652862544 -2.3933500051498409 0.34665000438690191 0.5286499857902528 -2.23645007610321 0.88834998011589061 2.7618999481201176 -2.8854500055313106 0.55015000700950634 0.70445001125335704 3.9398000240325932 0.92585000395774852 -2.3426499366760249 0.24629999697208407 4.0836501121521005 1.6506500244140627 0.99364998936653148 0.8987499773502351 0.14815000444650653 0.52465000748634349 0.057350000366568572 0.28984999656677252 0.29514999687671667 0.64579999446868908 1.1538500189781191 0.97235000133514415 3.3727999925613408 0.55965000391006481 -4.1164999008178702 0.91830000281333934 2.7494500875473027 0.86865001916885387 0.92695000767707836 0.86210000514984142 7.155099868774415 2.7120500802993779 0.031449999660253532 6.9297499656677255 1.0195000171661379 -0.16595000028610227 1.7058000564575198 0.96380001306533825 7.9869000911712655 0.22760000079870227 0.84235000610351574 3.564350008964539 -1.4586499929428098 1.2380500435829165 -0.80195000767707814 -0.97599998116493214 0.29825000464916235 -1.6863499879837034 0.45209999382495886 1.3755999803543093 0.033999999985098846 0.43445000052452093 0.041800001636147506 0.44355000555515295
decision_type=2 2 2 2 2 2 2 2 2 2 2 2 2 2 2 2 2 2 2 2 2 2 2 2 2 2 2 2 2 2 2 2 2 2 2 2 2 2 2 2 2 2 2 2 2 2 2 2 2 2 2 2 2 2 2 2 2 2 2 2 2 2
left_child=38 6 3 4 5 -3 22 13 9 23 12 15 -11 -8 18 -6 17 -13 21 42 -21 24 -2 -4 25 26 28 -27 -10 30 32 -32 33 -26 60 -36 -14 -38 39 41 -41 44 -20 -44 54 47 -47 48 -46 50 51 52 -18 -33 -1 56 -56 -58 -59 -49 61 -34
right_child=1 2 8 -5 11 -7 7 -9 14 10 -12 16 36 -15 -16 -17 49 -19 19 20 -22 -23 -24 -25 29 27 -28 -29 -30 -31 31 53 34 -35 35 -37 37 -39 -40 40 -42 -43 43 -45 45 46 -48 59 -50 -51 -52 -53 -54 -55 55 -57 57 58 -60 -61 -62 -63
leaf_value=0.094739857938215696 0.15830960039751441 0.35145107072146997 0.16203467201260738 0.2684587855412876 0.04251502528936682 0.060007534220233777 0.13586114687120437 0.044801174640203778 -0.0056089405559135953 0.24783218939887819 0.30763937921997009 0.29339851516364723 -0.0043087169517070124 0.4142967169294991 0.16553054618782204 0.27829904180558257 0.13014989972076546 -0.0093892220638720769 -0.042239420708180951 0.29388178521360453 0.026546891282419206 0.13016151608831353 -0.028378516351895935 -0.014945926801783619 -0.048014473433150233 -0.031240413366920211 0.31729486852345429 0.16491809436613089 0.20556428700498205 0.13645241077807671 0.26559616844417117 0.11632884517707731 0.090087278341323379 0.20744467889718174 0.20043146155849009 -0.048831163814063328 0.004960529251002814 0.25159142051534994 0.14800336257163985 -0.051065387092081908 0.2088272120939835 0.12318930829452315 0.20338906286504407 -0.016317394029940376 0.26232368846314075 -0.026040185221021944 0.22295879763472948 0.11741355163146404 -0.027221820060396442 0.10714572443550181 -0.023877378770581086 0.24151671361399796 -0.051795724603934216 -0.041290041394916932 0.18268316659398706 -0.032141415396886419 -0.02384305096582371 -0.031045216709952722 0.22227978856284314 -0.021788425311373275 -0.02989429552168146 -0.010036751308794709
leaf_weight=2.2510923817753783 1.7752729579806308 1.6234634295105932 1.5177038013935114 2.0665751844644538 2.4803806692361823 2.5246083512902251 1.7374543622136118 2.9153874143958092 5.2531575709581393 1.8840854093432415 1.5569091886281956 1.7673851028084744 6.0994466096162778 2.0295511111617088 2.1740678325295439 1.8518165349960325 1.5259983539581297 2.3533773049712181 4.8890753239393216 1.7662399262189858 1.7589565366506574 2.6075151339173308 4.0784821882843971 12.853126049041746 1.5421547740697854 13.385183952748774 1.6480868905782697 2.1807975992560378 1.8253770992159841 1.9977785646915425 1.6186874508857707 1.9512693136930463 4.4056473672389975 2.0017994120717049 2.2550560235977164 1.8482510820031164 1.5943244472146036 1.6972054243087766 1.384659357368945 3.2567161843180648 2.5630147531628609 1.8681074902415264 1.6448958069086077 1.4853076264262197 1.479836501181125 2.049388848245143 2.0647211968898773 1.6500484943389881 2.1389598697423935 2.9924493432044974 26.471864178776745 1.5902225896716116 4.060518309473987 4.5527926161885262 1.5856790989637399 225.36870891600847 21.676711350679401 2.5204788222908965 1.8899683058261869 34.175237134099007 100.90472370386124 93.936724126338959
leaf_count=31 21 20 20 26 33 34 22 37 73 24 20 22 83 23 29 23 20 32 67 23 24 34 52 176 21 186 21 29 25 27 21 26 61 27 30 26 22 22 19 46 36 23 21 20 20 29 28 23 30 39 361 21 56 63 20 3195 306 36 26 481 1403 1301
internal_value=0.000244129 0.017028 0.0133199 0.0515246 0.0417934 0.180837 0.115169 0.188281 0.00640476 0.0554461 0.111762 0.0285207 0.0818083 0.294001 0.00118772 0.148435 0.0153217 0.123166 -0.000255566 0.0614963 0.166282 -0.00322277 0.0291068 0.00439005 -0.00473813 0.0358832 0.104278 -0.00256211 0.0502558 -0.00932273 -0.0107632 0.0611699 -0.0136397 0.0966422 -0.0156328 0.088476 0.0457123 0.137273 -0.0187445 -0.019562 0.0641411 -0.0212193 0.0133373 0.100311 -0.0221796 0.0053559 0.100062 -0.0046238 0.0937077 0.00275495 -0.00667059 0.0555666 0 0.00628519 -0.0268976 -0.0280364 0.00521007 -0.00604292 0.0789226 -0.0149289 -0.0178452 -0.00541354
internal_weight=656.604 348.681 336.145 51.3087 49.2421 4.14807 12.5361 6.68239 284.836 27.2028 12.832 45.094 11.2751 3.76701 257.634 4.3322 40.7618 4.12076 255.459 11.5445 3.5252 243.915 5.85376 14.3708 241.307 24.2926 8.72662 15.566 7.07853 217.015 215.017 8.12275 206.894 3.54395 203.35 4.10331 9.39098 3.29153 307.923 306.539 5.81973 300.719 8.01928 3.1302 298.851 43.5582 4.11411 39.4441 3.6188 36.6411 33.6486 7.17674 5.58652 6.50406 255.293 253.042 27.6728 26.0872 4.41045 35.8253 199.247 98.3424
internal_count=9116 4767 4612 687 661 54 155 82 3925 367 171 607 151 45 3558 56 551 54 3529 155 47 3374 73 196 3340 334 119 215 98 3006 2979 110 2869 48 2821 56 127 44 4349 4330 82 4248 108 41 4225 611 57 554 50 497 458 97 76 89 3614 3583 388 368 62 504 2765 1362
is_linear=0
shrinkage=0.05


Tree=2
num_leaves=63
num_cat=0
split_feature=458 379 190 237 46 171 219 233 64 459 235 208 446 270 316 178 120 365 81 9 386 362 98 236 425 390 210 128 44 311 65 309 235 278 443 277 388 425 275 197 290 96 276 368 9 387 457 282 206 329 106 248 147 99 348 432 156 439 246 311 377 179
split_gain=75.4488 46.1994 35.2139 36.4446 32.1904 28.9611 37.036 31.4876 36.9857 28.7576 38.639 25.299 30.8361 24.643 25.1614 24.5143 23.5916 23.4426 22.4354 21.267 24.8644 21.4023 20.2882 17.4921 23.1886 16.9803 16.762 20.6266 16.7073 15.9968 23.733 31.9924 15.6407 26.5148 24.0839 15.5287 22.4184 29.7921 14.9741 30.4548 14.5952 30.3793 14.1737 15.1242 14.3879 25.4224 13.5719 13.0183 14.1608 12.8521 16.5421 12.5442 22.044 14.2537 12.7637 19.0938 21.7395 25.5497 13.3129 20.9379 12.4449 15.3032
threshold=1.4777500033378603 0.41534999012947088 0.38785000145435339 -2.9071499109268184 0.15705000609159472 -0.45305000245571131 -1.803800046443939 1.0577500462532046 0.34945000708103185 0.045350000262260444 0.38545000553131109 0.30945000052452093 0.78644999861717235 4.871850013732911 0.84659999608993541 0.091550000011920943 0.1160000003874302 0.96845000982284557 0.77039998769760143 -1.9758499860763548 1.5749499797821047 0.39904999732971197 0.92080000042915355 0.44930000603199011 0.8598499894142152 -1.1726000308990476 -1.7007499933242796 0.6329999864101411 0.68224999308586132 1.2595999836921694 0.52134999632835399 1.3873500227928164 0.79739999771118175 0.8630499839782716 1.0117499828338625 0.65035000443458568 0.76064997911453258 0.88754999637603771 1.493900001049042 0.87795001268386852 2.7120500802993779 0.031449999660253532 7.155099868774415 0.3294499963521958 -3.5092999935150142 -0.63455000519752491 0.96584999561309826 3.1904500722885136 0.78454998135566723 1.0701500177383425 0.23484999686479571 0.49374999105930334 -2.1762000322341915 1.6086999773979189 1.9648499488830569 0.89669999480247509 0.32664999365806585 0.91224998235702526 3.4092000722885136 1.1815999746322634 0.82854998111724865 0.86134999990463268
decision_type=2 2 2 2 2 2 2 2 2 2 2 2 2 2 2 2 2 2 2 2 2 2 2 2 2 2 2 2 2 2 2 2 2 2 2 2 2 2 2 2 2 2 2 2 2 2 2 2 2 2 2 2 2 2 2 2 2 2 2 2 2 2
left_child=40 11 3 4 -3 6 7 15 -9 19 -11 -2 28 14 26 -5 17 -6 -15 20 25 -21 -14 24 -23 -7 27 -8 -13 32 31 -31 -4 -34 -35 -32 37 -37 -28 -40 42 -42 43 -1 45 -45 -29 -25 -49 -27 -51 52 -46 -54 58 -56 -57 -58 -53 -60 61 -38
right_child=1 2 29 5 16 9 13 8 -10 10 -12 12 22 18 -16 -17 -18 -19 -20 21 -22 23 -24 47 -26 49 38 46 -30 30 35 -33 33 34 -36 36 60 -39 39 -41 41 -43 -44 44 51 -47 -48 48 -50 50 -52 54 53 -55 55 56 57 -59 59 -61 -62 -63
leaf_value=0.098817490769407351 0.0037306906051111526 0.26720524334104434 -0.017283288340952867 0.20402757728913762 0.23187948704846326 0.16293727833182939 0.21192312515772957 0.33693561949433443 0.032982006127166029 0 0.28737819706128159 0.17629957352229531 0.30423719036179508 0.0040920269282577913 0.15971168766609545 0.0015922035575903961 -0.010968833884961633 0 0.25146067562769175 0.11978863560120356 0.20174742792075234 0.17226553621813884 0.097463877418323158 -0.032339058482726293 -0.049366909138149423 -0.039164191961788934 -0.014346313779731935 -0.020052086092108803 -0.002122270929187021 0 -0.016035683064619968 0.28909929981604621 -0.02167784050265081 0.024732849534627392 0.29110860870630501 0.28482735076930787 0.18851921387121995 0.0005452903310815769 -0.032412889432989804 0.21680204991389554 -0.050731106897765388 0.16737761242052068 0.1253996210564913 0.20061444220797875 0.19102078543304507 -0.0050379150452763725 0.12332829411985068 -0.049409751577827038 0.11522779674987729 -0.02219645773005173 0.19598437849638983 -0.032701611824959453 -0.020442229078332944 0.1003094419599052 -0.020083001213052405 -0.0021376571245527239 0.036156116058833926 0.30226413427160387 -0.0069854409281469524 0.19329256420032712 -0.051746193175616607 -0.0086211582075241596
leaf_weight=2.5181915238499633 5.009696431457999 2.537843592464923 121.67584026604891 2.0196864083409292 2.8612273856997472 1.7400833144783963 1.9613514542579631 2.8298848941922188 1.6145749688148496 2.7380179464817038 1.9419340491294859 1.8387116715311984 3.2238634005188942 1.6069929078221314 2.9301687479019156 5.2574234679341316 4.7275727540254593 1.767774701118469 2.1828063651919365 2.7677069306373587 2.2405541390180579 2.5417515635490409 2.1848413720726967 61.83921492099762 2.0203283876180649 7.182435177266596 35.078374058008194 4.5627589449286461 3.8860348612070084 1.8947489336132997 19.727724291384224 1.7916095629334448 4.7987037375569326 1.7912305817008021 1.6325854957103727 1.9635247588157638 1.546387203037739 1.7301482260227201 2.6426184847950926 2.1079627573490143 3.1184260100126258 3.0478169843554497 1.5653157681226719 1.8611905947327612 1.5314353257417703 6.2237277030944806 2.4302296414971352 2.0672301724553099 3.1291858553886414 1.7857462316751482 1.4986542761325834 225.1389082968235 15.060565657913687 2.8127369657158843 23.634845100343227 4.8934213072061521 2.1187409460544591 1.582830101251602 6.4870798885822278 1.5189116373658178 4.0753773227334023 2.3160838484764099
leaf_count=36 62 31 1682 23 34 23 24 32 21 36 22 20 32 21 37 71 63 23 26 36 29 32 24 857 28 99 477 62 49 26 270 23 65 23 19 26 20 24 36 26 46 36 19 25 21 89 32 29 38 25 20 3256 216 39 332 68 30 21 93 22 57 32
internal_value=0.000170477 0.0158637 0.0118797 0.0276637 0.111858 0.0213358 0.0463458 0.126864 0.230772 0.00326893 0.122764 0.0982771 0.139963 0.0290538 0.0197722 0.0604579 0.0668138 0.145862 0.150656 -0.00310254 0.0521233 -0.0139544 0.224904 -0.019354 0.074089 0.0228377 0.0109549 0.0723851 0.0563689 -0.00461452 0.0252702 0.143635 -0.0127289 0.0534637 0.157825 0.0107848 0.056449 0.15651 -0.00287724 0.0793296 -0.0181245 0.0572272 -0.0197247 -0.0205529 -0.0216297 0.0435661 0.0301073 -0.0258886 0.0490916 -0.00130184 0.0787302 -0.0235129 0.015068 -0.00070887 -0.0263574 0.00298607 0.0664987 0.15622 -0.0304348 0.0323107 0.00789842 0.0718103
internal_weight=656.813 353.699 337.556 172.612 11.8944 160.718 67.2248 11.7216 4.44446 93.4928 4.67995 16.1431 11.1335 55.5033 51.7135 7.27711 9.35657 4.629 3.7898 88.8129 14.4475 74.3654 5.4087 71.5977 4.56208 12.2069 48.7833 8.95434 5.72475 164.944 35.0456 3.68636 129.898 8.22252 3.42382 31.3592 11.6315 3.69367 39.829 4.75058 303.114 6.16624 296.948 295.383 292.864 8.08492 6.99299 67.0356 5.19642 10.4668 3.2844 284.779 19.4047 17.8733 265.375 32.2298 8.59499 3.70157 233.145 8.00599 7.93785 3.86247
internal_count=9116 4767 4580 2313 151 2162 888 147 53 1274 58 187 125 741 694 94 120 57 47 1216 196 1020 56 984 60 167 657 118 69 2267 478 49 1789 107 42 429 159 50 539 62 4349 82 4267 4248 4212 114 94 924 67 144 45 4098 276 255 3822 451 119 51 3371 115 109 52
is_linear=0
shrinkage=0.05


Tree=3
num_leaves=63
num_cat=0
split_feature=458 459 92 382 196 65 265 371 139 52 3 259 25 384 283 405 353 260 175 265 246 457 170 47 294 440 97 52 250 324 425 197 308 340 282 459 195 142 335 250 380 419 353 254 373 207 372 23 25 119 33 418 241 167 166 288 395 280 434 457 365 418
split_gain=68.0038 40.7356 34.8205 31.7127 28.333 30.2848 31.2773 30.1554 27.3878 26.1246 29.8599 25.2923 24.5146 21.9382 21.3347 21.0536 21.0501 19.4982 18.8308 32.6491 21.3344 18.5457 16.7121 17.6662 23.0475 28.3898 16.4049 21.9055 26.4394 26.1283 15.5495 18.5521 14.7565 13.7654 13.6467 14.9323 19.3141 30.1397 14.5739 19.3859 17.7068 16.3388 18.9121 25.1312 25.4179 20.392 19.6475 17.0591 15.9874 15.2572 13.1618 22.1439 12.8833 12.6396 12.398 12.3257 20.1519 29.6783 12.341 21.5373 12.1534 12.1179
threshold=1.4777500033378603 0.032050000503659255 0.38719999790191656 0.41850000619888311 0.42055000364780432 0.79855000972747814 0.1974500045180321 0.46980001032352453 0.30114999413490301 0.16135000437498095 4.4351000785827646 0.35195000469684606 0.13704999536275866 -3.6344000101089473 0.50274997949600231 -0.14859999716281888 0.88714998960495006 0.95894998311996471 0.21114999800920489 0.75554999709129345 -3.0863499641418453 0.99114999175071727 0.3554500043392182 1.7519000172615053 -0.70180001854896534 1.1175499558448794 0.20455000549554828 0.38975000381469732 0.45024999976158148 0.59185001254081737 1.0518500208854678 0.82394999265670787 0.4544499963521958 0.85245001316070568 6.9297499656677255 0.021550000645220283 -2.5961999893188472 0.55664998292922985 0.48115000128746038 0.57449999451637279 0.8725000023841859 1.065299987792969 0.59254997968673717 1.3529999852180483 0.75755000114440929 -3.6985499858856197 -1.0000000180025095e-35 2.5546000003814702 0.095849998295307173 0.68685001134872448 -5.1029000282287589 0.94804999232292186 0.62764999270439159 0.61445000767707836 0.3473500013351441 2.2690000534057622 1.0273500084877016 0.40405000746250158 0.45270000398159033 0.94194999337196361 1.6387000083923342 0.81435000896453869
decision_type=2 2 2 2 2 2 2 2 2 2 2 2 2 2 2 2 2 2 2 2 2 2 2 2 2 2 2 2 2 2 2 2 2 2 2 2 2 2 2 2 2 2 2 2 2 2 2 2 2 2 2 2 2 2 2 2 2 2 2 2 2 2
left_child=34 13 17 8 5 6 16 14 -4 12 53 -10 15 -2 -7 -8 -5 -3 19 20 -15 26 -20 50 25 -25 -22 28 30 -30 -28 -32 -9 60 35 36 37 -1 39 49 -41 42 43 48 -45 46 -44 55 -40 -37 51 -24 -50 -11 -26 58 -57 -58 59 -47 -34 -6
right_child=1 2 3 4 61 7 9 32 11 10 -12 -13 -14 18 -16 -17 -18 -19 22 -21 21 -23 23 24 54 -27 27 -29 29 -31 31 -33 33 -35 -36 38 -38 -39 41 40 -42 -43 45 44 -46 47 -48 -49 52 -51 -52 -53 -54 -55 -56 56 57 -59 -60 -61 -62 -63
leaf_value=-0.029733286624336348 0.14141904312852885 0.28166170211589997 0.015740735345238573 0.053394389429137802 0.030688101359236077 0.016878403938754224 0.34096247311241967 0.1141483322240181 0.048722180570504564 0.09649565088614101 0.21751440295815705 0.24602057380137149 0.030927730662609027 0.15855198222571665 0.2434826337019329 0.087766560777080546 0.27769836034674406 0.060661030996692504 0.10890466304448998 0.20479198285896227 -0.037904149208479176 0.14007278341820922 -0.014497320629790353 0.030261110701812935 0.085568933062171976 0.30701718699715835 -0.031650483311971317 -0.045756456179934346 0.041770421925926553 0.26021675768433761 -0.023637385804464048 0.18635013739113843 -0.028528253307116253 0.11718512503669579 0.10783425529864921 0.10873556995478673 -0.037900047215591044 0.25644498655955256 0.14665864035863271 0.0072642583227139129 0.2362954538170568 -0.032239456820980346 -0.021105669691640166 0.29103784466580157 0.02403530205739194 0.20404844871418415 0.20343695976322085 0.11729170463998816 -0.032916106090481297 -0.03730824295622602 -0.015526166967214192 0.21667996590466446 0.088649809654132786 -0.018134749105118926 -0.043183858195815064 -0.028043243366568604 0.28044490544613954 0.01228737034029171 -0.031237980974800544 -0.048451535271974662 0.068657786531984344 -0.024586288920674979
leaf_weight=2.4011348709464069 2.6930041909217826 2.1212848350405684 4.7967799082398397 1.7450832277536417 14.539684526622294 1.9939887151122082 1.9135925546288493 2.5474194064736357 2.7699860110878944 2.8673575073480633 1.7287591919302929 4.3340520039200783 2.8174967691302299 2.4705013781785956 2.2303930670022964 1.6514676734805132 3.042076975107193 2.066182479262352 2.9558349922299376 2.3979934826493254 15.808169104158877 2.4674109145998946 2.6444619148969641 2.267906509339809 2.7536217942833883 1.5540076643228529 6.9519891664385849 6.9727718681097022 3.0109511390328398 2.5918968543410301 1.8495364412665365 2.174578495323658 27.161578141152862 1.9325527325272549 2.0461811497807494 2.3541225567460042 100.47494825720787 1.3497748672962187 1.8861208260059381 1.5219569578766816 1.9544862806797025 71.748806491494179 1.6966675370931628 1.7777511402964585 1.8188273683190344 1.4497072696685784 2.0294313207268706 2.2329098209738723 9.7675442919135076 6.4788340255618095 161.07807844132185 1.5543216094374654 2.6910426095128051 12.511829636991022 5.3181950300931931 6.0523027405142766 1.5435586348176 2.9121007919311523 70.563529498875141 1.7392937615513799 3.5279690623283377 30.434583328664303
leaf_count=36 32 23 55 21 191 25 20 29 31 35 19 38 36 29 22 20 31 26 38 28 221 32 35 31 36 17 95 97 39 30 25 26 363 24 23 32 1499 19 24 20 21 1062 22 21 25 20 25 31 138 93 2229 18 35 167 74 87 21 41 1029 25 42 417
internal_value=9.97836e-05 0.0147918 0.0372948 0.0323939 0.0240809 0.0445096 0.0839387 0.0159392 0.109807 0.0593848 0.0264649 0.171529 0.145083 0.00213744 0.140541 0.230632 0.199721 0.17774 0.000400162 0.028681 0.0185951 0.00985094 -0.00691544 -0.00893628 0.0495815 0.149025 0.00122654 0.0277521 0.059057 0.146492 0.013054 0.0903918 0.000474817 -0.00857072 -0.0175159 -0.0184341 -0.0336865 0.0759354 -0.0101246 0.0421982 0.140432 -0.0137538 -0.00142656 0.0452585 0.161667 -0.0108057 0.102006 -0.0158355 0.0148086 0.00183653 -0.013205 0.0729674 -0.00576305 0.00339971 0.000636677 -0.0195575 0.0306758 0.110399 -0.0268141 0.0675277 -0.017007 -0.00657732
internal_weight=656.74 358.249 128.734 124.547 112.646 67.6716 28.2777 39.3939 11.9008 23.4905 17.1079 7.10404 6.38256 229.515 4.22438 3.56506 4.78716 4.18747 226.822 46.6958 44.2978 41.8273 180.126 177.171 11.8937 3.82191 39.3599 23.5517 16.579 5.60285 10.9761 4.02411 35.1695 32.6221 298.491 296.445 104.226 3.75091 192.219 12.3094 3.47644 179.91 108.161 17.9413 3.59658 90.2195 3.7261 86.4934 14.3447 8.83296 165.277 4.19878 12.4586 15.3792 8.07182 84.2605 10.508 4.45566 73.7525 3.189 30.6895 44.9743
internal_count=9116 4767 1635 1586 1462 854 349 505 124 297 221 69 76 3132 47 40 52 49 3100 622 594 565 2478 2440 158 48 533 312 215 69 146 51 458 429 4349 4326 1554 55 2772 166 41 2606 1544 243 46 1301 47 1254 197 125 2282 53 173 202 110 1223 149 62 1074 45 405 608
is_linear=0
shrinkage=0.05


Tree=4
num_leaves=63
num_cat=0
split_feature=458 459 371 89 145 379 245 247 364 231 108 55 121 229 229 397 403 181 268 445 294 185 99 100 122 203 196 194 158 257 262 458 313 96 41 56 70 422 391 314 142 404 267 288 114 451 342 124 452 202 101 338 94 167 448 202 320 282 276 368 425 290
split_gain=61.5238 35.2141 28.7561 27.9777 26.7498 26.5213 26.1515 21.957 29.5536 22.1768 28.925 20.4944 29.8222 23.2663 23.784 26.4541 20.432 18.1114 30.1888 19.3481 26.3821 17.8242 20.3147 25.7255 25.259 20.055 23.2223 20.0411 17.228 16.0266 19.582 18.2168 17.7619 15.3778 15.1842 19.6972 20.385 16.7597 26.6771 17.0385 23.7857 16.0554 15.1407 18.1332 14.34 13.8888 13.2025 17.2122 14.1929 12.8641 20.5377 12.7125 17.6156 12.2021 18.0266 13.0459 14.6565 12.1954 12.2969 12.2432 16.3172 12.6106
threshold=1.4777500033378603 0.032050000503659255 0.46280001103878027 0.74164998531341564 0.27214999496936804 0.40584999322891241 0.95080000162124645 0.25744999945163732 0.66824999451637279 0.84984999895095836 1.5793499946594241 0.1641499996185303 0.51750001311302196 0.38334999978542333 0.28289999067783361 0.78974997997283947 0.89284998178482067 0.17764999717473987 0.76060000061988842 0.99484997987747203 0.70570001006126415 0.67274999618530285 -0.41824999451637263 0.16974999755620959 1.0622499585151675 0.72705000638961803 0.19405000656843188 0.75424998998641979 0.77739998698234569 0.82975000143051159 0.88435000181198131 1.9480499625205996 0.88899999856948864 4.1496999263763437 1.7013999819755556 0.77965000271797191 0.30255000293254858 0.79105001688003551 0.66170001029968273 0.68295001983642589 0.34424999356269842 1.1015500426292422 3.094500064849854 -0.4943500012159347 -0.088849999010562883 11.153299808502199 -4.0292499065399161 0.43655000627040869 29.414899826049808 0.56215000152587902 0.78995001316070568 0.49674999713897711 0.41985000669956213 1.6728500127792361 0.88314998149871837 0.7157999873161317 0.9848499894142152 6.9297499656677255 7.155099868774415 0.35005000233650213 0.97415000200271618 2.7120500802993779
decision_type=2 2 2 2 2 2 2 2 2 2 2 2 2 2 2 2 2 2 2 2 2 2 2 2 2 2 2 2 2 2 2 2 2 2 2 2 2 2 2 2 2 2 2 2 2 2 2 2 2 2 2 2 2 2 2 2 2 2 2 2 2 2
left_child=46 17 3 28 -5 6 -4 8 16 10 -10 12 13 14 -9 -16 -7 18 21 29 -21 -2 23 -23 27 26 -24 -25 -3 31 32 34 45 -15 37 -36 -37 38 41 40 -40 -19 -39 -44 -8 -31 47 -1 57 -41 -51 52 -13 55 -55 -53 -57 58 59 60 -48 -61
right_child=1 2 5 4 -6 7 44 11 9 -11 -12 51 -14 33 15 -17 -18 19 -20 20 -22 22 25 24 -26 -27 -28 -29 -30 30 -32 -33 -34 -35 35 36 -38 42 39 49 -42 -43 43 -45 -46 -47 48 -49 -50 50 -52 53 -54 54 -56 56 -58 -59 -60 61 -62 -63
leaf_value=-0.028319876332235053 -0.052879735710400472 0.080749426833257101 0.024509794509021379 0.13952899255785675 -0.05171942514192767 -0.019286606953480445 0.077014318178381683 -0.015365814371971509 -0.017986713644697016 0.21106417335571104 0.1859927912189113 0.15463973999721897 0.19080122396369847 -0.024062870597118348 0.021947315315735696 0.2751827619022611 0.12030434416849378 0.25354739483170879 0.20186322448541635 0 0.24498647771979543 -0.0028123900418572391 -0.028051302414258173 0.050704825606082853 -0.0042276088264325612 -0.039001963593562158 0.19418442896072063 0.25937245806454839 0.29610118279109232 -0.029340664396970702 0.11505839462196166 0.15338467984311766 0.097630215518119484 0.14257583333457946 -0.032182132118604406 0.22837809593812503 0.014895102001520562 -0.030782769620239403 0.18882479957250334 -0.032334283051397891 -0.015255265090059179 0.033309262875383737 0.18524428205164301 -0.026578675154502435 0.2447122128128732 0.092637542820955834 0.16515035666211825 0.16505752078180774 0.11040627865962932 0.17684788195849049 -0.0141201778778726 -0.031184580022447603 -0.048606392353627827 -0.028464354355430405 0.1774231593922953 0.14918789110809591 -0.0477433776322118 0.094439956349917059 0.10886781811498654 -0.023910748150427701 -0.028113881376840451 0.04713145599314425
leaf_weight=2.2067284286022177 6.3495819047093383 1.7369905561208705 6.0561512410640699 3.7044215053319931 3.3949037194252014 11.374732911586763 2.4718479141592979 2.6883387342095437 4.2399443760514242 4.1742864027619362 2.7833462879061699 2.5116834565997115 2.9424749240279189 15.008824639022352 1.8323463648557661 2.4648788869380951 3.2882328853011122 1.8403437286615401 2.4133622720837584 2.7437722012400618 1.7231537848711012 4.950308158993721 2.1932658329606065 1.7960750162601469 2.0989047735929489 10.311950363218783 2.3014157190918922 3.85332290828228 2.4504126608371735 98.385669521987438 2.5298088863492003 2.0564027279615393 2.8573720529675475 1.4206563681364048 2.6360718235373488 2.5399920046329498 2.0575543716549873 38.701143890619278 2.7723794877529171 16.295657917857174 2.7287634313106537 1.6052384078502653 1.7688417881727221 2.0779697373509398 3.1860704720020294 2.2765882015228263 1.9463349506258953 2.1730267405509949 2.0182712003588668 2.056640960276126 3.8990068137645721 45.213510006666183 1.6876316890120504 2.2349446117877951 1.8338696807622907 2.1042055934667583 1.5358186811208723 2.228596791625022 1.7249419018626202 273.2516071125865 2.2136285081505775 6.2567534409463397
leaf_count=30 86 21 64 36 44 144 22 35 54 39 28 28 34 203 21 26 35 21 24 35 18 69 30 23 29 142 27 39 24 1378 28 25 38 18 37 29 27 545 35 228 38 21 21 29 25 30 25 27 26 25 55 610 23 31 22 26 22 23 19 4089 31 79
internal_value=4.51332e-05 0.0138459 0.0343836 0.110531 0.0479313 0.0271572 0.0984501 0.0193906 0.0595781 0.120412 0.0636251 0.00682489 0.043244 0.023756 0.099551 0.171294 0.0122814 0.00198787 0.034377 -0.00407006 0.0975596 0.021731 0.0392652 0.0854017 0.141716 -0.000274915 0.0864017 0.195938 0.211904 -0.00654767 -0.0194364 0.00985661 -0.0228793 -0.00857576 0.00596549 0.0745881 0.136253 -0.000789763 0.0269276 0.010197 0.0882361 0.156186 -0.0212461 0.0717807 0.174926 -0.0264432 -0.016936 0.0680515 -0.0182614 -0.00918117 0.0528318 -0.00993874 0.072565 -0.0167041 0.0651626 -0.0237438 0.0657058 -0.0192197 -0.0201576 -0.0209979 0.0628897 -0.0222863
internal_weight=656.181 362.161 132.341 11.2867 7.09933 121.054 11.7141 109.34 25.8605 11.1976 7.02329 83.4792 26.3575 23.415 6.98556 4.29723 14.663 229.821 36.2682 193.552 4.46693 33.8548 27.5052 12.6986 7.7483 14.8066 4.49468 5.6494 4.1874 189.085 106.049 83.036 103.52 16.4295 80.9796 7.23362 4.59755 73.746 31.198 27.7524 5.50114 3.44558 42.548 3.84681 5.65792 100.662 294.02 4.37976 289.64 22.2513 5.95565 57.1217 4.19932 52.9223 4.06881 48.8535 3.64002 287.622 285.393 283.668 4.15996 279.508
internal_count=9116 4767 1635 125 80 1510 111 1399 300 121 82 1099 337 303 82 47 179 3132 469 2663 53 445 359 160 91 199 57 62 45 2610 1474 1136 1446 221 1111 93 56 1018 423 381 73 42 595 50 47 1408 4349 57 4292 308 80 762 51 711 53 658 48 4266 4243 4224 56 4168
is_linear=0
shrinkage=0.05


Tree=5
num_leaves=63
num_cat=0
split_feature=458 241 235 175 314 373 393 32 371 387 435 51 42 195 321 270 220 149 305 422 458 156 212 238 201 344 192 333 271 60 218 312 5 14 233 37 68 350 292 270 459 273 307 432 460 149 413 364 99 338 314 66 257 428 122 428 89 3 335 447 383 393
split_gain=68.335 34.0208 33.4983 34.4192 28.9331 28.49 22.5105 27.9745 21.3817 20.9148 20.6135 19.6893 23.5382 19.3753 18.4822 17.9779 20.2207 21.9212 18.3482 18.9289 18.4505 18.6421 21.4717 19.1203 17.1819 15.6568 18.7012 15.5975 15.1884 14.9713 14.6474 17.3681 18.9603 21.0004 21.1832 16.0136 15.8542 21.1996 14.4704 18.6311 14.1014 21.299 19.402 13.3008 13.2582 22.8667 13.2376 17.6494 13.7844 12.2999 18.0569 23.4197 14.585 14.1368 17.1248 28.1438 15.785 15.0305 29.4279 17.9072 12.2269 12.1559
threshold=1.4777500033378603 0.27854999899864202 0.14169999957084659 0.067350000143051161 0.86594998836517345 0.32144999504089361 1.5576999783515932 1.8726499676704409 0.37739999592304235 -1.292899966239929 0.49830000102519995 -2.154150009155273 0.51859998703002941 -1.6107500195503233 -5.8120000362396231 -2.9183501005172725 0.44895000755786901 0.95045000314712536 2.7302500009536748 0.91780000925064098 1.9725999832153323 -4.040250062942504 0.87665000557899486 0.4942499995231629 0.6837500035762788 1.423349976539612 0.14315000176429751 1.4486000537872317 0.38674999773502355 -0.56264999508857716 0.71854999661445629 -1.0769000053405759 0.86535000801086437 0.8350999951362611 0.69890001416206371 0.081050001084804549 0.48810000717639929 0.82385000586509716 0.89544999599456798 0.47064998745918279 0.021550000645220283 2.7707999944686894 0.66944998502731334 1.4160000085830691 0.97325000166893016 0.86194998025894176 0.80965000391006481 0.72205001115798961 -0.22484999895095822 0.85025000572204601 0.43574999272823339 0.41489998996257788 2.6746499538421635 0.90285000205039989 0.62725001573562633 0.80124998092651378 0.84354999661445629 -0.6790499985218047 0.60324999690055858 -1.8571000099182127 0.34095001220703131 4.316850185394288
decision_type=2 2 2 2 2 2 2 2 2 2 2 2 2 2 2 2 2 2 2 2 2 2 2 2 2 2 2 2 2 2 2 2 2 2 2 2 2 2 2 2 2 2 2 2 2 2 2 2 2 2 2 2 2 2 2 2 2 2 2 2 2 2
left_child=40 2 25 4 -4 28 7 11 10 -8 -7 12 -5 27 -10 16 17 29 20 -20 21 22 -17 -24 -22 -2 -27 -11 -3 -16 31 32 33 34 -23 -34 37 -33 60 -40 41 -1 -43 -15 45 -38 47 -13 -49 50 51 -42 53 54 55 56 -52 58 -56 -60 -32 -51
right_child=1 5 3 6 -6 8 9 -9 14 13 -12 46 -14 43 15 18 -18 -19 19 -21 24 30 23 -25 -26 26 -28 -29 -30 -31 38 36 35 -35 -36 -37 44 -39 39 -41 49 42 -44 -45 -46 -47 -48 48 -50 61 52 -53 -54 -55 57 -57 -58 -59 59 -61 -62 -63
leaf_value=-0.039213580076992494 -0.025487058790928181 0.014084451417619187 0.28515148798913553 -0.008615441060926269 0.053622840451576059 0.0012420522727483688 0.21163126110344757 0.19067974775625235 0.15573876623978977 0.24268907082237423 0.17563233212162688 -0.015049275240319154 0.20817980411309434 -0.0091650679267801047 0.11657238225972516 -0.0042181507245580953 -0.0068697371471919183 0.19140371687464319 0.17613656433375371 -0.024260992927381528 -0.021569791976922 0.031264089767309933 0.25405631873873452 0.02558166248588277 0.17902787607300633 0.16091703751652131 -0.029743326578623566 0.043696922429510433 0.17122452606182936 -0.050757053683706803 0.09051929582326039 0.17915574540969953 0.131463656690706 0.019149979877084056 0.26338543515367896 -0.032439153685839814 0.18882814456409694 -0.029180031825492843 0.19134378581203515 -0.04703549201873819 -0.0013120554511015959 -0.006115431790410731 0.22853001910035375 0.14606237173452896 -0.023084026990199683 -0.049107960356151899 -0.030187879770229204 0.19896594070792953 0.030524208124220159 -0.026620599982051841 0.16226610788978932 0.25190960924924027 0.12246007396065578 -0.025082632190337757 0.20931484418448165 0.2808653383404624 -0.024371293955357868 -0.023198105076607637 0.15066724063208548 -0.03044362149052883 -0.023047748188359522 0.084366806641776787
leaf_weight=97.080464482307434 20.545531954616312 2.7053512781858435 2.9586530551314345 2.2786718830466226 2.6270161792635918 3.4502727501094332 3.2407918944954881 2.3344423398375502 1.7913876324892033 2.231966257095336 3.347449004650116 6.384022764861589 2.5496318638324738 6.596402838826176 2.5088983625173569 5.0489978566765767 8.4322738088667375 3.7227700278162956 2.7033608555793753 1.9276999346911905 1.7312794104218472 1.6346205770969406 1.9929216802120211 1.766748785972595 2.4536110684275627 2.6533678099513045 2.2942757159471512 1.9192253798246381 3.7713359296321869 2.6094203442335147 2.2927520126104346 2.4529343694448462 1.7723809406161288 3.9075205028057098 2.7223344780504704 7.194849357008934 1.9513725191354745 2.2271006628870964 1.7261870130896562 1.3798905014991758 1.9864702522754663 2.2137200161814685 1.316124729812145 1.6267527714371679 43.258636593818665 1.8750425949692724 16.522556755691767 2.2346575930714607 2.7973158434033394 95.175874434411526 1.5171035230159748 1.529427997767925 2.1639160066843024 45.154111161828041 2.1686602756381061 1.3935988545417783 3.6145516782999039 21.315642029047012 1.6052922829985607 6.6957095712423316 157.66257712244987 2.4171475544571868
leaf_count=1516 267 28 28 29 29 45 30 27 20 22 37 80 29 81 30 67 111 39 31 28 23 21 21 23 27 28 29 23 30 35 27 29 21 47 32 99 25 29 21 20 29 34 19 17 598 26 217 21 33 1416 21 19 30 671 27 20 53 315 21 99 2176 32
internal_value=-0.00142993 0.0129552 0.041333 0.0628403 0.179998 0.00469531 0.0495099 0.0269559 0.00222123 0.0993967 0.0891444 0.0145947 0.106752 0.0681412 0 -0.00111282 0.0480437 0.100468 -0.00455142 0.0929137 -0.00645089 -0.00829622 0.0626082 0.151431 0.0963075 -0.00603066 0.0726775 0.155057 0.107559 0.0309685 -0.011035 0.00821733 0.051573 0.105725 0.180077 0.00049754 -0.00619024 0.080432 -0.019212 0.0857191 -0.0196589 -0.0347662 0.0838817 0.0223281 -0.0150583 0.0726787 -0.00147739 0.0395429 0.108721 -0.0114783 0.00189769 0.111378 -0.0026639 -0.00611038 0.0161279 0.0892604 0.0318967 0.000724711 0.0496619 0.00536194 -0.0213331 -0.023737
internal_weight=651.165 363.817 81.7953 56.3021 5.58567 282.022 50.7164 35.1013 275.545 15.6151 6.79772 32.7669 4.8283 12.3743 268.748 266.956 17.2734 8.84109 249.683 4.63106 245.052 240.867 8.80867 3.75967 4.18489 25.4932 4.94764 4.15119 6.47669 5.11832 232.058 68.9968 17.2317 8.26448 4.35696 8.96723 51.7651 4.68004 163.061 3.10608 287.348 100.61 3.52984 8.22316 47.0851 3.82642 27.9386 11.416 5.03197 186.738 89.1445 3.5159 85.6286 83.4647 38.3106 6.52525 5.13166 31.7853 10.4697 8.301 159.955 97.593
internal_count=9078 4756 990 666 57 3766 609 436 3708 173 82 409 58 143 3626 3606 215 104 3391 59 3332 3282 111 44 50 324 57 45 58 65 3171 927 220 100 53 120 707 58 2244 41 4322 1569 53 98 649 51 351 134 54 2753 1305 48 1257 1227 556 94 74 462 147 120 2203 1448
is_linear=0
shrinkage=0.05


Tree=6
num_leaves=63
num_cat=0
split_feature=458 241 457 367 232 242 175 298 157 393 154 155 34 304 264 337 142 455 209 388 342 283 178 328 402 269 68 156 180 235 368 287 57 13 331 276 459 273 65 99 94 113 326 258 366 51 3 449 105 133 335 350 438 291 81 196 206 212 3 308 1 349
split_gain=62.0619 29.3148 29.6317 26.0061 24.2313 21.9475 21.8635 36.0829 20.4231 20.3357 19.6842 19.1694 18.9716 21.0156 20.9782 29.8781 19.5624 26.4004 20.968 31.3829 20.9989 18.7934 18.7284 52.8927 20.1782 20.6801 17.0241 16.9756 16.9515 16.6834 16.2105 15.7392 15.7222 21.6283 14.1722 13.8912 14.096 20.2282 22.0487 13.8161 13.6277 13.4538 13.1702 20.5342 19.8966 17.3554 14.2027 13.1684 21.7139 12.8495 13.0871 12.721 17.695 12.2996 12.1934 22.0203 11.6765 10.7395 17.8641 17.1709 23.1555 41.6219
threshold=1.4777500033378603 0.27854999899864202 0.93255001306533825 0.38625000417232519 0.11574999988079072 0.83160001039505016 0.067350000143051161 0.41414999961853033 0.1560500040650368 1.7384000420570376 0.50124999880790722 0.67820000648498546 0.085749998688697829 0.87205001711845409 -2.4548000097274776 0.43795000016689306 0.30204999446868902 64.003650665283217 0.70574998855590831 0.78444999456405651 -1.5002999901771543 0.53395000100135814 0.26424999535083776 0.85969999432563793 -1.2485499978065489 1.4208000302314761 0.7616499960422517 -2.1102499961853023 2.2984499931335454 0.25524999201297766 1.0171499848365786 2.0898998975753789 -1.8026499748229978 0.55775001645088207 0.33859999477863317 6.0292999744415292 0.021550000645220283 2.7707999944686894 1.032249987125397 0.15874999761581424 0.39369998872280126 1.0154500007629397 0.50854998826980602 0.14500000327825549 0.90075001120567333 1.4884999990463259 -5.3802001476287833 1.1517500281333926 0.71395000815391552 0.66585001349449169 1.859750032424927 0.56595000624656688 0.25819998979568487 1.3773499727249148 2.3535999059677128 0.3173500001430512 1.700999975204468 0.64875000715255748 3.4639500379562382 0.74489998817443859 0.34199999272823339 0.6667500138282777
decision_type=2 2 2 2 2 2 2 2 2 2 2 2 2 2 2 2 2 2 2 2 2 2 2 2 2 2 2 2 2 2 2 2 2 2 2 2 2 2 2 2 2 2 2 2 2 2 2 2 2 2 2 2 2 2 2 2 2 2 2 2 2 2
left_child=35 2 4 5 -2 -3 7 -4 -6 31 41 -10 13 16 15 34 18 49 19 -5 -20 29 23 24 25 28 39 -17 -16 -11 -21 -8 33 47 -14 36 37 -1 -39 -13 -28 -7 43 -38 45 -45 -44 51 -49 50 -18 52 -24 -22 -26 -56 -29 58 59 60 -48 -62
right_child=1 3 6 12 8 10 9 -9 11 21 -12 26 14 -15 22 27 17 -19 20 30 53 -23 32 -25 54 -27 40 56 -30 -31 -32 -33 -34 -35 -36 -37 42 38 -40 -41 -42 -43 46 44 -46 -47 57 48 -50 -51 -52 -53 -54 -55 55 -57 -58 -59 -60 -61 61 -63
leaf_value=-0.040114944633310168 -0.019835013639048115 -0.0079866133338741263 -0.050124702066030036 -0.026404352782612651 0.010571113458460974 0.092198976741437649 -0.017172510463266899 0.21027258867198292 0.028027810068184014 -0.0056789521063476574 -0.023287399360521058 0.13645876042295144 0.061452999289669054 0.18526781455128921 -0.011602398432259808 0.1196312029832813 -0.036522470583677934 0.19209629980674156 0.15694060465336646 0.098327698415591872 -0.040270253642435118 0.1753337722951864 0.18966064702711136 0.21367554220676688 -0.024751456934281803 0.22024993400560544 0.1530099616552115 -0.022801484596803947 0.1505472624026101 0.11593874989193803 0.29873380860186688 0.13175318684069301 -0.028231404103511229 0.17380573419109516 0.2555291085393977 0.094101115503504473 -0.021432094737257282 -0.026827036314869268 0.2128169969703011 0.30623080796363822 -0.0020267791960413887 0.24155243814013977 0.13154044966749728 -0.034664220369491586 0.22271215840605466 0.15689492774998684 -0.0062427865886267621 -0.0088184242568936904 0.18983738041106221 0.11236194749084341 0.098376780857239957 -0.033726380096327516 -0.047344795510793077 0.089302145304619412 -0.0043133982267140238 0.20117771781058735 0.11250372819344073 -0.023889169713577168 0.15641403021431682 -0.027934094777535147 0.26127341941432508 -0.048136240328307489
leaf_weight=93.516823302954435 4.410954192280772 5.2825024537742129 2.0358999855816355 2.031394366174939 4.3059678040444878 3.8266343474388105 37.143460046499968 3.4425639398396015 3.4205146357417098 9.1170212998986226 1.7911608703434465 2.7147570364177209 2.0298672989010837 1.9768044352531422 5.9570004865527135 3.0261080153286519 22.793603274971257 1.5095457658171643 2.2376045584678659 2.1669294238090515 7.6217542439699137 2.6938948258757582 1.5343601033091645 3.0360918603837481 35.221345096826553 1.7024682871997345 4.3791144043207169 14.262877177447075 2.0811339393258095 3.9327950775623313 2.2897365912795067 1.7583642452955235 115.16929185390472 1.8572227731347073 1.9740023761987684 2.5754047185182563 7.8615005202591401 2.1168425083160396 1.5831246301531789 2.9126413315534592 1.9775689654052255 2.8688600733876228 1.5115352049469937 3.0249644592404366 2.0566997043788433 1.7856932431459425 7.4338460043072683 3.4173211082816115 2.1443403735756874 1.6948323473334301 1.83870119601488 17.446887988597155 1.4080339670181272 2.2922530919313431 4.91576363146305 1.6507742404937742 1.6887210384011258 131.47505581751466 1.7967431694269169 21.4699776917696 2.5885944105684757 1.7392325066030023
leaf_count=1512 54 58 26 27 45 35 484 34 38 112 22 25 23 23 82 34 316 16 23 25 103 27 20 29 476 17 38 193 24 39 23 19 1627 21 19 30 116 31 21 24 25 22 20 45 25 22 110 47 26 22 21 248 20 25 59 19 21 1979 24 326 34 27
internal_value=-0.00140982 0.0121416 0.0380195 0.00440274 0.084783 0.0711751 0.0190655 0.113444 0.108429 0.0093224 0.120551 0.135216 0.000940835 0.029252 -0.00526743 0.039797 0.0221252 -0.00427929 0.0616372 0.133654 0.0220005 0.0571254 -0.0105529 0.0142965 0.00206104 0.0665692 0.164911 0.0129849 0.031099 0.0311954 0.206686 -0.00999231 -0.0200745 0.0135087 0.16225 -0.0190278 -0.0201195 -0.0355202 0.077297 0.229015 0.104719 0.159542 -0.0118844 0.0331936 0.0958548 0.0371704 -0.0158832 0.00122167 0.0688919 -0.0164126 -0.0258936 -0.0172391 0.0767738 -0.00921945 -0.0129792 0.0488382 -0.00755421 -0.0173297 0.00714612 -0.00121943 0.0469489 0.137522
internal_weight=649.527 366.991 84.2455 282.746 24.1215 13.7692 60.124 5.47846 19.7106 54.6455 8.48666 15.4046 268.977 48.4532 220.524 22.9816 46.4764 27.8367 18.6397 6.48806 12.1516 15.7437 197.542 54.5646 51.5285 9.7406 11.9841 18.9777 8.03813 13.0498 4.45667 38.9018 142.977 27.8082 4.00387 282.536 279.961 97.2168 3.69997 5.6274 6.35668 6.69549 182.744 14.7289 6.86736 4.81066 168.015 25.9509 5.56166 26.3271 24.6323 20.3893 2.94239 9.91401 41.7879 6.56654 15.9516 166.503 35.0284 33.2317 11.7617 4.32783
internal_count=9078 4756 990 3766 249 137 741 60 195 681 79 150 3629 624 3005 290 601 375 226 75 151 178 2715 706 677 123 112 248 106 151 48 503 2009 382 42 4322 4292 1564 52 49 63 57 2728 208 92 67 2520 361 73 359 337 288 40 128 554 78 214 2500 521 497 171 61
is_linear=0
shrinkage=0.05


Tree=7
num_leaves=63
num_cat=0
split_feature=458 253 30 352 98 262 34 371 435 12 410 400 1 148 334 223 76 243 211 99 59 65 279 151 284 289 262 48 289 264 101 3 443 65 26 45 457 246 318 257 393 401 335 276 380 335 105 177 35 162 332 325 253 362 141 114 152 446 357 375 203 123
split_gain=56.4457 24.7709 25.6381 23.5474 31.7816 27.1625 21.5982 24.1796 19.7297 19.4988 19.393 18.4269 17.9742 18.7117 17.0219 33.7485 15.9485 16.9864 18.1031 16.0479 15.2486 14.9408 14.3967 14.554 29.6347 14.1913 15.8989 14.1735 13.5416 13.2694 20.3478 14.4654 15.0213 17.4491 15.017 14.3047 12.7458 12.8584 12.531 12.3513 16.2498 12.1185 12.0271 16.6902 13.3713 11.9826 11.976 11.9033 11.5746 24.1613 11.874 16.6464 20.4178 14.7158 12.4701 15.7876 12.0623 12.3255 20.2115 11.204 10.8403 12.4756
threshold=1.483550012111664 0.2112499997019768 3.6803499460220341 0.41570000350475317 0.67509999871253978 0.72624999284744274 0.059650000184774406 0.44664999842643743 0.49830000102519995 3.3202500343322758 0.54874998331069957 0.89225000143051159 0.12725000083446505 0.31994999945163732 0.89089998602867138 0.39665000140666967 0.29444999992847448 -1.8738000392913816 0.33505000174045568 1.784049987792969 0.56994998455047619 0.91294997930526745 9.3961000442504901 0.024199999868869785 0.91279998421669017 0.68645000457763683 0.39775000512599951 -0.78859999775886525 0.92649999260902416 -1.9103499650955198 0.50970000028610241 -1.2296000123023985 1.3984500169754031 0.80494999885559093 0.84184998273849498 -6.3549499511718741 0.94814997911453258 5.0439000129699716 0.49875000119209295 2.6746499538421635 0.73570001125335704 0.94965001940727245 0.44294999539852148 1.2374500036239626 3.3824000358581547 1.1419499516487124 6.5497999191284189 1.6058999896049502 2.3353499174118046 -0.31724999845027918 0.57964998483657848 0.64034998416900646 0.28294999897480017 1.0555999875068667 -3.7933000326156612 0.35725000500679022 2.9829499721527104 0.4777000099420548 -0.083650000393390642 0.4622000008821488 1.0907999873161318 0.83495000004768383
decision_type=2 2 2 2 2 2 2 2 2 2 2 2 2 2 2 2 2 2 2 2 2 2 2 2 2 2 2 2 2 2 2 2 2 2 2 2 2 2 2 2 2 2 2 2 2 2 2 2 2 2 2 2 2 2 2 2 2 2 2 2 2 2
left_child=28 2 9 4 45 20 10 8 27 16 11 -5 60 21 22 -16 17 18 -2 -19 -6 -14 23 24 -9 26 -10 -8 36 30 -25 32 33 34 -32 -31 37 39 -11 48 -41 -4 43 -38 -44 -3 -37 -15 50 -50 51 -1 -53 -54 55 -52 57 58 -56 -48 -12 -62
right_child=1 3 41 6 5 -7 7 14 25 38 12 -13 13 47 15 -17 -18 19 -20 -21 -22 -23 -24 29 -26 -27 -28 -29 -30 35 31 -33 -34 -35 -36 46 42 -39 -40 40 -42 -43 44 -45 -46 -47 59 -49 49 -51 54 52 53 -55 56 -57 -58 -59 -60 -61 61 -63
leaf_value=-0.015678995690803388 0.19737029096981315 0.16709814220713673 0.21295716923123553 0.22923658377527115 0.10555786154581892 0.17161652525530963 0.09173649986477489 -0.033915037176208605 0.13723302699521717 0.16209036493267753 -0.040254197898583984 0.018121359225724287 0.17956634072826719 -0.021018389429336627 0.18863324340974513 -0.0027196856248173375 -0.01629489737868273 -0.0077576963822318162 0.017767128657864256 0.12084943492894867 -0.014127775629058462 0.013755598688834282 0.12530706300252384 0.12962206200848811 0.20549263487107503 0.21477698628926817 -0.049920222840620962 -0.052042238724186965 0.10533912557989591 0.086604032976004053 0.18389175401678573 -0.023320102532622865 0.19131051922617281 -0.041493784756884783 -0.016316478974123933 -0.022968877057478583 -0.013391871002474366 0.13581701413950331 0.018221666732397002 -0.01802248427213549 0.20688244429502706 0.052197012182606001 -0.031535745944288734 0.15147983517567362 0.12185611959643475 0.019343182329524835 0.15155506104301394 0.11933447500997739 0.19634991322524045 -0.048659357235577211 0.18173140989466352 0.22288904110362082 -0.049952503607226986 0.13397638151143343 0.13793980355297514 -0.02433096867751056 0.11713475917381788 -0.032844295860511588 -0.05021711828725859 -0.021713497456818692 -0.016303596055542258 0.14708018904269435
leaf_weight=9.2200179919600469 3.2137185595929614 6.0178704857826224 3.0118504613637915 2.3348798155784598 2.9572334028780523 2.5065362751483908 2.6203735247254372 2.8474752120673648 2.7115604616701603 4.1936197616159907 10.914241790771486 1.9238160103559492 4.3139143325388423 6.1561712473630887 3.1405962221324426 7.793523982167244 17.97210044041276 11.632610607892277 2.5849025994539261 2.9432860165834418 20.392512835562229 2.0863961800932884 1.825929258018731 3.3864859007298937 2.1908600702881813 2.4471423402428627 1.7839867286384103 4.5307403355836851 2.0978968329727641 3.0252508446574202 2.1784774065017722 19.274529859423637 1.5100573524832714 4.5568028800189495 1.4920004643499849 172.80663457885385 5.0140861459076396 1.4796103984117497 2.5102966912090778 1.5835946500301354 1.4290516488254068 2.1706153303384781 164.49996852874756 2.0761364139616489 1.3239786736667145 1.9082673937082288 1.8267045915126794 1.8818884566426275 1.8919554874300959 1.9200904071331013 1.5868398733437055 1.8761935234069813 2.5025881975889206 1.7512288354337213 2.7439443618059158 1.945594325661659 1.355612639337777 76.613899666815996 2.7372180223464957 1.6821293197572229 2.7455461025238028 1.8555121123790739
leaf_count=133 27 51 25 21 30 23 32 40 25 38 147 22 40 84 29 108 220 145 29 26 252 27 20 38 24 20 22 64 32 35 22 264 15 63 21 2413 72 21 26 24 18 22 2603 26 20 23 21 21 25 30 20 23 38 23 34 30 19 1192 42 22 37 19
internal_value=-0.00139103 0.0117155 0.0442799 0.00643771 0.0457953 0.0185129 0.00161956 -0.00359095 0.0597036 0.0318386 0.0387724 0.137619 0.0241413 0.0641529 -0.00752337 0.0530007 0.0177912 0.048035 0.119813 0.0185175 0.00120263 0.127327 -0.0105964 -0.0118214 0.0711886 0.11911 0.062406 0.000491435 -0.0180101 -0.0138529 0.0154752 0.0015799 0.0511124 0.0227912 0.102909 -0.0191846 -0.0189772 -0.00566026 0.110013 -0.00774627 0.0902741 0.148834 -0.0274608 0.0356253 -0.0302082 0.132832 -0.0210762 0.0122895 -0.0106577 0.0735738 -0.013913 0.0263662 0.0896446 0.0259577 -0.0211007 0.0693145 -0.0250662 -0.0276148 0.0438647 0.0688049 -0.0129453 0.0502492
internal_weight=647.509 361.859 50.233 311.626 33.7824 25.8563 277.844 243.631 14.0938 45.0505 34.2124 4.2587 29.9537 14.4384 229.537 10.9341 38.3466 20.3745 5.79862 14.5759 23.3497 6.40031 218.603 216.777 5.03834 6.94269 4.49555 7.15111 285.65 211.739 32.3984 29.0119 9.73734 8.22728 3.67048 179.341 283.552 110.637 6.70392 109.158 3.01265 5.18247 172.914 7.09022 165.824 7.92614 176.315 8.03806 106.145 3.81205 102.333 15.35 6.13001 4.25382 86.9831 3.53243 83.4507 82.0951 5.48116 3.50883 15.5153 4.60106
internal_count=9078 4653 558 4095 379 305 3716 3298 163 511 418 43 375 172 3135 137 447 227 56 171 282 67 2998 2978 64 67 47 96 4425 2914 423 385 121 106 43 2491 4393 1672 64 1651 42 47 2721 98 2623 74 2456 105 1609 55 1554 217 84 61 1337 50 1287 1268 76 43 203 56
is_linear=0
shrinkage=0.05


Tree=8
num_leaves=63
num_cat=0
split_feature=458 241 457 379 89 420 292 304 271 235 316 341 181 256 265 199 143 210 451 251 368 323 338 181 104 310 161 283 51 218 321 281 180 131 290 142 330 292 57 153 8 87 281 362 449 166 344 315 133 106 100 326 323 116 199 408 36 374 168 448 458 133
split_gain=51.3274 22.8843 23.4789 21.847 19.7274 19.4363 19.2672 23.0303 18.6407 15.6278 16.2725 15.5322 14.4813 24.4292 18.5622 21.8244 18.9248 17.5394 17.4897 22.4105 17.7078 16.1024 15.9001 15.602 26.7496 14.278 13.8404 13.773 12.9601 12.7431 12.7488 12.6802 16.883 14.9045 14.029 19.4256 12.4949 12.416 12.2406 18.0127 30.3041 12.4209 11.844 16.7396 11.6779 16.9066 28.8149 14.3895 13.6447 21.257 23.2101 14.4232 11.606 11.3506 11.2429 11.6521 11.187 10.995 13.8262 13.173 15.4281 10.8274
threshold=1.483550012111664 0.27854999899864202 0.93255001306533825 0.36740000545978552 0.7709999978542329 5.1697001457214364 0.61774998903274547 0.74975001811981212 0.38674999773502355 0.2759499996900559 0.38054999709129339 0.83184999227523815 0.39084999263286596 0.77494999766349804 0.48274999856948858 0.46815000474452978 0.89034998416900646 0.26244999468326574 -2.675799965858459 1.1746500134468081 1.1306499838829043 0.61614999175071727 2.8156000375747685 0.36865000426769262 0.70034998655319225 0.7949500083923341 0.47410000860691076 0.24655000120401385 1.6503000259399416 0.85910001397132885 0.93505001068115245 1.3202499747276308 3.6686000823974614 0.27065001428127294 2.7120500802993779 0.43915000557899481 -0.25380000472068781 0.91474997997283947 -0.19165000319480893 1.0178499817848208 0.85925000905990612 3.3853000402450566 0.84235000610351574 2.1001499891281132 0.85954999923706066 0.64039999246597301 0.63815000653266918 2.6340500116348271 0.31765000522136694 0.23484999686479571 0.34395000338554388 0.8829999864101411 1.1274000406265261 0.93020001053810131 0.13665000349283221 0.84294998645782482 2.3944998979568486 0.52265000343322765 0.55319997668266307 0.95504999160766613 1.6547500491142275 0.38674999773502355
decision_type=2 2 2 2 2 2 2 2 2 2 2 2 2 2 2 2 2 2 2 2 2 2 2 2 2 2 2 2 2 2 2 2 2 2 2 2 2 2 2 2 2 2 2 2 2 2 2 2 2 2 2 2 2 2 2 2 2 2 2 2 2 2
left_child=31 2 4 8 29 12 9 11 -3 42 61 -8 13 14 15 18 -17 -15 19 20 -5 25 26 -23 -25 28 -20 -6 -16 30 -2 33 38 -1 -35 -36 -7 44 39 -33 -41 -40 -4 -44 -14 48 -47 56 49 -46 51 -51 -12 -42 -29 -56 -48 58 -28 -59 -61 -11
right_child=1 3 6 5 27 36 7 -9 -10 10 52 -13 37 17 21 16 -18 -19 22 -21 -22 23 -24 24 -26 -27 57 54 -30 -31 -32 32 -34 34 35 -37 -38 -39 41 40 53 -43 43 -45 45 46 47 -49 -50 50 -52 -53 -54 -55 55 -57 -58 59 -60 60 -62 -63
leaf_value=0.15199443086715364 -0.014567217024374683 -0.010332159260404837 -0.036644837183051886 -0.023520425254751908 -0.040891208179324685 0.014267233417427173 0.18543729238487855 -0.049704846127545034 0.14029846998183962 0.18430947187425417 -0.051886980549020613 0.0014974922114825982 -0.028090015304176454 0.19026437136216215 -0.014977667044183308 0.2251316990603138 0.0032530860576546411 0.014231388188187286 0.099007590762632117 0.18601755861235311 0.15537784000196603 -0.034555603766075409 0.15902786855782752 0.20585437487784702 -0.024127791286936831 0.15617156359691234 -0.005909068524640404 -0.010645829270089035 0.1100891399540983 0.1785115823894361 0.13961903092249442 -0.00032712823231246412 0.16567553825436984 -0.025090812647646496 -0.031155168174352495 0.17069449963450414 0.16532055304249516 0.094889664758991854 -0.029306447945620213 -0.01615221479801893 0.28672648027427561 0.12296508199255217 0.0034763107853017631 0.16218148597715823 -0.027557274083068729 0.21841824254917641 -0.033524617794550904 0.15358828656020693 -0.031685635897462976 0.057415387386746057 -0.021452242919390269 0.23104482096343651 0.10077076295050016 0.082159065399400433 0.13703428425206698 0.0026067278894017758 0.10244961249065646 -0.031191054461354048 0.15964316960276898 0.1308379213545609 -0.049029420623651794 0.023340909003850021
leaf_weight=1.1132632568478573 2.4788902178406733 3.2295211032032949 19.530197896063328 4.9511345177888852 4.1041867546737185 2.7671327628195286 4.3762403242290002 2.1460720598697662 5.2176117226481438 2.9771755598485452 3.5159361883997917 1.6197584755718706 70.254978079348803 3.1005283482372752 8.7884277924895269 2.3859025388956061 1.6472046189010141 2.6853305734694004 3.1128934845328322 3.1667264178395271 1.79373512417078 45.181037347763777 1.5138834938406933 1.811436716467141 3.5941854044795036 2.0123922675847998 3.0956115387380114 3.3303180374205095 2.5878035165369502 5.499706044793129 2.6510918810963631 14.940732400864364 1.4881484024226654 225.15364941582084 2.4714621528983107 2.1018421053886414 2.8174967840313903 2.553959146142005 26.616904959082607 2.82662234827876 1.7987096011638644 1.3017971441149701 21.73108579218388 1.7068662494420994 9.5368826091289538 2.0828319042921057 7.4006818868219835 1.5652662627398957 31.179440829902887 2.5529070161282998 3.2610213607549667 2.5047111548483372 1.7986117079854009 1.3544985093176363 5.4453115575015545 2.3863891176879406 1.7900390550494192 30.242619764059782 1.9594122245907781 2.8068232089281073 1.8995429649949072 1.746988385915756
leaf_count=16 25 31 254 66 51 35 37 30 34 25 47 19 997 27 117 26 24 29 35 29 21 627 15 22 54 21 39 36 29 40 21 227 20 3593 34 22 29 31 412 44 22 17 264 15 135 23 99 17 450 32 46 27 19 18 46 24 21 419 18 29 27 19
internal_value=-0.00136116 0.0110215 0.0333772 0.00397017 0.073246 0.00144652 0.0163195 0.0874776 0.082677 0.00515101 0.0610499 0.137408 -0.000511333 0.011483 0.00665511 0.0269952 0.137993 0.111043 0.0184585 0.0782201 0.0249003 -0.0119032 0.0049297 -0.0248659 0.0543708 0.0365245 -0.000720625 0.0359846 0.0137476 0.12546 0.0653038 -0.017412 0.00523982 -0.0223723 -0.0233048 0.0622104 0.0929222 -0.0119777 0 0.0288631 0.101424 -0.0216143 -0.00790407 0.0158863 -0.0141513 0.00161452 0.0525328 0.0182334 -0.0116954 0.0229152 0.0810132 0.147185 0 0.205616 0.0648073 0.0972527 -0.00568564 -0.00883313 0.0591439 -0.0189487 0.0576915 0.127538
internal_weight=645.264 364.096 87.0448 277.051 25.8959 268.604 61.1489 8.14207 8.44713 53.0069 10.0387 5.996 263.019 128.337 122.551 58.5755 4.03311 5.78586 54.5424 9.9116 6.74487 63.9753 44.6308 50.5867 5.40562 13.3886 43.1169 15.2662 11.3762 10.6297 5.12998 281.168 50.3274 230.84 229.727 4.5733 5.58463 134.683 48.8393 20.9206 5.97983 27.9187 42.9681 23.438 132.129 61.8738 12.8388 10.756 49.035 17.8555 8.31864 5.05762 5.31455 3.15321 11.162 7.8317 9.19072 40.004 5.05502 34.949 4.70637 4.72416
internal_count=9078 4653 972 3681 243 3616 729 86 65 643 110 56 3552 1674 1618 748 50 56 698 116 87 870 582 703 76 167 567 157 146 86 46 4425 760 3665 3649 56 64 1878 740 311 84 429 533 279 1847 850 160 137 690 240 105 59 66 40 106 70 120 532 57 475 56 44
is_linear=0
shrinkage=0.05


Tree=9
num_leaves=63
num_cat=0
split_feature=459 292 268 265 307 106 223 452 58 220 80 459 415 331 134 274 374 77 273 259 245 281 221 65 105 452 81 308 338 329 3 434 291 212 281 418 263 167 107 64 100 304 85 369 24 329 300 92 355 273 342 3 352 381 34 247 28 140 406 59 267 352
split_gain=33.5459 33.4899 46.1074 22.0095 26.1629 23.7267 21.964 23.2304 20.0278 23.2817 30.1728 16.8179 16.6047 23.7195 25.5324 17.2136 16.0721 16.1644 16.0416 15.8636 15.6239 21.8379 18.1459 15.366 14.7768 14.011 13.9022 13.356 20.6893 22.1459 16.517 17.3074 14.449 13.8724 20.8294 16.69 13.3488 13.2544 19.678 15.7427 12.8214 12.5814 12.2789 12.2324 12.4127 11.992 14.3394 15.0432 15.2958 15.7691 11.9504 11.915 11.5604 11.4483 13.3392 14.8505 12.3438 11.268 11.4996 12.4609 11.6982 11.1377
threshold=0.021149999462068084 0.80255001783370983 0.63295000791549694 0.12179999798536302 0.56945002079010021 0.34655000269413 0.17909999936819079 15.06435012817383 0.14085000008344653 0.20995000004768374 0.75295001268386852 0.03354999981820584 0.79785001277923595 0.67844998836517345 0.82684999704360973 0.62094998359680187 0.51675000786781322 1.0625500082969668 2.1691499948501591 0.68255001306533825 0.68125000596046459 0.96544998884201061 1.0708499550819399 0.28840000927448278 0.36734999716281896 26.803750038146976 3.8047499656677251 0.64145001769065868 0.47879999876022344 0.70524999499320995 -2.2763500213623042 0.87094998359680187 0.53614997863769542 0.61004999279975902 0.8334999978542329 0.8566499948501588 0.9962500035762788 1.2386500239372256 0.69585001468658458 0.38484999537467962 0.30085000395774847 0.45415000617504125 0.1552500054240227 4.5316998958587655 0.31340000033378607 0.79314997792243969 -0.30294999480247492 1.0412500500679018 0.7519499957561494 0.92130002379417431 0.54054999351501476 4.8067500591278085 0.80454999208450328 -0.14054999500513074 0.1357500031590462 0.40275000035762792 0.39245000481605535 0.72785001993179332 0.77805000543594371 0.76455000042915355 0.94659999012947094 0.52700001001358043
decision_type=2 2 2 2 2 2 2 2 2 2 2 2 2 2 2 2 2 2 2 2 2 2 2 2 2 2 2 2 2 2 2 2 2 2 2 2 2 2 2 2 2 2 2 2 2 2 2 2 2 2 2 2 2 2 2 2 2 2 2 2 2 2
left_child=1 51 -3 4 5 6 -2 41 9 10 36 23 13 26 15 -15 17 -11 -4 -16 21 -18 40 -10 -24 45 53 28 29 -25 31 -30 -33 34 -32 -36 -5 57 -39 -40 -23 -8 -12 -29 -45 46 47 48 49 -22 -44 -1 -7 -13 -55 -56 -57 58 -14 60 -60 -9
right_child=3 2 18 8 -6 52 7 61 11 16 42 12 37 14 19 -17 20 -19 -20 -21 25 22 24 27 -26 -27 -28 43 30 -31 33 32 -34 -35 35 -37 -38 38 39 -41 -42 -43 50 44 -46 -47 -48 -49 -50 -51 -52 -53 -54 54 55 56 -58 -59 59 -61 -62 -63
leaf_value=-0.035850061669304926 -0.011376640935731265 0.23055632955039057 -0.02087558043020811 0.076301774241829559 0.19061048212015202 -0.028663481575427415 -0.049836176560514374 0.24253319569553741 0.11844918897874464 0.01688304483755949 -0.052178249623164454 -0.03020706794949567 -0.052123425141036288 0.28573915892692509 -0.035972283110404998 0.07243107747253226 -0.0046296557074564466 0.15340768703884564 0.16136828017954996 0.15407640060001021 0.20987336719098876 -0.0091572513687831203 0.076766226050621209 0.010277240972442897 0.27676921708774344 0.07616324375015561 0.11302109148679218 -0.019036138890491001 -0.012635251682407315 0.21883048771821653 -0.039394813988304918 0.19661442985714342 0.002468012621632985 -0.025801214099431924 0.20698564919722498 0.012388091435521806 0.23023353926967274 -0.04264963692139153 0.11641031146414593 -0.018837000911016026 0.13448844368998469 0.13179639308692132 -0.013546912400661748 0.13345106766657991 -0.047066007337811626 -0.034958812037500779 -0.021006618896974472 -0.049712344276146236 -0.024616642094724427 0.030449765440195314 0.12988862094347728 0.081110576377491195 0.1040211132234467 0.1241383896588527 -0.039662552664678219 0.0040385303065233634 0.13893943950809906 -0.032942767335618982 0.029928210750315654 -0.0020478613646659634 0.17703265810799157 0.089059759839000524
leaf_weight=109.66156009957194 4.5975461564958122 2.6975480392575255 9.3584466129541379 2.8586380667984477 2.7078762836754313 13.581734035164116 2.2769354470074163 3.354140292853117 2.1857840530574313 5.3738958090543729 3.5603845827281457 12.265678610652683 4.3582288883626488 2.3658206537365896 3.1485740877687931 1.7997126318514345 13.045445937663319 3.6809057928621769 1.2833565473556507 1.5460246130824087 3.0584458671510237 4.490675136446951 2.1476981677114968 2.9224949479103079 1.8373173922300337 4.3387412652373305 3.327311646193265 207.75903070345521 3.7112840116024 2.2462140992283821 3.7696941383182985 2.8441350124776363 1.5028314180672167 35.116566490381956 2.3494566045701504 2.1325530707836151 3.3124335631728172 4.9582228213548651 7.2902233749628049 2.9162739887833595 2.2217019088566303 1.4773945845663545 2.5455502085387707 2.5286300517618652 1.3771172426640985 33.647908482700586 13.461135294288395 2.2818332873284817 1.876658860594034 2.1815900579094887 3.0650709085166454 2.1045956760644904 1.7573182992637146 3.1532923169434133 7.0012318640947324 4.0477833040058613 2.9291346967220306 32.152731914073229 3.2410924769937974 7.29664571210742 2.4192923866212368 2.2559874393045902
leaf_count=1799 55 34 153 31 26 184 34 25 26 66 46 165 61 22 44 20 183 38 16 15 30 63 25 35 17 43 31 3075 51 22 53 28 17 515 23 28 23 68 72 38 22 15 34 29 20 488 189 34 26 26 30 30 19 29 93 54 30 444 35 90 19 22
internal_value=-0.00133225 -0.0245626 0.049911 0.00427597 0.0443742 0.0300872 0.0770561 0.120662 0.00161423 0.0204874 0.0774301 -0.00383737 0.0129923 0.0376059 0.109813 0.198611 0.0110323 0.0739979 0.00193443 0.0274799 0.0041537 0.0385056 0.0911277 -0.010468 0.174721 -0.00920989 0.0176286 -0.0115808 0.00992549 0.104292 0.000159958 0.065536 0.132183 -0.0119953 0.0457647 0.117778 0.162079 -0.00280045 0.0378487 0.0774735 0.0389297 0.0219072 0.0187979 -0.0173568 0.0689688 -0.0159763 0.0117776 0.0589862 0.0947371 0.138079 0.0648384 -0.0335324 -0.0125633 0.00631559 0.0327786 0.0110785 0.0625438 -0.0154138 0.016851 0.0406557 0.0956516 0.184333
internal_weight=642.764 125.106 13.3394 517.658 32.0089 29.3011 13.962 9.36446 485.649 108.986 15.3421 376.663 106.217 41.5846 8.86013 4.16553 93.644 9.0548 10.6418 4.6946 84.5892 23.7428 10.6974 270.446 3.98502 60.8463 32.7244 268.26 56.5952 5.16871 51.4265 8.05825 4.34697 43.3683 8.2517 4.48201 6.17107 64.6327 15.1647 10.2065 6.71238 3.75433 9.17101 211.665 3.90575 56.5076 22.8597 9.39853 7.11669 5.24004 5.61062 111.766 15.3391 29.3971 17.1314 13.9781 6.97692 49.468 17.3153 12.957 5.66038 5.61013
internal_count=9078 2032 203 7046 380 354 151 96 6666 1414 164 5252 1330 503 101 42 1250 104 169 59 1146 310 127 3922 42 836 402 3896 772 57 715 96 45 619 104 51 54 827 178 110 85 49 110 3124 49 793 305 116 82 56 64 1829 203 371 206 177 84 649 205 144 54 47
is_linear=0
shrinkage=0.05


Tree=10
num_leaves=63
num_cat=0
split_feature=459 355 428 101 336 16 425 106 459 390 45 331 156 228 94 77 104 358 200 77 48 294 404 400 33 81 124 311 213 99 319 67 450 257 301 104 223 353 257 156 245 213 77 244 358 154 101 344 396 37 167 235 317 326 79 414 69 184 259 92 19 172
split_gain=37.195 21.3251 26.9252 22.8799 18.3982 20.7134 21.6988 27.8737 19.5405 19.3083 20.6406 18.9244 25.5134 20.9241 19.9122 19.2462 18.3962 16.7314 16.4028 16.2612 17.878 16.2147 20.2272 15.8657 24.428 16.8872 15.374 15.1476 21.0614 14.314 13.8681 31.9533 36.6773 13.6217 13.5433 13.4847 13.2171 13.1184 16.6397 12.9226 18.7233 13.4754 15.2334 13.458 18.968 12.8893 12.785 20.2045 12.7561 12.3642 18.2366 20.6272 12.3881 15.1429 16.9098 13.5653 20.5124 12.962 12.6023 14.9912 12.1421 19.8618
threshold=0.035550000146031387 0.73535001277923595 0.80474999547004711 0.89065000414848339 -4.1108498573303214 0.10225000232458116 1.1815499663352969 0.15634999424219134 0.02094999980181456 0.031950000673532493 0.27355000376701361 0.77144998311996471 -0.62979999184608448 2.167950034141541 0.18714999407529834 1.0738499760627749 0.70394998788833629 0.61935001611709606 1.0271499752998354 0.99865001440048229 -1.0000000180025095e-35 -2.1288501024246211 0.85774999856948864 0.98620000481605541 1.5524500012397768 -4.7627499103546134 0.29740001261234289 0.99064999818801891 -0.24759999662637708 -0.46249999105930323 0.74484997987747203 0.48205000162124639 6.0113000869750985 1.0115500092506411 0.56830000877380382 1.8730500340461733 0.38994999229907995 1.3837500214576723 0.79835000634193432 2.0920500755310063 1.3684499859809878 0.35435000061988836 0.90075001120567333 0.75885000824928295 0.7381500005722047 0.60260000824928295 0.46280001103878027 0.98774999380111705 4.4068999290466317 0.057550000026822097 0.9036499857902528 0.52480000257492077 0.60795000195503246 0.44129998981952673 0.30394999682903295 -1.9301000237464903 0.51765000820159923 0.83384999632835399 0.28480000793933874 0.72165000438690197 0.13595000654459002 0.52930000424385082
decision_type=2 2 2 2 2 2 2 2 2 2 2 2 2 2 2 2 2 2 2 2 2 2 2 2 2 2 2 2 2 2 2 2 2 2 2 2 2 2 2 2 2 2 2 2 2 2 2 2 2 2 2 2 2 2 2 2 2 2 2 2 2 2
left_child=4 17 3 -3 19 6 7 9 30 10 -6 13 15 21 -14 18 23 37 -13 20 -1 22 -9 25 29 -10 -15 -4 -29 -25 -7 35 -33 -11 -28 -32 -30 45 -39 43 41 -41 -43 -27 -45 48 47 -18 -2 50 -48 -52 55 54 -54 56 -51 -55 59 -57 -23 -62
right_child=1 2 27 -5 5 8 -8 11 16 33 -12 12 14 26 -16 -17 46 -19 -20 -21 -22 60 -24 24 -26 39 34 28 36 -31 31 32 -34 -35 -36 -37 -38 38 -40 40 -42 42 -44 44 -46 -47 49 -49 -50 52 51 -53 53 57 -56 58 -58 -59 -60 -61 61 -63
leaf_value=0.20907411138117726 0.015268940915434962 0.023982201533413877 -0.010918304479594701 0.18370690338994011 0.24987450358894742 -0.045997309149160219 -0.026262102547725603 0.15278224956996006 0.15334053910291856 -0.018009338187884787 0.027914374603840959 0.091868434603692317 0.14022994054687513 0.18785898327244177 -0.014130193906604749 -0.017832653882631996 -0.01425927667142099 -0.022643246586175905 0.27727981802356083 -0.0311824010350467 0.012460144633771701 -0.034543558148192516 -0.032322017196044106 0.11873474340503459 0.20187003063943318 -0.012489839823116503 0.12539900926987382 0.16530159622551746 0.11001006881927033 -0.038688916698599057 -0.040015896349730067 0 0.28419414872327869 0.11505675559173099 -0.04983208048677322 0.11722509810430654 -0.051425349584476379 0.12915327422425202 0.012953771056365608 -0.027234419413019264 0.18881702800229705 -0.0030728222591427431 0.18720684128680895 0.16180879829986744 -0.029436446578336679 -0.052840789974045677 -0.021180499784178675 0.16834236769583277 0.10388409076805874 0.18399086833970052 0.0035415592690404224 0.21158574049335366 0.12287977193367985 -0.029517389388285482 -0.035285319068299376 0.15183855997290199 -0.047828233668857606 0.084959984533157715 -0.022310282701097667 -0.0024972548114559189 -0.018142970117874833 0.17171621362145426
leaf_weight=2.6788569651544094 44.382339801639318 3.5779230892658251 11.206472434103491 6.449296522885561 2.9868513494729978 62.080432169139385 28.712604906409979 2.9866586327552787 1.7880084738135327 4.1303642801940441 1.709224786609411 2.9340211786329773 2.4458272010087958 2.147299386560916 11.396305028349159 1.5708350650966165 3.8395202606916419 24.26214786246419 2.2789633013308048 2.3779820837080479 2.1003464944660655 38.153295200318098 2.7037254013121128 2.181555487215519 2.5963415578007698 64.069304440170527 1.8066530637443063 3.7010673135519028 1.9363352060317973 3.7871020883321744 19.054565239697702 2.7731450647115699 1.8147506266832349 3.3805273473262787 2.481462836265564 1.3583563715219487 3.2370044477283955 6.218997582793234 6.2666978500783443 5.7837105914950353 1.9320900849997986 2.0549779869616032 1.9453719221055505 2.6354743689298621 2.3447803594172001 6.0911389328539363 6.1931558512151224 2.3418718688189983 4.4138962030410758 2.3925258517265351 2.4668173007667065 2.305260144174099 3.4993841350078574 159.93803624436259 3.0500977709889412 2.4607121832668808 1.4442586749792097 2.3957209028303614 20.260981108993292 3.9126342386007309 4.3723770007491103 1.8767638020217416
leaf_count=25 516 41 139 59 31 1068 434 33 19 55 23 37 32 24 174 24 52 316 23 32 27 574 42 26 28 927 20 37 19 55 320 44 24 40 38 20 44 56 69 84 21 30 21 30 35 85 88 27 38 28 35 23 38 2409 43 21 20 32 295 57 68 23
internal_value=7.41336e-06 0.0248809 0.0613624 0.128007 -0.00581082 -0.00693726 0.0114073 0.0235825 -0.0124391 0.0935325 0.172397 0.0123439 0.0532246 -0.00255194 0.0135959 0.131987 -0.00649479 0.012786 0.177559 0.0731874 0.125718 -0.0135904 0.0649291 0.012314 0.0767251 0.00548604 0.0814987 0.0273668 0.0758527 0.0190342 -0.0333491 -0.0016844 0.115884 0.0419494 0.0240314 -0.0287883 0.00899065 0.0256334 0.0717952 0.0019654 0.0503328 0.0208463 0.0905498 -0.00623006 0.0719763 0.0149303 -0.0144359 0.0557035 0.023583 -0.0165466 0.0347681 0.107348 -0.0194102 -0.0247109 0.0490473 0.00978956 0.0964602 -0.0277459 -0.00282277 0.0577436 -0.0238887 0.0398952
internal_weight=641.675 121.743 30.1081 10.0272 519.932 512.775 118.074 89.3612 394.701 12.207 4.69608 77.1542 20.626 56.5282 13.8421 6.78382 307.62 91.6352 5.21298 7.15719 4.7792 50.0928 5.69038 91.1187 8.565 82.5537 6.43542 20.0809 8.87441 5.96866 87.0812 25.0008 4.5879 7.51089 4.28812 20.4129 5.17334 67.3731 12.4857 80.7657 11.7162 9.78406 4.00035 69.0496 4.98025 54.8874 216.501 6.18139 48.7962 210.32 10.9652 4.77208 199.354 168.883 6.54948 30.4711 3.83678 162.334 26.6343 6.37335 44.4024 6.24914
internal_count=9118 1419 339 100 7699 7615 1695 1261 5920 149 54 1112 290 822 206 84 4444 1080 60 84 52 740 75 1276 109 1167 82 239 100 81 1476 408 68 95 58 340 63 764 125 1148 156 135 51 992 65 639 3168 79 554 3089 146 58 2943 2522 81 421 48 2441 373 78 665 91
is_linear=0
shrinkage=0.05


Tree=11
num_leaves=63
num_cat=0
split_feature=458 459 371 271 112 172 331 273 138 419 60 41 218 171 435 28 78 148 171 350 62 338 296 417 20 447 255 256 310 100 186 164 170 245 255 198 425 426 64 13 213 425 438 48 273 115 88 18 324 86 407 243 63 51 14 331 320 359 350 125 208 363
split_gain=39.7723 20.4668 16.032 15.0936 24.6567 18.1388 16.1095 15.8025 15.5129 16.1834 23.0138 15.3703 23.2468 16.0051 15.5434 14.9546 14.6198 14.1954 19.5565 21.3934 27.5376 17.3247 19.3147 15.7298 25.9458 18.4533 16.2232 15.5586 15.4568 31.1799 15.082 14.1933 20.1546 18.9835 15.1987 13.5602 13.015 12.3659 12.2722 14.1283 12.2588 20.7059 11.9574 12.7363 11.7785 14.7373 19.0063 17.8272 14.0827 12.4132 11.5105 14.9827 11.3568 10.8967 11.1856 20.3035 20.4649 14.6375 10.7396 10.6167 10.3566 10.3259
threshold=1.483550012111664 0.037250000983476646 0.47675000131130224 0.1212499998509884 0.35594999790191656 0.35684999823570257 0.86865001916885387 6.0825500488281259 1.4646499752998354 1.1147000193595888 0.98965001106262218 1.5436000227928164 1.60904997587204 -1.6605000495910642 -2.1022500991821285 0.061049999669194228 1.8701499700546267 0.39094999432563787 -0.18064999580383298 0.52844998240470897 0.73364999890327465 0.4212500005960465 0.86744999885559093 -2.5286000967025752 0.80134999752044689 -1.6746500134468076 0.83085000514984142 0.091550000011920943 0.83595001697540294 0.60690000653266918 3.4873499870300297 0.82894998788833629 1.1748500466346743 1.5796499848365786 -0.052050000056624406 0.22884999960660937 1.4091500043869021 2.3358000516891484 0.19084999710321429 0.19395000487565997 3.3691999912261967 0.77079999446868908 0.38274998962879186 1.075500011444092 -1.7017500400543211 0.45904999971389776 0.38334999978542333 2.3583999872207646 3.5423500537872319 1.4398499727249148 0.93334999680519115 -1.7451999783515928 0.52674999833107006 -6.4735498428344718 1.450999975204468 0.51115000247955333 0.89375001192092907 1.0666499733924868 1.1736999750137331 0.9507499933242799 0.71345001459121715 -0.33265000581741327
decision_type=2 2 2 2 2 2 2 2 2 2 2 2 2 2 2 2 2 2 2 2 2 2 2 2 2 2 2 2 2 2 2 2 2 2 2 2 2 2 2 2 2 2 2 2 2 2 2 2 2 2 2 2 2 2 2 2 2 2 2 2 2 2
left_child=17 3 16 4 5 -2 7 11 9 10 42 44 13 59 -15 36 37 21 30 20 -20 22 -1 24 -21 26 58 -27 -29 -30 -19 32 33 38 -34 -22 -4 -3 39 -17 -23 -42 43 -8 45 46 48 -48 49 60 51 -33 -9 -46 -55 56 -56 -58 -25 -13 -5 -57
right_child=1 2 15 6 -6 -7 8 52 -10 -11 -12 12 -14 14 -16 31 -18 18 19 23 35 40 -24 25 -26 27 -28 28 29 -31 -32 50 34 -35 -36 -37 -38 -39 -40 -41 41 -43 -44 -45 53 -47 47 -49 -50 -51 -52 -53 -54 54 55 61 57 -59 -60 -61 -62 -63
leaf_value=0.18111311559088156 0.023350988859228872 0 0.12479099179820304 -0.031524033596446656 -0.038716482303956162 0.19004352202817165 0.022924627880171397 0.13642430470371741 -0.039237535692989454 -0.03386071810027013 0.19363772558067593 0.16346892235443258 0.16696273546928342 0.09537259359257029 -0.023826876022635848 -0.0330247864508766 0.20015839290873433 -0.028808514603697474 0.21362267371429633 0.21829020490229897 -0.050298028437737563 -0.031488562480693497 -0.009785014247028016 -0.049638046498545536 -0.025778649953952688 0.10140415404425802 0.17426511954964918 -0.027728767338550921 -0.011220495841796102 0.26383868733085303 0.12221805707425802 0.10133614324861676 0.20463745776014616 0.12353650233125386 0.044560986261707597 0.10827674917963044 -0.024077219752427232 0.13856239933264697 -0.027876532009991663 0.11573831780968079 0.17681243224326842 -0.024533131495308436 -0.050029725558896856 0.19421968378350649 0.097052206135083627 -0.046021040938275283 0.048940822801403834 0.22003209445056404 0.15093984416023876 0.084632043915793848 -0.033190773438024027 -0.0011842297605543217 -0.021268492955191509 -0.018602680209790064 -0.01055956208034222 0.03321021406472939 0.049525598141645505 0.22927508999168641 0.10689413595655058 0.010507987561389596 0.10557948792678165 -0.044119798368602997
