tree
version=v4
num_class=1
num_tree_per_iteration=1
label_index=0
max_feature_idx=476
objective=binary sigmoid:1
feature_names=ret_1 close_norm_1 vol_ratio_1 ret_2 close_norm_2 vol_ratio_2 ret_3 close_norm_3 vol_ratio_3 ret_4 close_norm_4 vol_ratio_4 ret_5 close_norm_5 vol_ratio_5 ret_6 close_norm_6 vol_ratio_6 ret_7 close_norm_7 vol_ratio_7 ret_8 close_norm_8 vol_ratio_8 ret_9 close_norm_9 vol_ratio_9 ret_10 close_norm_10 vol_ratio_10 ret_11 close_norm_11 vol_ratio_11 ret_12 close_norm_12 vol_ratio_12 ret_13 close_norm_13 vol_ratio_13 ret_14 close_norm_14 vol_ratio_14 ret_15 close_norm_15 vol_ratio_15 ret_16 close_norm_16 vol_ratio_16 ret_17 close_norm_17 vol_ratio_17 ret_18 close_norm_18 vol_ratio_18 ret_19 close_norm_19 vol_ratio_19 ret_20 close_norm_20 vol_ratio_20 ret_21 close_norm_21 vol_ratio_21 ret_22 close_norm_22 vol_ratio_22 ret_23 close_norm_23 vol_ratio_23 ret_24 close_norm_24 vol_ratio_24 ret_25 close_norm_25 vol_ratio_25 ret_26 close_norm_26 vol_ratio_26 ret_27 close_norm_27 vol_ratio_27 ret_28 close_norm_28 vol_ratio_28 ret_29 close_norm_29 vol_ratio_29 ret_30 close_norm_30 vol_ratio_30 ret_31 close_norm_31 vol_ratio_31 ret_32 close_norm_32 vol_ratio_32 ret_33 close_norm_33 vol_ratio_33 ret_34 close_norm_34 vol_ratio_34 ret_35 close_norm_35 vol_ratio_35 ret_36 close_norm_36 vol_ratio_36 ret_37 close_norm_37 vol_ratio_37 ret_38 close_norm_38 vol_ratio_38 ret_39 close_norm_39 vol_ratio_39 ret_40 close_norm_40 vol_ratio_40 ret_41 close_norm_41 vol_ratio_41 ret_42 close_norm_42 vol_ratio_42 ret_43 close_norm_43 vol_ratio_43 ret_44 close_norm_44 vol_ratio_44 ret_45 close_norm_45 vol_ratio_45 ret_46 close_norm_46 vol_ratio_46 ret_47 close_norm_47 vol_ratio_47 ret_48 close_norm_48 vol_ratio_48 ret_49 close_norm_49 vol_ratio_49 ret_50 close_norm_50 vol_ratio_50 ret_51 close_norm_51 vol_ratio_51 ret_52 close_norm_52 vol_ratio_52 ret_53 close_norm_53 vol_ratio_53 ret_54 close_norm_54 vol_ratio_54 ret_55 close_norm_55 vol_ratio_55 ret_56 close_norm_56 vol_ratio_56 ret_57 close_norm_57 vol_ratio_57 ret_58 close_norm_58 vol_ratio_58 ret_59 close_norm_59 vol_ratio_59 ret_60 close_norm_60 vol_ratio_60 ret_61 close_norm_61 vol_ratio_61 ret_62 close_norm_62 vol_ratio_62 ret_63 close_norm_63 vol_ratio_63 ret_64 close_norm_64 vol_ratio_64 ret_65 close_norm_65 vol_ratio_65 ret_66 close_norm_66 vol_ratio_66 ret_67 close_norm_67 vol_ratio_67 ret_68 close_norm_68 vol_ratio_68 ret_69 close_norm_69 vol_ratio_69 ret_70 close_norm_70 vol_ratio_70 ret_71 close_norm_71 vol_ratio_71 ret_72 close_norm_72 vol_ratio_72 ret_73 close_norm_73 vol_ratio_73 ret_74 close_norm_74 vol_ratio_74 ret_75 close_norm_75 vol_ratio_75 ret_76 close_norm_76 vol_ratio_76 ret_77 close_norm_77 vol_ratio_77 ret_78 close_norm_78 vol_ratio_78 ret_79 close_norm_79 vol_ratio_79 ret_80 close_norm_80 vol_ratio_80 ret_81 close_norm_81 vol_ratio_81 ret_82 close_norm_82 vol_ratio_82 ret_83 close_norm_83 vol_ratio_83 ret_84 close_norm_84 vol_ratio_84 ret_85 close_norm_85 vol_ratio_85 ret_86 close_norm_86 vol_ratio_86 ret_87 close_norm_87 vol_ratio_87 ret_88 close_norm_88 vol_ratio_88 ret_89 close_norm_89 vol_ratio_89 ret_90 close_norm_90 vol_ratio_90 ret_91 close_norm_91 vol_ratio_91 ret_92 close_norm_92 vol_ratio_92 ret_93 close_norm_93 vol_ratio_93 ret_94 close_norm_94 vol_ratio_94 ret_95 close_norm_95 vol_ratio_95 ret_96 close_norm_96 vol_ratio_96 ret_97 close_norm_97 vol_ratio_97 ret_98 close_norm_98 vol_ratio_98 ret_99 close_norm_99 vol_ratio_99 ret_100 close_norm_100 vol_ratio_100 ret_101 close_norm_101 vol_ratio_101 ret_102 close_norm_102 vol_ratio_102 ret_103 close_norm_103 vol_ratio_103 ret_104 close_norm_104 vol_ratio_104 ret_105 close_norm_105 vol_ratio_105 ret_106 close_norm_106 vol_ratio_106 ret_107 close_norm_107 vol_ratio_107 ret_108 close_norm_108 vol_ratio_108 ret_109 close_norm_109 vol_ratio_109 ret_110 close_norm_110 vol_ratio_110 ret_111 close_norm_111 vol_ratio_111 ret_112 close_norm_112 vol_ratio_112 ret_113 close_norm_113 vol_ratio_113 ret_114 close_norm_114 vol_ratio_114 ret_115 close_norm_115 vol_ratio_115 ret_116 close_norm_116 vol_ratio_116 ret_117 close_norm_117 vol_ratio_117 ret_118 close_norm_118 vol_ratio_118 ret_119 close_norm_119 vol_ratio_119 ret_120 close_norm_120 vol_ratio_120 ret_121 close_norm_121 vol_ratio_121 ret_122 close_norm_122 vol_ratio_122 ret_123 close_norm_123 vol_ratio_123 ret_124 close_norm_124 vol_ratio_124 ret_125 close_norm_125 vol_ratio_125 ret_126 close_norm_126 vol_ratio_126 ret_127 close_norm_127 vol_ratio_127 ret_128 close_norm_128 vol_ratio_128 ret_129 close_norm_129 vol_ratio_129 ret_130 close_norm_130 vol_ratio_130 ret_131 close_norm_131 vol_ratio_131 ret_132 close_norm_132 vol_ratio_132 ret_133 close_norm_133 vol_ratio_133 ret_134 close_norm_134 vol_ratio_134 ret_135 close_norm_135 vol_ratio_135 ret_136 close_norm_136 vol_ratio_136 ret_137 close_norm_137 vol_ratio_137 ret_138 close_norm_138 vol_ratio_138 ret_139 close_norm_139 vol_ratio_139 ret_140 close_norm_140 vol_ratio_140 ret_141 close_norm_141 vol_ratio_141 ret_142 close_norm_142 vol_ratio_142 ret_143 close_norm_143 vol_ratio_143 ret_144 close_norm_144 vol_ratio_144 ret_145 close_norm_145 vol_ratio_145 ret_146 close_norm_146 vol_ratio_146 ret_147 close_norm_147 vol_ratio_147 ret_148 close_norm_148 vol_ratio_148 ret_149 close_norm_149 vol_ratio_149 ret_150 close_norm_150 vol_ratio_150 rs_at_d2 rs_20 rs_50 rs_150 rs_trend rsi_14 bb_pos pos_52w_high pos_52w_low atr_ratio ma20_pos ma50_pos sec_Technology sec_Healthcare sec_Financial sec_Consumer sec_Energy sec_Industrial sec_Materials sec_Utilities sec_Real_Estate sec_Communication sec_Other cap_MegaCap cap_LargeCap cap_MidCap cap_SmallCap
feature_infos=none [0:1] [0.060699999332427979:58.884101867675781] [-16.909799575805664:26.992799758911133] [0:1] [0.13490000367164612:58.884101867675781] [-18.633100509643555:24.164400100708008] [0:1] [0.13210000097751617:58.884101867675781] [-19.576299667358398:24.164400100708008] [0:0.99570000171661377] [0.067100003361701965:58.884101867675781] [-22.943700790405273:17.971500396728516] [0:0.99570000171661377] [0.11349999904632568:19.651699066162109] [-22.943700790405273:26.992799758911133] [0:0.99260002374649048] [0.075300000607967377:19.651699066162109] [-22.943700790405273:24.164400100708008] [0:0.99260002374649048] [0.075300000607967377:16.41309928894043] [-21.150299072265625:24.164400100708008] [0:0.993399977684021] [0.13570000231266022:22.401599884033203] [-30.626699447631836:26.992799758911133] [0:1] [0.095299996435642242:24.170200347900391] [-30.626699447631836:21.793600082397461] [0:1] [0.095299996435642242:16.956300735473633] [-19.704900741577148:22.222200393676758] [0:1] [0.067100003361701965:28.107500076293945] [-21.150299072265625:25.09589958190918] [0:1] [0.10740000009536743:22.516199111938477] [-19.086799621582031:27.097900390625] [0:1] [0.067100003361701965:17.940200805664062] [-19.086799621582031:21.432600021362305] [0:1] [0.067100003361701965:17.940200805664062] [-18.633100509643555:32.902900695800781] [0:1] [0.067100003361701965:17.940200805664062] [-25:32.902900695800781] [0:1] [0.067100003361701965:22.516199111938477] [-16.291799545288086:32.902900695800781] [0:1] [0.098800003528594971:16.406099319458008] [-16.46820068359375:19.594600677490234] [0:0.99479997158050537] [0.082500003278255463:33.137599945068359] [-16.46820068359375:32.902900695800781] [0:1] [0.082500003278255463:22.06049919128418] [-17.527099609375:19.788700103759766] [0:1] [0.098800003528594971:61.598499298095703] [-17.527099609375:23.631500244140625] [0:1] [0.10170000046491623:61.598499298095703] [-22.943700790405273:23.631500244140625] [0:1] [0.10170000046491623:61.598499298095703] [-17.527099609375:23.631500244140625] [0:1] [0:61.598499298095703] [-16.314300537109375:32.902900695800781] [0:1] [0.050400000065565109:61.598499298095703] [-17.527099609375:23.631500244140625] [0:1] [0.050400000065565109:14.531700134277344] [-16.771999359130859:20.634899139404297] [0:1] [0.067900002002716064:61.598499298095703] [-17.527099609375:20.538600921630859] [0:1] [0.13120000064373016:29.308799743652344] [-17.527099609375:33.141998291015625] [0:1] [0.11659999936819077:17.742000579833984] [-17.527099609375:33.141998291015625] [0:1] [0.11879999935626984:18.841999053955078] [-17.527099609375:19.981599807739258] [0:1] [0.16390000283718109:20.701700210571289] [-21.767599105834961:19.981599807739258] [0:1] [0.12919999659061432:13.321200370788574] [-21.122400283813477:38.247501373291016] [0:1] [0.11500000208616257:21.231800079345703] [-21.122400283813477:38.247501373291016] [0:1] [0.11500000208616257:19.180500030517578] [-21.122400283813477:23.748899459838867] [0:1] [0.11659999936819077:21.231800079345703] [-19.034599304199219:38.247501373291016] [0:1] [0.062300000339746475:21.231800079345703] [-19.034599304199219:26.644199371337891] [0:0.98549997806549072] [0.11100000143051147:20.701700210571289] [-19.034599304199219:26.556299209594727] [0:1] [0.12909999489784241:15.793800354003906] [-21.54789924621582:24.927999496459961] [0:1] [0.1062999963760376:13.750900268554688] [-21.767599105834961:24.927999496459961] [0:0.98420000076293945] [0.1062999963760376:15.793800354003906] [-21.54789924621582:24.060199737548828] [0:1] [0.097400002181529999:15.793800354003906] [-24.809299468994141:24.927999496459961] [0:1] [0.1062999963760376:15.793800354003906] [-24.809299468994141:24.672000885009766] [0:1] [0.11349999904632568:12.546299934387207] [-13.38029956817627:26.369899749755859] [0:1] [0.067100003361701965:16.536300659179688] [-35.14739990234375:21.163600921630859] [0:1] [0.067100003361701965:45.87969970703125] [-21.767599105834961:21.163600921630859] [0:1] [0.067100003361701965:45.87969970703125] [-52.361499786376953:24.060199737548828] [0:1] [0.095899999141693115:45.87969970703125] [-22.729799270629883:20.33329963684082] [0:1] [0.095899999141693115:17.749700546264648] [-22.729799270629883:20.634899139404297] [0:1] [0.095899999141693115:45.87969970703125] [-22.729799270629883:20.449300765991211] [0:1] [0.095899999141693115:28.063400268554688] [-22.729799270629883:23.965799331665039] [0:1] [0.095899999141693115:14.81350040435791] [-24.059099197387695:38.247501373291016] [0:1] [0.097400002181529999:14.81350040435791] [-25:38.247501373291016] [0:1] [0.097400002181529999:16.498899459838867] [-25:20.449300765991211] [0:0.99029999971389771] [0.12700000405311584:13.583999633789062] [-22.729799270629883:20.52079963684082] [0:1] [0.093400001525878906:14.81350040435791] [-14.138899803161621:24.285699844360352] [0:0.99639999866485596] [0.093400001525878906:36.175201416015625] [-17.184299468994141:24.879499435424805] [0:1] [0.093400001525878906:13.583999633789062] [-17.41670036315918:23.755500793457031] [0:1] [0.093400001525878906:14.81350040435791] [-16.519699096679688:26.200899124145508] [0:0.99459999799728394] [0:28.063400268554688] [-14.644599914550781:34.978000640869141] [0:1] [0.098800003528594971:28.063400268554688] [-15.979399681091309:24.879499435424805] [0:1] [0.1005999967455864:29.587299346923828] [-21.190500259399414:28.25] [0:0.99470001459121704] [0.01119999960064888:29.587299346923828] [-18.934200286865234:23.594999313354492] [0:0.99470001459121704] [0.074100002646446228:29.587299346923828] [-14.644599914550781:30.929800033569336] [0:1] [0.065999999642372131:29.587299346923828] [-26.125799179077148:23.593500137329102] [0:1] [0.15049999952316284:29.587299346923828] [-17.149200439453125:23.869300842285156] [0:0.9968000054359436] [0.13439999520778656:29.587299346923828] [-21.940200805664062:24.150899887084961] [0:0.9968000054359436] [0.13259999454021454:29.587299346923828] [-14.644599914550781:30.929800033569336] [0:0.9968000054359436] [0.125:22.401599884033203] [-34.3760986328125:23.869300842285156] [0:1] [0.13259999454021454:21.008899688720703] [-34.3760986328125:28.25] [0:1] [0.13279999792575836:21.032199859619141] [-16.419000625610352:30.929800033569336] [0:1] [0.1315000057220459:21.032199859619141] [-19.128900527954102:24.285699844360352] [0:1] [0.11320000141859055:29.587299346923828] [-22.520000457763672:19.533899307250977] [0:0.99739998579025269] [0:29.587299346923828] [-15.294099807739258:25.64579963684082] [0:0.99739998579025269] [0.11320000141859055:29.587299346923828] [-22.520000457763672:25.64579963684082] [0:0.99550002813339233] [0.13279999792575836:20.276300430297852] [-22.520000457763672:25.64579963684082] [0:0.99550002813339233] [0:20.276300430297852] [-21.134899139404297:43.741901397705078] [0:0.99379998445510864] [0.12389999628067017:20.276300430297852] [-21.134899139404297:43.741901397705078] [0:1] [0.12680000066757202:20.276300430297852] [-13.956600189208984:24.335100173950195] [0:0.99140000343322754] [0.097999997437000275:20.276300430297852] [-19.128900527954102:24.285699844360352] [0:0.99140000343322754] [0.08959999680519104:33.333099365234375] [-17.639999389648438:24.285699844360352] [0:0.99140000343322754] [0.06679999828338623:33.333099365234375] [-13.956600189208984:20.858100891113281] [0:0.99140000343322754] [0.06679999828338623:20.276300430297852] [-19.713100433349609:28.25] [0:0.99220001697540283] [0.06679999828338623:21.032199859619141] [-19.713100433349609:24.285699844360352] [0:0.99140000343322754] [0.06679999828338623:47.418399810791016] [-19.713100433349609:24.440399169921875] [0:0.99940001964569092] [0.06679999828338623:47.418399810791016] [-15.21560001373291:24.440399169921875] [0:1] [0.06679999828338623:18.096099853515625] [-19.713100433349609:25.820199966430664] [0:0.99949997663497925] [0.10429999977350235:12.347700119018555] [-19.162900924682617:25.820199966430664] [0:0.99949997663497925] [0.11640000343322754:14.047200202941895] [-19.162900924682617:21.572200775146484] [0:0.99949997663497925] [0:13.859199523925781] [-13.161499977111816:25.960699081420898] [0:0.99949997663497925] [0:29.587299346923828] [-13.161499977111816:25.960699081420898] [0:0.9968000054359436] [0:12.347700119018555] [-13.161499977111816:24.739900588989258] [0:0.99690002202987671] [0.094999998807907104:29.587299346923828] [-16.732000350952148:24.739900588989258] [0:0.99690002202987671] [0.11209999769926071:29.587299346923828] [-15.282899856567383:21.387899398803711] [0:0.99690002202987671] [0.15770000219345093:21.008899688720703] [-13.161499977111816:31.651399612426758] [0:0.99589997529983521] [0:16.85460090637207] [-13.774100303649902:31.651399612426758] [0:0.99589997529983521] [0.10350000113248825:20.464599609375] [-12.919899940490723:31.651399612426758] [0:0.99930000305175781] [0.10350000113248825:21.008899688720703] [-18.1697998046875:24.031200408935547] [0:0.99930000305175781] [0.10859999805688858:19.960399627685547] [-18.1697998046875:31.651399612426758] [0:0.99930000305175781] [0.08959999680519104:20.464599609375] [-18.1697998046875:31.651399612426758] [0:0.99930000305175781] [0.08959999680519104:20.464599609375] [-18.1697998046875:24.440399169921875] [0:0.99449998140335083] [0.11949999630451202:20.464599609375] [-9.8887996673583984:24.440399169921875] [0:0.99930000305175781] [0.11949999630451202:17.905799865722656] [-18.1697998046875:17.714700698852539] [0:0.99930000305175781] [0.11010000109672546:15.272899627685547] [-11.725199699401855:24.440399169921875] [0:0.99930000305175781] [0.11010000109672546:36.410400390625] [-18.1697998046875:17.080699920654297] [0:0.99959999322891235] [0.017300000414252281:36.410400390625] [-18.1697998046875:21.855899810791016] [0:0.99930000305175781] [0.11029999703168869:36.410400390625] [-18.1697998046875:18.793699264526367] [0:0.99930000305175781] [0.11029999703168869:36.410400390625] [-18.1697998046875:38.136501312255859] [0:0.99930000305175781] [0.097499996423721313:19.899799346923828] [-13.823599815368652:35.195499420166016] [0:0.99809998273849487] [0.078299999237060547:19.899799346923828] [-13.823599815368652:28.472700119018555] [0:0.99610000848770142] [0.10790000110864639:36.410400390625] [-11.842100143432617:28.472700119018555] [0:0.99870002269744873] [0.10790000110864639:19.899799346923828] [-12.12600040435791:28.472700119018555] [0:0.99870002269744873] [0.1632000058889389:19.899799346923828] [-11.714599609375:20.452800750732422] [0:0.99870002269744873] [0.082800000905990601:14.593299865722656] [-12.639100074768066:38.136501312255859] [0:0.99870002269744873] [0.1526000052690506:26.473699569702148] [-12.639100074768066:38.136501312255859] [0:0.99709999561309814] [0.14699999988079071:16.85460090637207] [-12.639100074768066:41.754001617431641] [0:0.99870002269744873] [0.14699999988079071:38.948001861572266] [-12.698399543762207:38.136501312255859] [0:0.99910002946853638] [0.12060000002384186:29.872299194335938] [-11.480299949645996:23.881099700927734] [0:0.99930000305175781] [0.11630000174045563:29.872299194335938] [-18.427499771118164:23.881099700927734] [0:0.99930000305175781] [0.11630000174045563:24.608499526977539] [-13.043499946594238:23.881099700927734] [0:0.99870002269744873] [0.11630000174045563:18.096099853515625] [-11.094599723815918:23.881099700927734] [0:0.99870002269744873] [0.084100000560283661:18.096099853515625] [-18.427499771118164:23.881099700927734] [0:0.99900001287460327] [0:18.096099853515625] [-18.427499771118164:23.881099700927734] [0:0.99879997968673706] [0:18.096099853515625] [-23.239599227905273:41.754001617431641] [0:0.99879997968673706] [0.11479999870061874:38.948001861572266] [-18.427499771118164:41.754001617431641] [0:0.9976000189781189] [0.12129999697208405:38.948001861572266] [-18.427499771118164:18.385299682617188] [0:0.9976000189781189] [0.12129999697208405:16.957399368286133] [-23.239599227905273:20] [0:0.99860000610351562] [0.12129999697208405:34.231601715087891] [-18.427499771118164:19.533899307250977] [0:0.99860000610351562] [0.1379999965429306:34.231601715087891] [-13.956600189208984:32.669300079345703] [0:0.99910002946853638] [0.14069999754428864:34.231601715087891] [-11.842100143432617:20.022600173950195] [0:0.99930000305175781] [0.070000000298023224:37.207401275634766] [-11.116800308227539:25.456600189208984] [0:0.99959999322891235] [0.070000000298023224:34.231601715087891] [-8.5664997100830078:25.456600189208984] [0:0.99959999322891235] [0.070000000298023224:18.673000335693359] [-16.488000869750977:25.456600189208984] [0:0.99940001964569092] [0.1445000022649765:37.207401275634766] [-11.250699996948242:25.456600189208984] [0.027699999511241913:0.99940001964569092] [0.1445000022649765:37.207401275634766] [-10.133299827575684:25.456600189208984] [0.027699999511241913:1] [0.13079999387264252:37.207401275634766] [-8.9509000778198242:25.262399673461914] [0.046700000762939453:1] [0.094300001859664917:37.207401275634766] [-14.475299835205078:21.436500549316406] [0.02759999968111515:1] [0.065999999642372131:37.207401275634766] [-14.475299835205078:18.752099990844727] [0:1] [0.095299996435642242:24.777200698852539] [-14.475299835205078:30.222200393676758] [0:1] [0.12449999898672104:17.122600555419922] [-14.475299835205078:20.195699691772461] [0.02759999968111515:1] [0.17000000178813934:20.977699279785156] [-11.677000045776367:30.222200393676758] [0.021600000560283661:1] [0.13079999387264252:17.122600555419922] [-10.757800102233887:40.405601501464844] [0:1] [0.12999999523162842:54.056900024414062] [-10.998299598693848:28.820600509643555] [0:1] [0.12449999898672104:34.750801086425781] [-10.998299598693848:25.820199966430664] [0.02759999968111515:1] [0.11699999868869781:25.18440055847168] [-11.269000053405762:40.405601501464844] [0.059700001031160355:1] [0.082800000905990601:54.056900024414062] [-13.86139965057373:40.405601501464844] [0.14980000257492065:1] [0.082800000905990601:54.056900024414062] [-13.86139965057373:27.011199951171875] [0.29559999704360962:1] [0.082800000905990601:20.399900436401367] [-11.250699996948242:22.404699325561523] [0.26159998774528503:1] [0.082800000905990601:25.18440055847168] [-11.269000053405762:16.749599456787109] [0.30660000443458557:1] [0.082800000905990601:25.18440055847168] [-11.269000053405762:15.572400093078613] [0.28830000758171082:1] [0.082800000905990601:31.590499877929688] [-9.6835002899169922:10.544899940490723] [0.28830000758171082:1] [0.11500000208616257:31.590499877929688] none none none none none [27.825199127197266:79.609298706054688] [0:1] [0.21449999511241913:1] [1.1591000556945801:2.0657000541687012] [0.0096000004559755325:0.096500001847743988] [0.91089999675750732:1.2489999532699585] [0.93889999389648438:1.3543000221252441] none none none none none none none none none none none none none none none
tree_sizes=6626 6756 6762 6777 6767 6752 6743 6757 6773 6774 6805 6752 6793 6797 6749 6805 6772 6797 6775 6789 6784 6758 6816 6820 6797 6806 6831 6792 6807 6821 6814 6812 6831 6813 6815 6827 6846 6821 6848 6824 6840 6858 6823 6841 6865 6831 6845 6866 6819 6874 6844 6859 6848 6876 6856 6848 6877 6863 6852 6886 6858 6872 6856 6834 6877 6852 6855 6880 6873 6857 6870 6902 6867 6855 6882 6861 6870 6871 6824 6872 6877 6867 6866 6876 6845 6856 6856 6857 6875 6829 6858 6879 6860 6861 6867 6838 6826 6903 6878 6887 6896 6880 6864 6877 6877 6890 6841 6873 6890 6826 6879 6881 6890 6863 6866 6879 6875 6857 6877 6890 6861 6850 6882 6862 6854 6905 6877 6886 6847 6885 6894 6884 6857 6883 6887 6862 6863 6887 6840

Tree=0
num_leaves=63
num_cat=0
split_feature=458 259 379 262 172 402 76 12 30 446 58 14 331 323 41 412 153 299 271 282 104 371 459 56 9 24 254 374 448 418 307 39 337 292 139 66 128 401 361 173 96 275 311 195 264 402 71 332 300 70 184 198 314 303 227 261 194 290 96 227 396 236
split_gain=110.373 43.8579 43.0186 51.1067 42.2696 48.6085 39.4269 56.4832 38.0648 37.9801 34.8563 29.2645 45.9941 32.9728 30.6135 33.2079 30.452 30.4211 29.1018 26.1366 31.7955 22.7682 30.6288 22.9845 21.7831 18.86 18.7773 17.7143 16.1584 29.4215 16.9243 15.8907 31.7628 16.4181 25.8633 15.7907 15.5991 19.719 17.9476 32.1696 14.7263 14.2337 13.9532 28.823 14.1701 14.0254 22.3349 13.2325 12.1554 26.2504 18.9427 19.7035 13.9387 12.3647 12.0424 26.336 11.4951 11.2586 23.9629 10.682 22.5612 16.5706
threshold=1.4854499697685244 0.13310000300407412 0.36654999852180487 0.36834999918937689 0.057749999687075622 -0.9610999822616576 0.34694999456405645 3.3202500343322758 1.2925500273704531 0.71070000529289257 0.15425000339746478 1.4356500506401064 0.4934500008821488 2.7138499021530156 1.7013999819755556 0.8988499939441682 1.6299499869346621 1.2727000117301943 0.29684999585151678 3.1940000057220463 0.76155000925064098 0.44664999842643743 0.034849999472498901 0.81134998798370372 -5.2027502059936515 -0.96490001678466786 0.70954999327659618 0.39124999940395361 0.74265000224113475 0.74735000729560863 0.91955000162124645 0.49895000457763677 0.40399999916553503 0.7056500017642976 0.33795000612735754 1.6622999906539919 1.3667500019073489 0.33940000832080847 0.33134999871253973 1.0275000333786013 -5.4236998558044425 0.98230001330375682 1.723599970340729 2.2940000295639043 6.2038500308990487 1.2587500214576723 0.95604997873306286 0.7161499857902528 -1.8285000324249265 0.069299999624490752 0.71805000305175792 -0.19865000247955319 0.51339998841285717 3.4086999893188481 1.2617499828338625 -0.36634999513626093 0.48925000429153448 2.7169500589370732 0.031449999660253532 0.55869999527931224 3.0866500139236455 0.55255001783370983
decision_type=2 2 2 2 2 2 2 2 2 2 2 2 2 2 2 2 2 2 2 2 2 2 2 2 2 2 2 2 2 2 2 2 2 2 2 2 2 2 2 2 2 2 2 2 2 2 2 2 2 2 2 2 2 2 2 2 2 2 2 2 2 2
left_child=24 6 3 -3 5 -4 7 8 26 -5 11 13 -13 14 19 -16 -17 41 -7 27 -21 22 47 -24 -1 -20 -2 -6 29 -23 36 54 -33 -34 -35 -8 37 -30 39 -39 -26 -14 44 45 59 -44 -47 -12 49 -42 52 -52 -51 56 -29 -56 -54 -50 -59 60 61 -40
right_child=1 2 4 9 10 18 35 -9 -10 -11 21 12 17 -15 15 16 -18 -19 25 20 -22 28 23 -25 40 -27 -28 31 30 -31 -32 32 33 34 -36 -37 -38 38 42 -41 48 -43 43 -45 -46 46 -48 -49 57 50 51 -53 53 -55 55 -57 -58 58 -60 -61 -62 -63
leaf_value=-2.3463270186986391 -2.2955370670697963 -2.474063156730518 -2.1696484696059009 -2.3987919465024974 -2.3057041167641903 -2.2380826597442787 -2.4954440977169119 -2.0264406275492699 -2.1803655253194956 -2.0580087194472458 -2.3702782809969252 -2.1583533960028145 -2.5206481871828381 -2.2258938719227115 -2.474063156730518 -2.3743674955032352 -2.088499180708141 -2.2258938719227115 -2.3235370412652339 -2.4913576863958644 -2.213128716807101 -2.2126162870258836 -2.1331372798155197 -2.4006077758895441 -2.3782436715978497 -2.5120355270625363 -2.5054556790834108 -2.505688568297578 -2.2955370670697959 -2.461229542806378 -2.3400914613411907 -2.2748208717949252 -2.4910241228160186 -2.2439439928873535 -2.4821365442877328 -2.3463270186986391 -2.5118516106966644 -2.4832054640073653 -2.3743494794280924 -2.2095978659039601 -2.2630571096189409 -2.3629523060184625 -2.5120355270625367 -2.2380826597442787 -2.3516650535406445 -2.2870487285767576 -2.5176836792045107 -2.510332459682254 -2.4984265676430049 -2.3520218351055528 -2.2305771521680855 -2.4839208203331551 -2.386125699945064 -2.3604969819715063 -2.3166172329612733 -2.5028203305579946 -2.5160135077731511 -2.5194949625863123 -2.3016589078880494 -2.4887291766467579 -2.2630571096189405 -2.4977592953412944
leaf_weight=2.4469985216855994 1.4394108951091782 3.1667039692401877 2.4469985216855994 1.5113814398646357 1.5113814398646344 1.6553225293755511 5.6856730356812459 1.5113814398646352 1.9432047083973882 1.9432047083973882 2.5189690664410573 2.231086887419222 4.0303505063056946 1.5833519846200932 3.1667039692401877 2.5909396111965179 1.5113814398646352 1.5833519846200941 1.655322529375552 1.7992636188864701 2.159116342663765 1.5113814398646344 1.4394108951091769 1.9432047083973882 2.6629101559519759 5.3258203119039544 3.3106450587511063 31.954921871423721 1.4394108951091755 4.7500559538602829 2.0871457979083052 2.5189690664410618 12.666815876960756 1.8712341636419285 2.5909396111965179 2.4469985216856003 31.739010237157345 2.6629101559519759 3.5985272377729407 1.6553225293755529 1.4394108951091791 2.0871457979083061 5.3258203119039518 1.655322529375552 1.9432047083973873 2.2310868874192238 1.7992636188864706 4.6061148643493652 283.2040936127305 1.6553225293755591 1.4394108951091769 1.4394108951091755 1.727293074131018 1.4394108951091755 2.8068512454628944 5.3258203119039518 22.310868874192238 2.7348807007074347 2.159116342663765 129.40303947031498 1.4394108951091755 10.147846810519694
leaf_count=34 20 44 34 21 21 23 79 21 27 27 35 31 56 22 44 36 21 22 23 25 30 21 20 27 37 74 46 444 20 66 29 35 176 26 36 34 441 37 50 23 20 29 74 23 27 31 25 64 3935 23 20 20 24 20 39 74 310 38 30 1798 20 141
internal_value=-2.471 -2.45074 -2.45491 -2.32969 -2.45765 -2.36218 -2.37105 -2.29433 -2.36118 -2.19953 -2.46125 -2.43398 -2.35367 -2.44495 -2.45014 -2.35349 -2.26131 -2.41416 -2.42011 -2.46115 -2.33826 -2.47195 -2.40058 -2.27898 -2.49173 -2.46662 -2.44061 -2.46921 -2.4757 -2.39735 -2.47825 -2.4737 -2.43707 -2.4622 -2.3806 -2.45024 -2.47982 -2.47354 -2.47526 -2.37596 -2.49289 -2.46681 -2.47807 -2.42414 -2.48218 -2.45968 -2.38991 -2.46083 -2.49389 -2.46452 -2.47467 -2.35518 -2.4879 -2.49735 -2.49181 -2.43809 -2.50617 -2.49711 -2.42297 -2.48405 -2.44464 -2.46536
internal_weight=656.587 331.928 315.591 6.62129 308.97 11.0835 16.3373 8.20464 6.69326 3.45459 297.886 83.9896 9.93194 74.0577 72.4743 7.26903 4.10232 7.70085 8.63647 65.2053 3.95838 213.896 10.5077 3.38262 324.659 6.98114 4.75006 61.2469 203.389 6.26144 197.127 59.7356 19.648 17.129 4.46217 8.13267 195.04 163.301 161.862 4.31823 322.212 6.1175 157.544 11.0115 146.532 9.35617 4.03035 7.12508 319.549 31.4511 30.0117 2.87882 27.1329 25.4776 40.0876 8.13267 24.0382 288.098 4.894 144.589 15.1858 13.7464
internal_count=9123 4612 4385 92 4293 154 227 114 93 48 4139 1167 138 1029 1007 101 57 107 120 906 55 2972 146 47 4511 97 66 851 2826 87 2739 830 273 238 62 113 2710 2269 2249 60 4477 85 2189 153 2036 130 56 99 4440 437 417 40 377 354 557 113 334 4003 68 2009 211 191
is_linear=0
shrinkage=1


Tree=1
num_leaves=63
num_cat=0
split_feature=458 226 457 267 376 271 421 459 40 457 235 239 148 375 271 58 340 343 133 55 458 230 80 246 126 211 300 3 51 124 435 43 433 206 153 441 19 9 269 69 187 319 263 282 261 236 276 154 300 281 347 242 137 405 218 137 135 342 126 432 48 270
split_gain=99.6589 39.7371 55.1914 45.5035 38.3841 32.774 29.9481 24.7309 26.1961 36.8206 28.6712 47.4298 24.6627 31.0659 24.252 30.0049 24.0994 36.9846 36.128 31.1172 35.4732 31.1375 25.3007 23.6259 30.5943 23.3244 32.9167 23.5645 21.3014 24.9567 23.1638 26.683 23.9826 21.1586 18.7817 28.121 18.6639 18.5344 16.7319 18.9157 23.2826 14.7333 14.609 14.2694 13.5565 23.2877 12.8986 12.7798 12.0978 20.0559 22.7923 12.8538 12.077 11.9106 18.5634 10.9053 16.4465 16.2699 31.0582 18.1926 12.8814 11.1165
threshold=1.4854499697685244 0.3132500052452088 0.88920000195503246 3.094500064849854 0.32144999504089361 0.3522499948740006 0.60159999132156383 0.044050000607967384 0.099249999970197691 0.98925000429153453 0.71674999594688427 0.82179999351501476 0.24184999614953998 -0.3047999888658523 0.130500003695488 0.38204999268054968 0.70144999027252208 0.71035000681877147 0.25204999744892126 0.098349999636411681 1.7396999597549441 1.0187500119209292 0.82945001125335704 0.8071500062942506 -0.3737999945878982 0.51025000214576732 -1.8780499696731565 1.1812000274658205 -3.612450003623962 0.2759499996900559 -2.0464999675750728 0.24485000222921374 0.93224999308586132 3.6978999376297002 2.6739000082015996 0.64989998936653148 0.7365500032901765 -5.2027502059936515 1.1874499917030337 0.075100000947713866 0.43035000562667852 0.92180001735687267 1.0526999831199648 6.9490001201629648 -3.844650030136108 1.3555999994277956 6.0292999744415292 0.19614999741315844 -1.8285000324249265 1.4017500281333926 0.96250000596046459 1.9165999889373782 1.1006000041961672 -1.9020500183105467 0.78685000538826 0.6326500177383424 1.9855499863624575 2.229950070381165 0.62119999527931224 -2.3595499992370601 4.3740499019622812 -2.0945999622344966
decision_type=2 2 2 2 2 2 2 2 2 2 2 2 2 2 2 2 2 2 2 2 2 2 2 2 2 2 2 2 2 2 2 2 2 2 2 2 2 2 2 2 2 2 2 2 2 2 2 2 2 2 2 2 2 2 2 2 2 2 2 2 2 2
left_child=37 2 3 23 5 -3 -4 8 9 10 12 -12 13 -6 15 -10 28 18 -18 22 -21 -22 -19 24 -2 26 -9 -28 29 -8 31 32 -30 36 53 -36 41 -1 -14 40 -40 44 -43 46 45 -16 48 -15 49 51 -51 -39 -33 54 -32 56 57 59 -59 -46 -61 -57
right_child=1 4 6 -5 7 -7 16 25 14 -11 11 -13 38 47 33 -17 17 19 -20 20 21 -23 -24 -25 -26 -27 27 -29 30 -31 34 52 -34 -35 35 -37 -38 43 39 -41 -42 42 -44 -45 55 -47 -48 -49 -50 50 -52 -53 -54 -55 -56 61 -58 58 -60 60 -62 -63
leaf_value=0.10548625949367248 0.29169183650410496 0.0023705406335634339 0.22352293200362447 0.38114694449456255 0.22543925251939734 0.30926402169749612 0.24808067141473802 0.31861557761084891 0.27471990376882682 0.24458426629987773 -0.048525480609228247 0.28838465220476139 -0.034791259034019632 -0.050934446869244809 -0.004180958725811171 -0.020567119250141555 0.041588109827081915 0.31039386775195688 0.387860164101614 -0.028272145018063272 0.0018850378440674856 0.31138820273894657 0.043536765244519514 0.00094179652212661869 0.041953411797245266 -0.00098471381950604431 -0.0027158011106132051 0.20162602200109392 0.25576716622416312 -0.00096185960714964514 0.18949931545378937 -0.051631765375166006 0.0061789660738159795 0.17302028606401279 -0.022000688556961367 0.1961541970374131 0.13412969492704371 -0.020676543699723229 0.26954824035636887 -0.033721469290812538 0.0028491425488551014 -0.015521196638528276 0.20037129592754771 0.11967162654009847 0.096224581934419351 0.21659661138342426 0.090584227100636946 0.098469251717698741 -0.028233659252177152 0.0072531979860205754 0.25367852912558847 0.10512619650993714 0.10260073054581927 -0.030395048035573455 -0.028836326951551351 0.014663967024349101 0.12233718277862603 0.23556981618120387 -0.048786508144363964 -0.046223394691687757 0.099516929354176914 -0.03051638497915686
leaf_weight=2.7107084244489661 2.4974291846156111 1.6548650264739984 1.8780221715569485 1.7349161654710759 2.5781029164791107 1.8191438019275663 1.8827485740184777 1.6420110315084455 1.570447035133838 1.9069386869668949 1.7227307856082905 2.38058240711689 20.899971835315231 3.0261154249310476 4.0943913906812659 1.687745004892349 1.4673964381217985 1.682009495794776 1.5962000191211698 11.835142746567724 1.6781706959009164 1.5402227714657781 1.9486217871308325 3.5069681778550148 2.4991947039961806 6.6516956835985184 3.9724791869521123 2.0465400442481041 2.6373502090573293 1.9599509760737417 1.5397092998027724 3.6774784922599792 1.5566603541374204 1.4398837536573399 3.3082899302244178 2.4941785559058189 2.0253243520855895 25.508830457925804 1.5981486663222306 2.8510200753808022 1.657977372407913 1.4573534727096551 1.4719302207231519 1.6282261982560147 2.8895617872476675 1.5602442026138303 2.3215046301484099 2.5188844278454781 280.35062690079212 2.3418404981493945 1.5234213843941686 2.0981958433985701 1.8115218207240102 40.002850860357292 2.2661068364977837 15.131796725094317 2.7312869280576697 1.7977134883403771 1.840324595570564 19.8952039629221 1.5279778316617001 120.34871582686901
leaf_count=34 31 21 24 21 33 20 24 21 20 25 24 32 287 42 56 23 20 22 21 164 22 20 27 46 34 91 54 26 33 26 20 50 21 19 45 33 28 354 21 40 23 20 20 23 39 20 33 34 3986 32 20 29 24 549 31 209 37 24 26 277 21 1671
internal_value=-0.00203197 0.0168932 0.0438969 0.153258 0.00596259 0.168629 0.0307724 0.00348618 -0.000600857 0.0353486 0.0244557 0.147958 0.00950933 0.0854181 -0.00879337 0.124215 0.0261911 0.0714972 0.230141 0.0441319 0.0116584 0.15643 0.173514 0.102293 0.171034 0.0669632 0.125856 0.0681054 0.0104178 0.122987 0.00284349 0.0732337 0.166595 -0.0113215 -0.0109143 0.0726602 -0.0129482 -0.0220958 -0.0133687 0.0585179 0.13937 -0.0147572 0.094345 -0.0232399 -0.0167002 0.0585731 -0.0240344 0.0165904 -0.0249325 0.00431151 0.109586 -0.0105899 0 -0.0222378 0.0608052 -0.0193255 0.00744552 -0.00399929 0.0929317 -0.0190296 -0.0351823 -0.0254262
internal_weight=655.882 337.398 97.0011 10.2385 240.397 3.47401 86.7626 236.923 222.61 41.1405 39.2335 4.10331 35.1302 8.1231 181.47 3.25819 84.8846 21.7478 3.0636 18.6842 15.0535 3.21839 3.63063 8.50359 4.99662 14.3127 7.66103 6.01902 63.1368 3.8427 59.2941 9.68301 4.19401 178.212 49.6111 5.80247 176.772 318.483 27.0071 6.10715 3.25613 174.747 2.92928 315.773 171.817 5.65464 314.144 5.545 311.823 31.4723 3.86526 27.607 5.489 43.8087 3.80582 166.163 30.6821 27.9508 3.63804 24.3127 21.4232 135.481
internal_count=9123 4612 1308 132 3304 41 1176 3263 3071 561 536 56 480 109 2510 43 1152 296 41 255 206 42 49 111 65 192 101 80 856 50 806 128 54 2467 678 78 2448 4511 371 84 44 2420 40 4477 2380 76 4454 76 4421 435 52 383 74 600 51 2304 424 387 50 337 298 1880
is_linear=0
shrinkage=0.05


Tree=2
num_leaves=63
num_cat=0
split_feature=458 226 457 106 293 382 77 303 271 278 304 333 262 142 459 141 143 328 217 206 8 335 206 393 171 245 351 306 140 24 168 31 459 141 137 1 105 44 46 409 347 9 121 206 326 120 305 261 56 282 132 362 404 409 319 377 23 61 276 336 98 38
split_gain=90.0365 33.6899 41.2518 42.5719 33.6156 31.6163 23.7209 20.6147 20.3894 20.065 19.4562 18.4414 18.2019 20.6148 18.0921 20.0643 20.4464 17.2615 31.9291 18.9229 16.9993 16.4221 27.52 22.2003 15.7691 21.5894 23.2666 28.651 22.013 18.7632 25.1874 18.4574 26.3364 15.4877 14.809 25.0903 23.533 23.5546 22.6029 17.4153 22.925 13.9478 13.7011 13.5365 22.6971 27.2395 13.446 12.7594 18.0578 12.7177 12.3802 15.7771 12.2661 24.7495 14.1374 12.2619 12.1493 17.473 11.9574 11.4342 15.3809 11.2043
threshold=1.4854499697685244 0.3132500052452088 0.93255001306533825 0.34624999761581426 0.99215000867843639 0.40805000066757208 0.96035000681877147 0.13359999656677249 0.10525000095367433 0.90625000000000011 0.93399998545646679 2.359549999237061 0.36834999918937689 0.27965000271797186 0.044050000607967384 -0.92104998230934132 0.93174999952316295 0.90039998292922985 0.39974999427795416 3.1615499258041386 0.59874999523162853 0.47495000064373022 1.530799984931946 -0.99695000052452076 -0.31530000269412989 0.82244998216629039 -0.71665000915527333 0.54969999194145214 0.64384999871253978 1.3537999987602236 0.33935000002384191 0.10164999961853029 0.030849999748170379 1.1431500315666201 0.6650499999523164 0.4939000010490418 3.8820500373840336 0.8071500062942506 0.46545000374317175 0.73334997892379772 0.96250000596046459 -5.696000099182128 0.33055000007152563 0.54565000534057628 1.2851499915122988 -0.22269999980926511 2.7302500009536748 -3.844650030136108 0.9722999930381776 6.9490001201629648 1.1177499890327456 0.84514999389648449 0.73094999790191661 0.97205001115798961 0.48929999768733984 1.5685499906539919 0.79395002126693737 0.18129999935626986 7.155099868774415 -4.1108498573303214 0.86825001239776622 0.83184999227523815
decision_type=2 2 2 2 2 2 2 2 2 2 2 2 2 2 2 2 2 2 2 2 2 2 2 2 2 2 2 2 2 2 2 2 2 2 2 2 2 2 2 2 2 2 2 2 2 2 2 2 2 2 2 2 2 2 2 2 2 2 2 2 2 2
left_child=21 2 3 4 6 12 9 -8 -7 -2 14 -5 -3 -14 17 16 -16 19 -19 34 -17 22 23 -1 25 28 27 -27 -4 56 -31 32 -26 -6 35 36 39 -38 -37 40 -10 -23 -20 44 55 -46 47 48 -45 58 -25 -52 53 54 -41 -36 -28 -58 59 60 -43 -33
right_child=1 5 24 11 33 8 7 -9 10 -11 -12 -13 13 -15 15 20 -18 18 42 -21 -22 41 -24 50 31 26 29 -29 -30 30 -32 61 -34 -35 43 38 37 -39 -40 52 -42 49 -44 46 45 -47 -48 -49 -50 -51 51 -53 -54 -55 -56 -57 57 -59 -60 -61 -62 -63
leaf_value=0.14565137611369433 0.16513582062938265 -0.0094251234702702191 0.12254645030849923 -0.016513858717083912 -0.010959473873737071 0.13365555069323606 -0.021604613483443402 0.21569474993933177 -0.022272481381652651 0.3669654042631913 0.16250190836088485 0.15672248395950703 0.018927883965386028 0.22668768403189801 0.21102350706265885 0.15046989385356024 0 0.25427514083484953 0.10825162449813197 0.12079631883096054 -0.025063102215490865 0.098932533955281066 0.18879253007372682 -0.052919474073753241 -0.0059591805447303092 0.27635541011490539 -0.051995782011685289 0.0061022242839558986 -0.03462753854979133 0.028671552564206972 0.25474306535817598 0.017107150137635474 0.18399566457203115 0.16795123364370484 -0.028865967949429069 0.26099236934766917 -0.017033337794601335 0.23968062652820785 0.0036862747762365904 0.1292032935808401 0.22830658562307515 -0.048606787286053943 -0.039926958788716223 0.13797740004836903 0.27182399678788421 0.0095820586537966167 0.085880043664255307 -0.026465874531614447 -0.050002318761893261 0.10346230155344732 -0.047486814070534594 0.17830110547307673 -0.033613458275051258 0.20081539563061829 -0.032956352733809584 0.11250687049594398 0.16922471562395813 -0.0038507963863107734 0.11584142157281206 -0.027848081367603167 0.14324433433984468 -0.038526699427242662
leaf_weight=2.1529524251818666 2.8454009220004099 2.3457884788513175 2.7178056240081778 8.0472258329391462 3.5549719482660285 2.8147123456001273 1.7188130319118502 1.7410944774746893 1.7899444922804826 2.8545370325446129 1.7400586158037175 1.7864464446902264 1.9169294685125349 3.430721178650856 3.0906178355216971 1.6053512766957263 1.8060218095779417 1.6804613322019557 2.3579509705305099 2.7470068037509909 7.0451027005910873 2.1724771708250037 2.1644365563988677 9.4146724715828878 4.2365401387214652 2.7658888548612603 4.2503484785556775 1.5563096106052396 10.523982532322405 2.903381548821927 2.1573130041360855 16.646546795964241 3.0343847647309303 1.6906487569212911 10.140685655176638 1.7994932904839509 1.5075542181730264 1.9390532076358793 1.6280788481235502 1.5330815762281398 1.665025860071182 1.8045829012989991 4.1286996826529503 2.7521161809563628 1.7378130108118059 2.2536125034093848 2.7527612149715415 133.53336474299431 2.1912164986133575 1.7999200746417034 1.4702866300940525 1.4075136631727216 26.926267169415951 1.6617597118020047 7.4501204788684845 1.6991338208317746 2.1242074221372604 4.0661461725831032 1.3700258210301388 286.61243824660778 2.1813881099224091 19.42155584692955
leaf_count=30 33 31 34 106 46 34 22 19 25 30 21 21 22 35 36 20 23 21 31 34 94 25 30 137 57 33 58 21 143 38 25 222 36 19 141 22 20 25 22 20 20 26 58 34 22 31 37 1876 29 23 21 20 371 21 105 23 24 56 18 4150 31 265
internal_value=-0.00199881 0.015706 0.0400056 0.0967666 0.151261 0.00555346 0.208797 0.0991092 0.00223075 0.271659 0.000551757 0.0157149 0.104639 0.154846 -0.000725038 0.0550818 0.134927 -0.00427419 0.0665245 -0.00711274 0.00828821 -0.0214045 0.0267127 0.000952712 0.02183 0.0477858 0.0806785 0.182514 -0.00131694 0.0509759 0.129081 0.00184754 0.0740573 0.0478308 -0.0089095 0.015351 0.00504186 0.128669 0.14376 -0.0055101 0.100106 -0.0241301 0.0140038 -0.0163453 0.0272372 0.128834 -0.021282 -0.0235087 0.0543215 -0.0250905 -0.0249577 0.0635447 -0.015595 0.0294057 -0.0036138 -0.00738641 0.011778 0.0564909 -0.0259353 -0.0266605 0.0560993 -0.0127354
internal_weight=654.865 342.314 100.644 24.2391 14.4055 241.671 9.15985 3.45991 233.977 5.69994 231.162 9.83367 7.69344 5.34765 229.422 13.5471 4.89664 215.875 8.16711 207.708 8.65045 312.551 16.6099 14.4454 76.4044 33.0654 19.8236 4.3222 13.2418 15.5014 5.06069 43.339 7.27092 5.24562 204.961 47.9004 44.4728 3.44661 3.42757 41.0262 3.45497 295.941 6.48665 157.061 15.8312 3.99143 141.229 138.477 4.94333 293.768 12.2925 2.8778 37.5712 10.645 8.9832 11.8398 10.4407 6.19035 291.968 290.598 3.98597 36.0681
internal_count=9123 4612 1308 296 169 3304 104 41 3216 63 3182 127 88 57 3161 173 59 2988 110 2878 114 4511 238 208 1012 432 255 54 177 201 63 580 93 65 2844 651 607 45 44 562 45 4273 89 2193 217 53 1976 1939 63 4248 178 41 517 146 125 164 138 80 4225 4207 57 487
is_linear=0
shrinkage=0.05


Tree=3
num_leaves=63
num_cat=0
split_feature=458 253 457 85 379 99 148 188 118 40 292 371 70 18 413 209 85 331 270 412 232 234 41 438 32 324 49 335 206 217 261 209 439 206 106 253 410 256 35 186 429 54 170 129 324 391 157 275 459 268 1 424 210 300 331 33 368 399 233 33 67 220
split_gain=81.5458 29.6169 37.4607 41.4468 29.649 27.0461 42.7132 33.3347 22.9288 21.6645 32.5056 25.8027 34.6996 29.7252 19.5599 31.6523 23.174 22.0484 20.2281 23.6372 17.6994 16.6079 26.8895 24.3625 27.6539 16.4065 15.6078 14.9992 20.8309 20.2584 14.2875 15.8642 14.1189 13.8228 13.4047 28.2586 19.8674 16.9076 13.1543 13.0985 20.6267 13.0548 20.7018 12.3098 16.0588 12.0306 20.4561 11.9026 11.8641 15.8065 11.8194 11.6381 11.5087 10.907 12.2741 19.1647 13.3268 15.4537 10.6694 10.6454 10.6413 12.6562
threshold=1.4854499697685244 0.24750000238418582 0.93075001239776622 0.37324999272823339 0.36654999852180487 -0.97635000944137562 0.24459999799728396 0.92065000534057628 0.1755500063300133 0.099249999970197691 0.88719999790191661 0.46980001032352453 0.21114999800920489 0.19519999623298648 0.55325001478195202 0.9399000108242036 0.21505000442266467 0.86865001916885387 1.8687500357627871 0.94185000658035289 0.57234999537467968 1.2059500217437746 1.563250005245209 -0.86635002493858326 1.0168499946594241 -0.68365001678466786 0.5319499969482423 0.47495000064373022 1.530799984931946 0.61770001053810131 -4.3357999324798575 2.5690999031066899 0.94775000214576732 3.6978999376297002 0.66745001077651989 0.78734999895095836 0.48420000076293951 0.072650000452995314 2.3455500602722172 -1.4997500181198118 -0.36095000803470606 -4.56599998474121 1.1390500068664553 -1.8145499825477598 -0.19879999756813047 0.6415500044822694 0.21755000203847888 1.7120500206947329 0.046550000086426742 0.57304999232292186 0.10694999992847444 0.92765000462532055 0.85300001502037059 -3.3521499633789058 0.86505001783370983 0.89350000023841869 1.0461500287055971 2.6033999919891362 0.5315999984741212 3.18274998664856 0.025649999268352989 0.50554999709129345
decision_type=2 2 2 2 2 2 2 2 2 2 2 2 2 2 2 2 2 2 2 2 2 2 2 2 2 2 2 2 2 2 2 2 2 2 2 2 2 2 2 2 2 2 2 2 2 2 2 2 2 2 2 2 2 2 2 2 2 2 2 2 2 2
left_child=27 2 3 8 20 6 7 -4 -2 10 14 12 13 -11 15 16 -6 18 38 51 52 33 30 -24 -25 -10 -5 28 29 -1 -23 53 -14 41 -29 36 -36 -38 47 40 -7 42 -13 44 -39 46 -41 59 60 -50 -8 -20 -3 -32 56 -56 -55 58 -58 -16 61 -43
right_child=1 4 5 26 9 39 50 -9 25 11 -12 21 32 -15 17 -17 -18 -19 19 -21 -22 22 23 24 -26 -27 -28 34 -30 -31 31 -33 -34 -35 35 -37 37 43 -40 45 -42 48 -44 -45 -46 -47 -48 -49 49 -51 -52 -53 -54 54 55 -57 57 -59 -60 -61 -62 -63
leaf_value=-0.027790992713507757 0.042613405752698598 -0.049968881160754104 0.050025241311899296 -0.032334535271459096 0.30622608327593187 0.18951864057672765 0.095739957878384685 0.31528590867682943 0.091140573083560633 0.029680034872533963 0.23919784952340484 -0.0086750079872102565 -0.027907928309378074 0.25150131367555578 -0.031399592082541491 -0.017796426390473213 0.054091881430049726 0.15628393932610229 -0.050757199717828598 0.20909285319046644 0.19831615286915161 0.12093413320957083 -0.024306798359738514 0.3216921877730996 0.047068747081632563 0.27285491490512259 0.11241417734814048 -0.026581306544090896 0.15410271574590026 0.12048359444798991 0.091397656296529101 0.13382652311874782 0.13709758487506254 0.13051863033497016 0.16531740871258055 0.19044126474020651 0.14048663429403493 0.17574840917552481 0.11330808742479062 0.17056492467433251 -0.017044410937305514 -0.021992296179871317 0.20099042656737476 -0.05001750049902251 -0.047835514107631462 -0.042554684694399922 -0.026155218458597085 0.079673990091331956 0.13048545904413236 -0.049482764593789148 -0.041739300273841838 0.1023315922337814 0.11229807742513181 -0.037439743610062914 0.19082107015478461 -0.047666330835273676 0.1007463324377534 0.15048577218459147 -0.017453402472893089 0.099707570446096044 -0.024224835460882929 0.17057633826386112
leaf_weight=11.712473601102831 2.4441897422075289 1.8972778022289265 2.2847761958837491 4.810746155679225 2.1048705950379367 1.9439137727022169 2.2213173136115074 2.5932845920324326 1.9406355097889898 2.8615595847368231 1.7656864300370205 3.4200757890939704 7.7660282328724843 3.3172598704695702 30.75528210401535 2.8999290838837624 1.7353918626904485 2.4968782737851134 2.680139333009719 2.35271255671978 3.0223957076668739 2.4498482942581168 1.8971070125699041 1.8882537260651582 1.8662346154451368 5.0368540808558464 2.878716841340065 266.85686423629522 2.5306069850921622 2.7610463052988043 2.6372773945331565 2.022894248366355 1.4519992992281912 1.5108733847737301 1.4976441413164199 1.946213774383067 1.4441224262118364 1.4236284866929056 1.9800013229250897 1.8915996551513696 2.8266889229416874 1.7610073834657662 1.6567966192960737 15.152189314365378 1.5767291709780789 17.405443146824837 3.7730188891291618 2.8629574850201598 2.8569804504513732 1.9552123099565504 4.674095556139946 2.1235959902405739 2.2695471122860909 30.095457755029202 1.7281088903546327 1.4532749578356741 2.1528204828500774 1.8503707721829403 12.402784325182436 1.5180373340845097 134.92768546938896 1.4551176503300665
leaf_count=170 28 23 29 62 21 23 28 28 22 37 20 48 103 38 422 39 22 29 36 26 27 28 26 21 24 45 34 3936 30 38 34 26 16 16 22 28 21 20 25 22 37 24 20 223 23 233 50 34 33 26 64 26 24 418 20 20 28 24 174 19 1891 19
internal_value=-0.00195614 0.0146545 0.0476803 0.109352 0.00815967 0.0207071 0.0839206 0.195549 0.179172 0.00557143 0.0336198 -0.00123672 0.0610186 0.151676 0.0263095 0.105418 0.197822 0.0146015 0.00616405 0.0825854 0.107764 -0.00580858 0.0157935 0.118856 0.191246 0.225023 0.0219609 -0.020729 0.0246614 0.000784215 0.00525878 -7.67188e-05 -0.000187722 -0.0148668 -0.0234162 0.0129825 -0.00397566 -0.0179411 -0.00861884 -0.00605086 0.0682618 -0.0164715 0.0613426 -0.0315193 0.0588861 -0.0218619 0.0404879 -0.0159336 -0.0193109 0.056827 0.0025696 0.0166061 0.0378018 -0.00559473 -0.011017 0.0822223 -0.017666 0.0183116 0.000255689 -0.0247893 -0.0220385 0.066143
internal_weight=653.477 346.575 56.7253 17.1111 289.85 39.6141 11.7735 4.87806 9.42168 282.661 55.2755 227.385 15.3968 6.17882 53.5098 6.74019 3.84026 46.7696 44.2727 7.15645 7.18922 211.988 62.4444 5.6516 3.75449 6.97749 7.68946 306.902 17.0041 14.4735 56.7928 54.343 9.21803 149.544 289.897 23.0405 21.0943 19.5967 37.1163 27.8407 4.7706 148.033 5.07687 18.1525 3.00036 23.0701 5.66462 35.1363 142.956 4.81219 6.89541 4.80374 4.16682 52.3201 49.6828 3.18138 46.5014 16.406 14.5556 32.2733 138.144 3.21613
internal_count=9123 4612 705 191 3907 514 149 57 95 3833 719 3114 194 75 699 82 43 617 588 88 74 2920 843 71 45 67 96 4511 238 208 772 744 119 2077 4273 337 309 287 500 365 60 2061 68 266 43 305 72 475 1993 59 92 62 47 718 684 40 644 226 202 441 1934 43
is_linear=0
shrinkage=0.05


Tree=4
num_leaves=63
num_cat=0
split_feature=458 226 457 316 396 40 253 209 293 373 331 121 137 302 114 354 402 331 28 18 28 273 31 367 10 61 338 148 321 41 425 459 333 276 338 29 206 23 147 153 243 258 18 333 122 143 3 446 342 207 371 17 106 245 405 368 21 26 206 430 331 379
split_gain=73.9368 25.9349 28.2188 26.161 21.177 19.7986 31.0756 22.3447 19.5985 20.625 19.3724 18.7638 32.2635 23.4153 18.657 20.3238 18.6435 18.1517 18.1028 18.0923 18.012 17.7379 20.4439 22.7817 16.9103 16.1793 15.9561 20.0093 15.6109 15.1956 14.9388 14.5896 14.5832 14.1219 15.0725 23.7887 29.3812 18.1623 14.0392 13.4148 13.0836 18.5793 12.948 19.3945 16.8361 17.5842 12.2172 15.0084 12.2067 13.847 11.2863 11.1055 10.9347 19.6938 18.941 11.7383 16.1255 11.4032 10.4471 9.80099 25.5651 15.151
threshold=1.4854499697685244 0.3132500052452088 0.88920000195503246 0.40760000050067907 1.5436999797821047 0.10485000163316728 0.84254997968673717 0.77165001630783092 1.07574999332428 0.63405001163482677 0.8729500174522401 0.23484999686479571 0.98905000090599071 0.85374999046325695 0.098999999463558211 -1.5332499742507932 0.20865000039339068 0.71244999766349804 0.15044999867677691 -3.8213500976562496 0.24554999917745593 -1.8371999859809873 0.062849998474121108 0.75335001945495617 0.70724999904632579 0.1693999990820885 0.49674999713897711 0.54405000805854808 1.1146999597549441 0.88655000925064098 0.79344999790191661 0.03045000042766333 0.85330000519752514 7.155099868774415 0.49095000326633459 0.72185000777244579 1.1762000322341921 0.89004999399185192 -1.8420499563217161 4.3865001201629648 -2.217999935150146 0.56610000133514415 0.35195000469684606 0.87620002031326305 1.0401999950408938 0.88734999299049389 -5.8092501163482657 0.91365000605583202 -4.0483000278472892 -0.58625000715255726 1.311800003051758 0.75824999809265148 0.65584999322891246 0.48324999213218695 -1.7971499562263487 0.35005000233650213 -0.090200003236532197 1.430199980735779 3.1615499258041386 0.95445001125335704 0.88844999670982372 0.55884999036788952
decision_type=2 2 2 2 2 2 2 2 2 2 2 2 2 2 2 2 2 2 2 2 2 2 2 2 2 2 2 2 2 2 2 2 2 2 2 2 2 2 2 2 2 2 2 2 2 2 2 2 2 2 2 2 2 2 2 2 2 2 2 2 2 2
left_child=33 2 8 11 17 6 7 21 9 -2 -9 12 13 20 15 -6 30 19 31 29 -3 -5 23 -23 26 -18 27 50 -20 -4 -16 -19 -27 34 35 36 37 -1 -37 40 41 -21 43 44 45 -13 47 -28 49 -36 -7 -11 55 -54 -55 56 -50 -56 59 -48 61 -61
right_child=1 3 4 5 14 24 -8 10 -10 51 -12 42 -14 -15 16 -17 25 18 28 39 -22 22 -24 -25 -26 32 46 -29 -30 -31 -32 -33 -34 -35 48 38 -38 -39 -40 -41 -42 -43 -44 -45 -46 -47 58 -49 52 -51 -52 -53 53 54 57 -57 -58 -59 -60 60 -62 -63
leaf_value=-0.050542936330747593 0.023362463852441992 0.13020411071048213 0.19847296833172448 0.16333744957009971 0.15003044002441565 -0.022744279890913641 0.22013285893562504 -0.023414655204411175 -0.0058335035076471572 0.090531132293953265 0.15176426956198635 0.055698524807619457 -0.024422408530986432 0.042662325200210321 0.13722580254213657 -0.010258414069678612 0.26160575885979875 0.050051520891233714 -0.028755633118883756 -0.049891614722076719 0.34412826385226047 -0.011654430537563964 -0.013563141085525646 0.1820901981656563 0.14281888730095527 0.0081610100035744895 -0.021877291908057688 0.17301299187353941 0.10961034087114413 -0.01376677206524078 -0.024398818468022412 0.22259812290227354 0.19621354695556742 0.12437912402865486 0.16413086202910424 0.11212901179667473 0.23736368378486106 0.1521296340947324 -0.036899869037671368 0.11389684476360749 -0.025574185762004532 0.13741857991986653 -0.014259366339579594 -0.0085086025161940967 -0.0065266611966101427 0.24160984502085348 -0.027891329648733327 0.18390072426740717 0.19263297219002717 -0.024443194983943515 0.10939744393911272 0.22884926331802463 0.1487148491458285 0.13468091289675332 -0.036763910586105883 -0.029585474120234607 -0.024995833231804484 0.071828234156987095 0.080605836918262119 0.10332950871165325 0.20132348103129646 -0.018237011015172024
leaf_weight=3.0414558798074749 3.0430645570158941 2.5751658380031568 1.8653733655810349 3.3199673146009472 2.3332196250557891 6.5089941248297674 1.8874128162860859 24.356481902301315 3.1247451230883589 2.6067567318677902 1.5831091552972782 2.5903126895427722 3.5730196982622147 2.9452161118388176 2.2323729619383794 10.285795483738186 2.5593751817941666 2.7471542581915847 6.1070795655250532 2.1977150812745014 1.8964575156569479 2.4432800412178031 8.6099449768662435 3.6687194406986237 1.6681250408291806 2.2958889752626419 1.7666574269533151 2.3093564435839644 2.9195272549986839 1.3831394240260122 3.5340162590146065 2.389895997941494 1.8770402595400808 1.574846677482127 1.732690677046776 1.7050309330224998 2.2971047610044479 1.5962187424302099 12.182692937552925 1.9514231011271466 43.147316589951522 2.9850985035300255 13.691189177334307 6.5823672115802765 2.1974174976348877 2.7507741749286652 110.31786447390914 1.5711220279335973 1.3215535283088686 1.9475191235542286 2.0304250493645668 4.5719047412276268 2.1163852885365513 2.0203748419880929 17.889538496732712 247.42785271257162 1.9911958873271931 2.673315815627574 2.4640939533710471 2.7302461341023507 1.4582103565335263 26.5915647149086
leaf_count=46 33 28 21 37 27 89 19 335 37 26 17 31 49 35 26 138 23 34 83 30 19 32 112 38 20 31 25 28 34 19 47 21 19 19 24 24 30 22 179 20 572 31 180 86 30 29 1564 19 20 29 26 36 29 29 263 3731 30 36 26 33 17 380
internal_value=-0.00191203 0.013703 0.0343293 0.00470136 0.0244204 -0.00239876 0.0264825 0.0175783 0.10217 0.135407 -0.0119896 0.0423034 0.0974374 0.156352 0.0635702 0.019932 0.106724 0.00974777 0.0598888 -0.00351287 0.227568 0.0601966 0.0356547 0.104895 -0.0107515 0.162929 -0.0124966 0.0456303 0.0161597 0.108901 0.0385921 0.133997 0.0965321 -0.0200656 -0.0208819 0.0199507 0.0949927 0.0198973 -0.0175749 -0.0110765 -0.0164505 0.0576044 0.0200672 0.053567 0.107826 0.155047 -0.0168514 0.0760616 -0.023952 0.0650105 0.00899901 0.181243 -0.025182 0.00637187 -0.00734417 -0.0283115 0.0634582 -0.0221249 -0.0190979 -0.0209304 0.00386586 -0.0064349
internal_weight=651.763 350.245 106.158 244.087 92.8114 205.286 45.8689 43.9815 13.3465 10.2217 25.9396 38.8019 10.9899 7.41684 25.1177 12.619 12.4987 67.6937 14.1637 53.5301 4.47162 18.0419 14.7219 6.112 159.417 6.7323 157.749 10.8488 9.02661 3.24851 5.76639 5.13705 4.17293 301.518 299.943 20.8225 6.93478 4.63767 13.8877 50.2816 48.3301 5.18281 27.8121 14.1209 7.5385 5.34109 146.9 3.33778 279.12 3.68021 8.53942 7.17866 275.44 24.6996 22.5832 250.741 3.31275 20.5629 143.562 141.098 30.78 29.3218
internal_count=9123 4612 1308 3304 1176 2817 590 571 132 95 352 487 131 82 311 165 146 865 172 693 47 219 182 70 2227 73 2207 143 117 40 73 55 50 4511 4492 301 98 68 203 653 633 61 356 176 90 60 2064 44 4191 53 115 62 4138 357 328 3781 50 299 2020 1994 430 413
is_linear=0
shrinkage=0.05


Tree=5
num_leaves=63
num_cat=0
split_feature=458 78 259 101 379 175 35 295 265 73 238 322 230 168 134 6 49 360 263 28 156 154 367 318 338 418 90 350 289 262 352 460 146 330 10 366 29 380 46 317 129 231 350 136 117 288 338 171 29 253 362 62 333 437 360 360 374 285 321 294 437 360
split_gain=59.8923 32.9651 26.2591 27.4436 25.5499 27.1953 27.5063 24.7243 24.4645 27.4548 25.2131 22.9059 21.5882 21.4632 25.9466 20.8853 24.3248 31.3261 20.474 20.1944 20.005 18.2952 17.4949 17.2163 17.1525 23.5955 16.2981 29.1564 16.1277 29.7477 15.9978 14.6387 14.4951 22.1027 13.694 21.3712 24.6369 13.4733 13.2647 13.0446 12.9146 12.8318 12.5208 33.1864 32.4372 15.9392 15.2731 30.3077 17.4089 21.5427 12.4163 12.3344 12.3254 35.9791 16.4339 17.6081 12.2614 28.4983 11.4124 10.642 18.8069 14.0893
threshold=1.4777500033378603 4.1541500091552743 0.87520000338554393 0.86924999952316295 0.42539998888969427 0.067350000143051161 0.67300000786781322 0.48575000464916235 0.17294999957084659 0.28624999523162847 0.1527500003576279 0.73425000905990612 0.99075001478195202 0.038599999621510513 1.0530499815940859 -1.4063999652862547 0.09549999982118608 1.0887500047683718 1.1898500323295595 0.11855000257492067 -4.0425500869750968 0.47779999673366552 0.79914999008178722 -1.7785999774932859 0.91444998979568493 0.88554999232292186 0.44089999794960028 1.4487499594688418 0.91214999556541454 0.77050000429153453 0.59354999661445629 1.0151500105857851 0.56064999103546154 2.1191499233245854 1.0000000180025095e-35 0.56630000472068798 0.84254997968673717 1.0954499840736391 0.7380499839782716 1.2469499707221987 2.1288999319076543 1.7534499764442446 0.52844998240470897 0.61899998784065258 0.48264999687671667 3.845849990844727 0.49095000326633459 1.8551499843597414 0.70805001258850109 0.33024999499320989 0.92475000023841869 3.7438499927520756 -1.7806500196456907 0.53595000505447399 2.1303999423980717 2.9113999605178837 0.66990000009536754 -1.2764500379562376 1.7614000439643862 -2.8569999933242793 0.89934998750686657 0.40640000998973852
decision_type=2 2 2 2 2 2 2 2 2 2 2 2 2 2 2 2 2 2 2 2 2 2 2 2 2 2 2 2 2 2 2 2 2 2 2 2 2 2 2 2 2 2 2 2 2 2 2 2 2 2 2 2 2 2 2 2 2 2 2 2 2 2
left_child=28 2 4 -4 19 6 7 -6 9 10 -7 13 59 37 30 16 17 22 -8 50 -17 31 -14 -11 25 -21 27 39 34 -30 58 -12 33 41 35 -1 -37 -3 56 40 -18 -22 43 45 -45 -36 47 48 49 -44 -2 52 53 -48 -55 -56 57 -34 -15 60 -10 -62
right_child=1 11 3 -5 5 8 18 -9 12 23 21 -13 15 14 -16 20 26 -19 -20 24 32 -23 -24 -25 -26 -27 -28 -29 29 -31 -32 -33 38 -35 42 36 -38 -39 -40 -41 -42 -43 46 44 -46 -47 51 -49 -50 -51 -52 -53 -54 54 55 -57 -58 -59 -60 -61 61 -63
leaf_value=-0.027003517375113025 0.07020019859240656 -0.004826273265847991 0.22654781917812988 0.00026883370041108927 0.034383874301820071 0 -0.020459084751759393 0.24267612605057221 -0.031524589355391965 0.10706246150952632 0.10671207579442839 -0.014884840534131081 -0.048624933343706885 0.06213156999036408 0.29486515657854889 0.12815352634449903 -0.035600720914886669 0.32837328404034827 0.11960540941946934 0.015428156152599619 -0.015045701280485527 0.0056347682398395216 0.17190308114536412 -0.026912670636147076 -0.029027462425556507 0.20181206827680673 -0.018197777014338126 0.25676275394036957 0.23956588478164803 -0.048218773806798454 -0.022878715141368806 0.27789990583239377 0.15234976626252228 0.20241678355752632 -0.020336346488754195 0.0035354997826927284 0.28043924359787309 0.14078541224620758 0.12790647047592205 0.12803952663774995 0.12075980330174285 0.11097464327845129 0.2108439878875466 0.28106184338381163 -0.017383537126732296 0.14881520522829925 0.21980518465697113 0.23224296773337749 -0.037221995556350147 -0.011481018461952474 0.23534556959583885 0.11665311842761733 -0.032022944823042909 -0.030420606898665312 0.2210714975144665 -0.017224325486017416 -0.027312392520727771 -0.013452609338237135 0.23895678246586996 -0.017774747591259993 0.19403732601500379 0.013199849285231031
leaf_weight=4.0219958387315264 2.6406894400715855 4.9724148139357593 2.7290888875722876 2.6306297183036804 2.6634262874722507 3.6024716831743735 8.7875310070812684 3.2341712340712547 4.6463016048073751 2.9548335298895827 2.6218360587954521 5.2077128104865542 1.7258514463901549 2.0198680572211729 2.4563523903489113 2.9028198719024649 5.7243705391883868 1.587370730936527 3.5767351016402236 4.8234970942139608 7.7380199059843999 1.5593651831150053 1.6531736664474008 11.029636077582834 6.0873857960104942 2.5938489586114883 9.8147930651903135 1.6620963849127282 1.6035750359296792 1.7934249043464658 1.7927391007542608 3.0219430476427078 3.2606358788907519 1.8265532739460457 22.512262035161264 1.6484244316816332 1.5443153865635393 2.1890620216727257 1.5372016355395306 2.6209180094301701 1.607786990702152 2.6051000468432903 1.7834963053464878 1.9866859987378114 1.542545575648546 1.3805648684501637 1.7265723496675516 1.4701023064553727 9.5062261112034303 2.4689371809363365 2.2808984145522118 1.3688579536974419 206.95006901398301 17.427760493010286 1.3569119796156877 1.5530517585575578 51.725452348589897 11.097939085215328 1.916383199393749 157.81756884977221 2.2917593270540237 2.1032455787062645
leaf_count=62 26 61 30 35 30 42 113 33 63 32 25 71 24 25 25 37 79 16 37 57 105 20 18 144 78 25 136 20 23 28 24 27 38 19 338 25 22 26 18 32 20 32 23 27 22 20 25 20 143 34 20 21 3174 266 21 24 716 153 17 2168 25 27
internal_value=-0.000121485 0.0133104 0.00959428 0.118442 0.00781595 0.00448246 0.0635593 0.151584 0.000858567 0.0483481 0.107821 0.0746953 -0.00340554 0.105316 0.160406 0.0138593 0.0524963 0.151327 0.0202921 0.0649205 0.00141726 0.161217 0.0596702 0.00159962 0.0323422 0.0830894 0.0287636 0.0686892 -0.0173436 0.0891678 0.0978275 0.202487 -0.00328551 0.0466382 -0.0186838 0.0486694 0.14344 0.0403204 -0.0123996 0.0345432 0 0.0169747 -0.020499 0.0113878 0.152356 -0.0097746 -0.0240827 0.0241189 4.83101e-06 0.0833166 0.150895 -0.0272997 -0.0282324 0.00707868 -0.0117232 0.0958845 -0.0159272 0.0246463 0.153246 -0.0147246 0.0375819 0.110828
internal_weight=646.987 363.341 342.787 5.35972 337.427 319.001 18.2619 5.8976 300.739 24.7901 10.8056 20.5545 275.949 15.3468 8.18534 109.09 26.3964 4.9664 12.3643 18.4263 82.6937 7.20314 3.37903 13.9845 13.5047 7.41735 21.43 11.6152 283.646 3.397 5.72899 5.64378 79.7909 12.1697 280.249 7.21474 3.19274 7.16148 67.6212 9.95308 7.33216 10.3431 273.034 27.4221 3.52923 23.8928 245.612 15.2288 13.7587 4.25243 4.92159 230.383 229.014 22.0643 20.3377 2.90996 66.084 14.3586 3.93625 166.859 9.04131 4.395
internal_count=9087 4769 4520 65 4455 4249 213 63 4036 290 114 249 3746 178 91 1463 345 58 150 206 1118 72 42 176 160 82 287 151 4318 51 66 52 1081 156 4267 109 47 87 925 131 99 137 4158 407 49 358 3751 220 200 57 46 3531 3510 336 311 45 907 191 42 2283 115 52
is_linear=0
shrinkage=0.05


Tree=6
num_leaves=63
num_cat=0
split_feature=459 70 78 92 459 292 271 87 277 311 259 58 175 185 394 71 235 228 253 290 40 106 95 338 246 220 377 68 374 322 396 365 413 339 334 50 156 224 300 292 405 14 108 386 12 3 288 314 247 2 241 399 237 26 90 176 236 167 74 340 92 442
split_gain=47.8973 24.6023 22.3921 22.8743 17.9705 23.5414 34.2813 19.7295 18.3428 16.5924 23.1481 17.1177 26.0114 27.2311 19.1221 18.4476 19.6634 18.3789 16.3079 16.3939 16.0653 21.3585 28.0878 17.9488 17.3843 15.9426 19.7275 15.4379 15.2642 33.6382 21.3993 22.4803 14.817 14.6144 14.9832 16.526 14.2709 24.3352 14.1874 20.4031 14.1013 13.8403 13.0712 12.4283 19.8381 12.2298 11.6779 23.1853 24.3004 13.2294 11.8316 12.0921 16.1576 33.4731 12.5291 17.2454 11.5923 17.7354 16.9563 11.1754 19.3847 24.3285
threshold=0.032050000503659255 0.8697500228881837 4.1541500091552743 0.33284999430179601 0.021149999462068084 0.80255001783370983 0.62590000033378612 2.3087999820709233 0.91620001196861278 0.38404999673366552 0.26485000550746923 0.13344999402761462 0.10855000093579294 0.73334997892379772 0.83125001192092907 1.9794999957084658 0.47489999234676367 4.104799985885621 0.57684999704360973 0.86535000801086437 0.10325000062584878 0.31925000250339514 1.0334500074386599 0.45974999666213995 -0.87334999442100514 0.24459999799728396 0.79684999585151683 0.85424998402595531 0.52265000343322765 0.77114999294281017 2.6613999605178837 1.3141999840736391 0.94460001587867748 -3.689000010490417 0.70115000009536754 0.95475000143051159 -5.2525999546051017 0.98590001463890087 -1.8780499696731565 0.70295000076293956 1.7124500274658205 1.7915499806404116 1.8116999864578249 1.866850018501282 2.0139499902725224 4.8083500862121591 2.7021499872207646 0.63414999842643749 0.31864999234676367 1.6866499781608584 0.90449997782707225 1.09075003862381 -2.3878999948501582 0.67505002021789562 -2.455950021743774 1.054100036621094 1.4660499691963198 1.509899973869324 1.3817999958992007 0.43025000393390661 0.71580001711845409 0.84315001964569103
decision_type=2 2 2 2 2 2 2 2 2 2 2 2 2 2 2 2 2 2 2 2 2 2 2 2 2 2 2 2 2 2 2 2 2 2 2 2 2 2 2 2 2 2 2 2 2 2 2 2 2 2 2 2 2 2 2 2 2 2 2 2 2 2
left_child=4 2 3 -2 5 45 -7 -8 9 10 -6 12 13 -11 -15 17 -17 38 19 -4 21 25 40 24 -22 26 -5 -21 29 30 31 -25 -24 34 35 -13 37 -35 39 -14 -23 -40 -12 56 -45 -1 50 48 -48 -49 51 -38 53 -53 55 -54 -30 58 -58 60 61 -56
right_child=1 -3 18 20 8 6 7 -9 -10 11 42 33 15 14 -16 16 -18 -19 -20 27 23 22 32 28 -26 -27 -28 -29 43 -31 -32 -33 -34 36 -36 -37 46 -39 41 -41 -42 -43 -44 44 -46 -47 47 49 -50 -51 -52 52 54 -55 59 -57 57 -59 -60 -61 -62 -63
leaf_value=-0.03365166722038692 0.14865415099181184 0.19855970253461647 0.025644123802134378 0.18668221195688417 0.197931342361548 0.21660043115676109 -0.02192191671859569 0.15088642186540394 0.12626257743986552 -0.027422924807182114 -0.017940084081015117 0.024454998914499038 0.0059081013700925744 0.080397640872032272 0.30863805680529416 0 0.22451804424648172 0.15243886462450215 -0.029988047551482197 0.24290489473397112 0.18356318722904866 -0.0094172421975025709 0.29482035506348575 -0.041973096770082423 0.017377814832703363 -0.022157006669082359 -0.012295504489589082 0.079396284727116032 -0.016823664260912814 0.25599765198539187 0.17035557260171239 0.16220059224104111 0.085215547615351439 -0.025421266520633024 -0.02878712919915713 0.24932467398455299 -0.026911990001780052 0.23671513779341646 -0.022001629315364521 0.19784918961235912 0.15124163208095948 0.086180773206920649 0.14862038374774322 0.0056204623064138263 0.1756050802566681 0.08676610553980886 0.2412839928110686 -0.022861328713388258 0.015185895913698459 0.12575991097739975 0.10886078017225878 0.24201339399857599 0 -0.0047816331755777298 0.0070746869138537637 0.15426973708199901 -0.016218750452805502 0.17059457649119347 0.14203097931350703 -0.026640454953907457 -0.017420710654652321 0.25627611983400739
leaf_weight=116.484320551157 3.0534381270408621 1.8637950345873822 3.5617222711443883 2.3507714085280922 2.2582443878054601 2.1104180701076976 11.131764169782398 1.8349803462624539 2.6503675058484069 2.0845874883234492 5.6399037167429924 1.7844804488122457 4.8661092631518832 2.1031201966106896 1.8090728968381879 1.8773667812347405 1.8544592857360838 1.8138476200401772 2.3518696278333655 3.0261576846241951 2.590741652995348 4.4953617565333825 2.1733965501189236 8.4111615791916829 4.0317686013877383 10.788572803139685 2.4208527207374573 3.179656732827425 88.253427013754845 1.6499071046710003 1.8798215463757504 1.4989991709589947 1.6466149650514124 1.9786097295582288 2.2634778060019016 1.5419241189956663 149.1787438467145 1.4371383786201475 44.909841235727072 1.8716829866170881 1.8249986134469507 3.0519146248698226 1.3744360320270059 6.5066346004605276 2.2677956148982048 2.0319402143359175 2.0770985782146481 14.520551983267071 2.7616941630840302 1.5642520710825909 1.7284750416874874 1.9185287095606316 5.6050104051828367 4.1719949394464493 2.3327123299241062 2.5321103557944298 10.447079502046106 1.8813641965389241 1.9116995111107815 52.966834358870983 8.2112812735140306 1.6515060327947138
leaf_count=1781 32 21 43 23 26 27 168 23 33 27 80 23 67 25 18 25 20 22 32 24 26 59 23 112 51 140 28 33 1195 15 20 16 18 28 32 19 2208 16 637 22 21 35 18 86 25 30 22 209 37 21 23 23 79 62 32 34 139 21 21 779 114 18
internal_value=-0.000163682 0.0222389 0.0201874 0.015159 -0.00843929 -0.0239635 0.0345597 0.00311787 -0.00229047 -0.00335746 0.0621949 -0.00525311 0.0173927 0.115869 0.192249 0.00733179 0.1135 4.46098e-05 0.0855301 0.113874 0.0124385 0.0485342 0.104678 0.00530517 0.0848972 0.0111916 0.0865256 0.162509 0.000973806 0.0511352 0.020134 -0.00927869 0.210224 -0.0110414 0.0680892 0.134385 -0.0128242 0.0870435 -0.00518653 0.0620721 0.0378272 -0.0148487 0.0156243 -0.00508069 0.051601 -0.0314736 -0.014236 0.0213478 0.116173 -0.00741121 -0.0174986 -0.0185232 -0.00268309 0.0748053 -0.00928293 0.0486907 -0.0100275 0.0315669 0.00880208 -0.0166625 0.0261308 0.115341
internal_weight=646.052 174.068 172.204 160.084 471.985 133.593 15.0772 12.9667 338.391 335.741 9.27258 326.468 66.242 5.99678 3.91219 60.2452 3.73183 56.5134 12.1194 9.76754 157.031 25.7006 10.1404 131.33 6.62251 15.5602 4.77162 6.20581 124.708 13.4399 11.79 9.91016 3.82001 260.226 5.58988 3.3264 254.637 3.41575 54.6995 6.73779 6.32036 47.9618 7.01434 111.268 8.77443 118.516 251.221 20.9236 4.83879 16.0848 230.297 228.569 79.39 6.09052 73.2995 8.13712 102.494 14.2401 12.3588 65.1623 12.1955 3.98422
internal_count=9087 2224 2203 2071 6863 2029 218 191 4834 4801 124 4677 898 70 43 828 45 783 132 100 2039 312 121 1727 77 191 51 57 1650 163 148 128 41 3779 74 42 3705 44 761 89 80 672 98 1487 111 1811 3661 289 59 230 3372 3349 1141 85 1056 113 1376 181 160 943 164 50
is_linear=0
shrinkage=0.05


Tree=7
num_leaves=63
num_cat=0
split_feature=458 78 141 414 379 175 35 228 237 405 40 185 235 448 335 159 459 41 94 389 446 225 288 265 29 402 9 410 37 17 277 279 392 81 76 127 293 49 362 1 80 303 266 42 160 338 150 340 314 410 295 298 69 246 225 251 332 347 133 428 230 74
split_gain=51.0275 22.0761 20.5489 21.6923 19.4576 20.9 21.3871 20.4614 23.1073 19.7245 19.5456 19.6248 19.3928 18.5862 18.4222 17.8435 16.3058 16.2133 16.1789 17.5251 15.1597 15.0922 14.9993 14.581 14.5531 19.1507 14.3545 14.2598 13.8751 13.8008 13.7927 17.2663 15.7607 13.7852 13.7134 19.9097 13.5543 24.9709 17.7113 26.2915 13.8677 13.7304 16.808 15.3146 13.3899 13.3571 16.943 28.8369 15.2005 23.5195 32.7205 17.3984 17.1535 14.9028 13.2963 13.1595 12.6204 17.9484 12.3492 12.2233 12.0994 11.572
threshold=1.4592500329017641 4.1541500091552743 -3.9147999286651607 -0.46750000119209284 0.42539998888969427 0.067350000143051161 0.94975000619888317 2.4284499883651738 -1.5283499956130979 -1.2187499999999998 0.099249999970197691 1.0883499979972842 0.50009998679161083 0.97775000333786022 1.6629499793052676 1.0709500312805178 0.028949999250471595 1.0429999828338625 0.34504999220371252 1.2983999848365786 0.74124997854232799 -5.9267501831054679 1.778750002384186 0.17294999957084659 0.75394999980926525 0.59040001034736644 -5.696000099182128 1.0941500067710879 0.27159999310970312 0.91605001688003551 0.26880000531673437 1.3032000064849856 1.1331000328063967 -0.78429999947547901 0.26805000007152563 0.33824999630451208 1.1043000221252444 0.065850000828504576 0.46615000069141393 0.20054999738931659 3.0205999612808232 -0.86519998311996449 0.55124998092651378 4.0515999794006357 0.58059999346733104 0.87005001306533825 -2.8798000812530513 0.76515001058578502 0.71004998683929454 1.5176500082015993 0.50475001335144054 0.81325000524520885 -2.8943001031875606 4.0262999534606942 1.8500999808311465 0.76469999551773082 0.55865001678466808 0.91600000858306896 0.25794999301433569 1.1297499537467959 0.97255000472068798 1.1204999685287478
decision_type=2 2 2 2 2 2 2 2 2 2 2 2 2 2 2 2 2 2 2 2 2 2 2 2 2 2 2 2 2 2 2 2 2 2 2 2 2 2 2 2 2 2 2 2 2 2 2 2 2 2 2 2 2 2 2 2 2 2 2 2 2 2
left_child=2 4 3 -1 12 6 18 10 15 59 11 13 30 22 17 24 -3 -13 19 -6 -14 -12 -7 34 -9 -26 -4 54 -20 -19 31 32 -2 -24 35 58 40 -38 39 -39 -25 42 -40 -43 -44 46 47 61 49 51 -51 52 -48 -50 55 -18 57 -11 -23 -10 -57 -28
right_child=1 16 26 -5 5 7 -8 8 9 56 21 14 20 -15 -16 -17 27 29 28 -21 -22 23 33 36 25 -27 45 -29 -30 -31 -32 -33 -34 -35 -36 -37 37 38 41 -41 -42 43 44 -45 -46 -47 48 -49 53 50 -52 -53 -54 -55 -56 60 -58 -59 -60 -61 -62 -63
leaf_value=0.1735814941604516 0.20115571868988155 -0.0012804272897623007 0.1100490332478376 -0.010046220394873415 0.0051453510204273805 -0.018959083827343501 -0.017316513178455086 0.23552835365434308 0.14872880397712868 0.17370660600802945 0.10777230075153568 0.011865930939578911 0.036250716901724427 0.15938345863832193 0.20959260839117624 0.0045088744927229245 0.22076012759752164 0.19860663727733222 0.23570018852162297 0.17941581408056809 0.18649316477406216 0.056063562837074844 0.15525658751337143 -0.024137168949587777 -0.025130074472953064 0.19869478955575776 -0.050303152591813297 0.014222043184243855 0.064647088757966556 0.027685624510527584 -0.031482674513027407 -0.049979726342356826 0.021782240794922601 0.00056208795949648472 -0.00401418861602098 -0.032688856074458698 0.13920768294432276 -0.048246081350759223 0.15053424489114592 0.1989017830748579 0.11788653600925565 -0.035174472504446982 -0.019595750347087989 0.097645989528966637 0.10275773577103751 -0.032274801979473793 0.12585139119605798 0.25275509173084887 -0.027475223367096693 -0.027274778622438784 0.2279088888211224 0.11090945794216785 -0.028855175250235607 0.12109634669053376 0 0.028197042831822467 -0.018581923336412391 -0.047829753102978642 0.20865190713881848 -0.002384804474457645 0.18126383006930327 0.12311431882750259
leaf_weight=2.7529065907001495 2.5959290377795714 7.5546238757669952 2.0015949606895438 3.5544289126992217 6.3554726131260413 29.296740278601646 6.6818995028734198 2.789434075355528 3.7736207246780422 2.0739256888628037 2.6315794326364985 10.216403026133777 3.1429057307541362 1.7261991798877705 1.9707134962081898 3.2210178188979626 3.4746987149119359 2.6338897496461859 2.7686559259891501 1.7938252687454221 3.9301683679223061 2.9627300649881381 2.4720330908894539 145.46285945922136 1.9683866426348688 1.6647659502923486 2.9230468012392512 4.8170910067856303 2.3648350611329079 2.2796357423067093 6.6255758292973042 2.0774702355265617 2.420291930437088 3.4231709800660601 11.816919304430483 2.6032947301864624 3.212335728108882 1.7638889215886582 2.3158111386001101 2.4414059780538082 1.630488522350787 34.44837698340416 10.28001571819186 2.2030793316662303 2.7433710917830458 126.46707956492901 1.8401603288948596 1.5277208238840101 82.260889235883951 2.1678100079298011 2.7294221110641956 2.913557454943656 22.375783659517765 1.6144620515406121 1.8700869716703881 3.3275303579866886 22.304086305201054 1.4686478078365324 2.6700349077582359 1.9415096454322336 2.1669287979602814 1.3080335371196268
leaf_count=39 24 102 20 54 73 393 84 26 38 23 28 127 34 14 23 41 32 26 22 16 30 29 25 2067 28 18 46 55 26 28 82 27 27 42 151 33 37 27 27 26 19 495 147 31 34 2007 25 21 1300 33 36 38 348 24 24 34 303 20 20 24 16 18
internal_value=-0.000188279 0.0112321 -0.0175018 0.070778 0.00820228 0.00534215 0.0548748 0.00226246 0.0351461 0.0141349 -0.00251508 0.0244888 0.0550818 0.0037829 0.0686178 0.102548 0.0584453 0.0486715 0.0914223 0.0458218 0.121866 -0.00890956 -0.00413777 -0.0103339 0.150127 0.0786657 -0.0197753 0.0874072 0.160598 0.122439 0.0196559 0.0678886 0.117704 0.0677717 0.0301929 0.0793316 -0.0143063 0.00577683 -0.0019954 0.0953628 -0.0224499 -0.0101342 0.0293044 -0.0268108 0.00638358 -0.0208866 -0.0089907 0.0738539 -0.0132102 0.0159636 0.115663 -0.00220859 -0.0164242 -0.0244151 0.119047 0.144083 -0.0043826 0.0816997 0.131643 0.0973754 0.0916189 0.00375895
internal_weight=644.815 388.378 256.437 6.30734 365.167 344.375 19.9647 324.41 41.2054 31.5618 283.205 54.0188 20.7923 36.9181 17.1006 9.6436 23.211 15.1299 13.2828 8.1493 7.07307 229.186 35.1919 226.555 6.42259 3.63315 250.13 15.6563 5.13349 4.91353 13.7193 7.09369 5.01622 5.8952 20.053 8.23606 206.502 59.4083 56.1959 4.20529 147.093 51.9907 15.3392 36.6515 13.0234 248.128 121.661 5.7588 115.902 32.0267 4.89723 27.1295 24.2159 83.8754 10.8392 8.96916 25.8467 3.54257 5.63276 5.71513 5.49446 4.23108
internal_count=9087 5078 4009 93 4815 4591 221 4370 521 408 3849 678 224 474 204 113 263 181 137 89 64 3171 460 3143 72 46 3916 161 48 54 160 78 51 67 233 82 2910 824 787 53 2086 734 208 526 181 3896 1889 85 1804 480 69 411 373 1324 106 82 346 43 49 62 50 64
is_linear=0
shrinkage=0.05


Tree=8
num_leaves=63
num_cat=0
split_feature=458 459 262 98 239 92 62 52 459 320 280 178 402 235 1 385 428 318 3 24 197 147 237 39 78 17 290 154 129 9 375 386 92 284 254 364 341 348 76 38 396 30 369 341 69 255 422 75 9 336 389 230 28 346 248 161 19 22 263 32 376 302
split_gain=46.4733 20.2328 22.1755 20.3085 19.2256 18.4512 17.5152 18.6685 17.4571 19.7199 18.9801 17.2773 23.0546 21.1756 16.7657 22.1398 18.4727 15.7594 14.9294 18.8992 14.4175 14.4149 14.245 14.7123 13.6935 13.3731 12.66 21.3982 13.2853 18.1893 14.0699 18.301 12.4482 18.4338 12.3388 24.525 12.3719 17.08 21.3827 12.1826 19.7851 12.3747 11.9273 11.7755 11.7108 16.8872 18.929 20.5915 14.48 12.9312 13.0572 11.505 13.4531 11.4354 26.9939 17.4675 10.976 16.0142 12.1274 10.8632 10.6458 10.1195
threshold=1.4434500336647036 0.032050000503659255 0.89829999208450328 0.8785499930381776 1.0881499648094179 0.38719999790191656 0.83474999666214 0.71494999527931224 0.021550000645220283 0.36660000681877142 0.88124999403953563 0.16424999386072162 -1.1087999939918516 0.4496500045061112 0.2035000026226044 0.80724999308586132 0.90105000138282787 -2.3747999668121333 -3.509599924087524 0.34440000355243688 0.75394999980926525 0.864850014448166 -2.216650009155273 4.1700000762939462 3.8430500030517583 0.96445000171661388 2.5567500591278081 0.40545000135898596 3.2670999765396123 2.0173000097274785 4.1970500946044931 0.97764998674392711 0.71290001273155224 1.2527499794960024 2.5015999078750615 0.68314999341964733 0.47410000860691076 0.52245000004768383 0.43944999575614935 0.71040001511573803 3.0866500139236455 3.540449976921082 -0.59854999184608448 0.72615000605583202 -2.3710500001907344 -1.2026500105857847 0.70205000042915355 0.10419999808073045 2.8131500482559209 -4.1108498573303214 0.35840000212192541 0.91044998168945324 0.1516000032424927 0.32504999637603765 0.82225000858306896 1.0313500165939333 0.1698499992489815 0.12584999948740008 1.1504999995231631 1.2015500068664553 0.89135000109672557 0.94075000286102306
decision_type=2 2 2 2 2 2 2 2 2 2 2 2 2 2 2 2 2 2 2 2 2 2 2 2 2 2 2 2 2 2 2 2 2 2 2 2 2 2 2 2 2 2 2 2 2 2 2 2 2 2 2 2 2 2 2 2 2 2 2 2 2 2
left_child=8 2 11 -4 5 -3 7 18 -1 -10 26 12 13 21 15 16 25 -16 19 -7 -18 -2 -14 56 32 -6 28 -28 30 43 34 -32 33 -20 36 -36 37 -11 -39 40 41 42 -8 -30 45 -13 47 -47 59 -46 -51 -22 -53 54 55 -52 57 -24 -59 -48 -19 -27
right_child=1 4 3 -5 14 6 39 -9 9 10 -12 44 22 -15 17 -17 20 60 24 -21 51 -23 23 -25 -26 61 27 -29 29 -31 31 -33 -34 -35 35 -37 -38 38 -40 -41 -42 -43 -44 -45 49 46 48 -49 -50 50 53 52 -54 -55 -56 -57 -58 58 -60 -61 -62 -63
leaf_value=-0.035956120279349302 -0.00075608641504313354 0.13017813864945801 0.18316577380016658 -0.046461231233462658 0.20977582528126182 0.1786676261302699 0.070004433102489314 0.16441103597333798 0.12371755457498955 -0.037680212651427604 0.14143283290570249 -0.052160038610711904 0.11696155326721935 0.26284746588239438 0.11030679690804297 -0.00295630275413933 -0.025371092064166007 -0.011511779881293557 0.0080156808071897255 -0.0089242977170712369 0.0021466050239763307 0.15110322377712532 -0.017681153821529332 0.12702256673622597 0.10746165024641939 0.14272753012844724 -0.048122070660705202 0.18772789796406994 0.095201456217549968 0.20329823973757832 0.18819264714832185 -0.046777516452550412 -0.019988381215622467 0.16702383217226408 -0.048809958784108619 0.2080506953668676 -0.027503272576734163 0.19507819596832915 -0.046396321086394965 -0.030635379574573813 0.14613886005378221 0.12769075717722878 -0.048484196580761592 -0.050543215261713993 0.093155800587133825 0.032806093238247874 -0.04017462811774869 0.21891535964733277 0.13274615108424734 0.090969219975296514 0.23443312119053281 0.19929857370060397 0.032438750150013122 -0.016047847653316655 -0.027042964652381863 0.0081738777192919745 -0.033717996876260987 0.034892710560304296 0.21166330044471893 0.075933579253512448 0.11906796150118026 -0.0014391391373988337
leaf_weight=85.775625187903643 3.7273471765220156 3.0685208551585665 2.9955132082104674 1.3031095936894415 4.9167876616120392 3.057137180119752 2.6571368016302577 2.362914375960826 2.7017855346202841 3.6497956663370124 1.9326735585927952 5.0948156490922001 2.7890928462147704 1.6190717257559297 3.7565485574305084 6.6738546565175048 3.6034386679530126 18.008080545812849 7.7105683274567109 2.2355332113802433 2.4567732736468315 2.5116198323667049 6.6472382918000275 2.0426557622849932 3.1941639482974997 3.0537831671535969 1.7004047520458692 1.9502547979354856 2.236939098685979 1.4515476040542123 1.75046157836914 1.3927213400602338 22.70080029591918 2.323115598410368 1.9157832488417619 1.6131008118391035 118.52569112554193 2.4972439967095856 1.321623846888542 32.839244093745947 2.5932285748422137 1.4999595209956158 8.9298938550055009 3.2831875346601009 2.8862932845950118 3.2972313500940826 7.810793634504078 2.7921891398727894 2.0180194601416579 2.9456219039857379 2.1241307370364653 3.1516900323331356 2.1209600791335106 179.35415878519416 5.6405687779188156 1.4722570516169069 17.252195287495852 2.6398240402340889 1.5704881325364111 2.590253472328186 1.608003795146941 1.8685774803161619
leaf_count=1408 48 28 27 20 45 29 30 22 37 57 24 74 33 17 38 83 45 220 97 27 30 24 83 20 30 24 26 22 32 20 23 22 293 21 29 22 1883 32 21 431 25 15 116 53 34 42 115 28 24 37 21 23 25 2568 77 19 245 32 15 37 17 22
internal_value=-0.000213687 0.00993066 0.00161816 0.112945 0.0248262 0.0114429 0.00729602 0.0303024 -0.0180079 -0.00754925 -0.0101093 -0.00025437 0.0295471 0.106004 0.0495264 0.0757287 0.100664 0.0179066 0.0221146 0.0998087 0.0556843 0.0610084 0.0108917 0.000560826 0.0102854 0.150888 -0.0122853 0.0781865 -0.0147407 0.0518844 -0.0183159 0.0843053 0.000352495 0.0466094 -0.020908 0.0697243 -0.0235394 0.0382385 0.111182 -0.0132872 0.0226923 -0.00231253 -0.0205181 0.00827078 -0.00586507 0.0272645 0.0495592 0.121109 0.0133897 -0.00992471 -0.0115519 0.0939521 0.134962 -0.0132271 0.0405935 0.145889 -0.00886925 0.0301054 0.105371 -0.0103354 -4.44851e-06 0.0880659
internal_weight=643.214 409.515 263.124 4.29862 146.391 95.1722 92.1037 43.5842 233.699 147.923 145.221 258.826 40.7995 7.85804 51.2185 27.8459 21.172 23.3726 41.2213 5.29267 11.3329 6.23897 32.9415 30.1524 35.9286 9.83915 143.289 3.65066 139.638 6.97167 132.666 3.14318 32.7345 10.0337 129.523 3.52888 125.994 7.46866 3.81887 48.5195 15.6802 13.087 11.587 5.52013 218.026 23.6033 18.5085 6.08942 12.4191 194.423 191.537 7.72942 5.27265 188.591 9.23696 3.59639 28.1097 10.8576 4.21031 10.401 19.6161 4.92236
internal_count=9087 5376 3640 47 1736 1164 1136 519 3711 2303 2266 3593 517 89 572 297 214 275 497 56 123 72 428 395 441 91 2242 48 2194 105 2089 45 411 118 2044 51 1993 110 53 617 186 161 146 85 3076 320 246 70 176 2756 2722 78 48 2685 117 40 375 130 47 152 237 46
is_linear=0
shrinkage=0.05


Tree=9
num_leaves=63
num_cat=0
split_feature=273 300 67 368 16 306 428 264 255 33 424 45 434 207 309 92 156 304 96 140 176 258 155 185 146 185 320 431 255 3 219 422 266 334 199 256 352 378 239 350 222 192 360 362 444 438 326 11 234 303 33 227 60 102 87 299 58 105 127 380 248 138
split_gain=23.0815 19.4605 20.4686 22.3072 18.7942 22.292 19.061 18.3073 17.0872 16.5117 16.3247 16.4011 19.6403 16.2867 18.455 17.3162 16.2641 15.5976 14.2626 13.8067 13.5804 13.0329 15.9148 12.9441 14.3259 18.3583 12.4764 16.6664 20.8627 12.74 16.3658 13.4467 13.6502 13.0792 25.8282 24.7583 14.8226 13.6747 13.147 18.633 18.3478 16.8392 17.3586 13.9494 25.8774 13.1081 12.9063 14.7961 21.0948 12.71 15.4053 13.8394 12.3589 12.2623 12.8286 19.9528 12.0316 12.8322 11.7439 11.2344 15.8926 11.0722
threshold=2.9880999326705937 -2.1486500501632686 0.076000001281499877 0.86465001106262218 0.10164999961853029 3.4106500148773198 1.0198499560356142 3.7933999300003056 0.73620000481605541 -1.5067500472068784 0.67864999175071727 -2.473749995231628 0.93015000224113475 -2.3961999416351314 -0.26865001022815699 0.88054999709129345 -7.139699935913085 0.81804999709129345 3.4715000391006474 1.8417500257492068 0.98715001344680797 -1.7621999979019163 0.75795000791549694 0.42804999649524694 0.4447499960660935 1.0883499979972842 0.36660000681877142 1.0489000082015993 0.88115000724792492 -3.2917500734329219 -2.0609000921249385 0.35025000572204595 0.82315000891685497 0.86785000562667858 0.32895000278949743 0.53779998421669017 0.7763500213623048 0.72299998998641979 1.159299969673157 1.3306500315666201 3.6735500097274785 1.8694999814033511 2.4793500900268559 0.35934999585151678 0.7763500213623048 2.1741999387741093 0.53489997982978832 0.76625001430511486 0.18870000541210177 -1.3022499680519102 2.1453000307083134 1.0303500294685366 0.54550001025199901 -1.3374500274658201 2.3087999820709233 1.4889499545097353 0.21840000152587893 -0.57365000247955311 0.7227500081062318 1.7845499515533449 0.88714998960495006 1.7590500116348269
decision_type=2 2 2 2 2 2 2 2 2 2 2 2 2 2 2 2 2 2 2 2 2 2 2 2 2 2 2 2 2 2 2 2 2 2 2 2 2 2 2 2 2 2 2 2 2 2 2 2 2 2 2 2 2 2 2 2 2 2 2 2 2 2
left_child=1 2 3 -1 5 6 7 10 -2 52 -3 12 -12 14 -4 -16 -6 19 58 21 -7 22 -15 -13 25 -25 27 28 -18 30 -28 32 -31 36 35 37 38 -35 43 46 41 42 -41 44 -33 -45 47 -40 -49 51 -51 -47 -10 54 55 -26 57 -11 -8 -48 -61 -58
right_child=8 4 13 -5 16 20 18 -9 9 56 11 23 -14 17 15 -17 26 -19 -20 -21 -22 -23 -24 24 53 -27 29 -29 -30 31 -32 33 -34 34 -36 -37 -38 -39 39 40 -42 -43 -44 45 -46 49 59 48 -50 50 -52 -53 -54 -55 -56 -57 61 -59 -60 60 -62 -63
leaf_value=0.21742537182263019 0.008251592170512986 0.13508082630694565 -0.029158950051657334 -0.0022222360327724573 0.11148474524563522 0.19444896440169826 -0.029531673275328876 0.14471541677865793 0.16031601873084678 0.16136380949616114 0.010666088379765501 0.12242436962035659 0.20950512152712877 0.12124721213737155 0.21958024150057398 0.020555486313403985 0.18598033453514565 0.13988434814532824 0.10658766741643387 0.11689954510839662 0.024208506351624529 -0.022664607733446321 -0.024093912172868048 -0.020165476954544962 -0.022898808636969119 0.20312798282861363 0.11346198878187178 -0.049723448879670978 -0.025042870316515531 0.15283128074743935 0.0032742452228766306 -0.032382473181686237 -0.012551383104450182 -0.036733463415058926 -0.017291995175264273 0.19545002320538576 -0.037842808757521364 0.1436164241224282 -0.048801393530400465 -0.031639416534417548 0.20586700979463127 0.16263032238338399 0.14665919001123273 -0.026364897619546659 0.20945656371015284 0.011748840863611781 -0.020264787951987565 0.22803564519743544 -0.00010466237544797379 -0.029560413633037248 0.11302104710486485 0.20743173771936327 0.0016404116580722367 -0.017362385892247732 0.15268633467034731 0.180493330444083 -0.03751502706735263 0.01043184942248262 0.11278660345492429 0.18394451672690545 -0.024462572927263514 0.099085909143296833
leaf_weight=2.6309213973581782 33.305980905890465 2.7410244792699805 2.2313883677124977 1.9236071221530435 2.5764385089278212 2.4959767945110789 42.23848982155323 2.8723951838910571 5.7174053601920631 2.8430934920907021 2.9427376165986052 2.1547019667923442 2.1386376097798347 3.7574475705623618 2.7840763665735713 1.8912670761346815 2.9760167673230162 1.9247664958238591 2.0641402602195731 2.1993551626801482 2.3309169560670853 32.667702306061983 3.5357788018882275 1.6703844517469399 6.5428544320166022 1.8145094253122804 3.934562589973214 2.4955746904015541 1.7952506914734838 2.275139406323432 21.149822503328323 2.5930797941982737 2.492563471198082 3.3847906328737754 16.349330168217421 3.2677204199135303 81.172282077372074 1.3960507884621618 1.8468990847468365 6.9233822599053365 1.7670685686171044 1.9534425362944592 1.5931235663592813 171.6889391541481 1.7662350162863729 2.0957650430500538 51.159823268651962 1.9947740733623507 1.8779297769069669 10.369009859859942 2.2104657106101504 1.5894774198532102 1.6390215083956716 44.511897463351495 2.0370539613068104 1.368948098272085 6.3553925566375238 2.8740916997194281 1.3910953029990185 1.5750018954277032 1.8925954215228555 1.8209886923432348
leaf_count=27 428 28 28 23 29 30 627 32 44 27 41 29 22 37 27 26 31 20 26 25 28 453 50 25 96 20 37 39 24 24 283 36 35 53 245 37 1257 16 27 105 15 23 16 2577 18 26 759 21 25 151 23 16 20 651 21 15 90 35 18 21 27 22
internal_value=-0.00023628 -0.00313706 0.0249788 0.125528 -0.00608908 0.0111724 0.0067148 0.0229826 0.0308334 0.0657883 0.0175559 0.0123378 0.0977463 0.0156718 0.0865221 0.142234 -0.0112083 0.00428797 -0.0183754 -0.00210053 0.115414 -0.00905028 0.0507363 0.00488323 0.000222956 0.0971269 -0.0120232 0.0523366 0.10667 -0.0132168 0.021138 -0.0155318 0.0668601 -0.0166233 0.0185987 0.0914358 -0.0191256 0.0167695 -0.0133591 0.00471183 0.0607453 0.0340634 0.00244837 -0.0202045 0.0669804 -0.0222877 -0.00664948 0.0640017 0.118931 0.0203433 -0.00341789 0.10072 0.12613 -0.00605285 0.0437185 0.0134828 0.0328081 0.0878318 -0.0246321 -0.0142416 0.0712982 -0.00565843
internal_weight=641.581 587.025 55.5463 4.55453 531.478 121.316 116.489 70.7951 54.556 21.25 67.9227 65.1817 5.08138 50.9918 6.90673 4.67534 410.163 44.0851 45.6937 42.1603 4.82689 39.9609 7.29323 60.1003 57.9456 3.48489 407.586 7.26684 4.77127 400.319 25.0844 375.235 4.7677 370.467 24.3979 8.04856 346.069 4.78084 264.897 72.584 12.237 10.4699 8.51651 192.313 4.35931 187.954 60.347 5.7196 3.8727 16.2647 12.5795 3.68524 7.35643 54.4608 9.94886 7.9118 13.8936 5.71719 43.6296 54.6274 3.4676 8.17638
internal_count=9087 8421 716 50 7705 1709 1651 980 666 238 948 920 63 666 81 53 5996 585 671 565 58 540 87 857 828 45 5967 94 55 5873 320 5553 59 5494 351 106 5143 69 3886 1039 159 144 121 2847 54 2793 880 73 46 216 174 42 64 783 132 111 174 62 645 807 48 112
is_linear=0
shrinkage=0.05


Tree=10
num_leaves=63
num_cat=0
split_feature=282 202 360 374 68 67 384 281 408 336 294 335 302 368 294 410 334 204 354 67 195 286 98 86 264 18 193 457 58 101 259 233 140 434 195 39 219 305 275 174 114 64 360 6 281 248 120 418 275 386 426 117 88 160 332 294 357 266 242 444 445 17
split_gain=20.9034 19.13 23.9796 18.7207 26.5505 20.4556 18.4574 19.2722 18.3536 17.9784 16.9086 19.4246 16.0043 15.5533 15.1829 15.1593 20.339 22.0345 16.2009 21.3478 15.8047 25.4977 18.6923 23.7877 19.0158 16.4198 15.612 14.3796 14.3281 14.7636 14.4521 14.0059 13.5138 19.3845 12.9612 12.8544 12.4101 12.3194 12.1821 12.1292 11.3717 11.1926 16.4582 16.269 15.5433 14.3164 13.5076 13.0886 12.3497 16.1247 12.3484 20.3896 20.4919 21.9722 14.7746 12.4022 11.7702 18.6516 17.5371 11.5949 11.4894 17.3704
threshold=3.0430999994277959 0.16524999588727954 -0.78450000286102284 0.51675000786781322 1.419250011444092 0.061450000852346427 0.80219998955726635 1.654950022697449 -0.36939999461174006 -4.1108498573303214 1.5616999864578249 1.3019000291824343 0.88225001096725475 0.60260000824928295 -5.2016999721527091 0.46589998900890356 0.69564998149871837 -0.098549999296665178 -3.6728999614715572 0.44224999845027929 1.6686499714851382 0.70754998922348034 0.66495001316070568 1.7057499885559084 1.0000000180025095e-35 3.7026500701904301 0.17769999802112582 0.97995001077651989 0.16184999793767932 0.98765000700950634 0.075249999761581435 0.93115001916885387 0.54635000228881847 0.68540000915527355 -0.62944999337196339 0.61980000138282787 -0.50749999284744252 0.82150000333786022 0.97815001010894786 -1.0465499758720396 -1.0000000180025095e-35 0.20955000072717669 4.7838001251220712 -8.2091002464294416 2.1790500879287724 0.7876499891281129 -3.1380999088287349 0.96974998712539684 2.3680999279022221 0.91905000805854808 1.8601499795913699 0.19709999859333041 0.26764999330043798 0.31305000185966497 0.58355000615119945 -1.622449994087219 1.6772499680519106 0.98890000581741344 1.1201500296592715 -5.3515000343322745 0.99979999661445629 1.0015000104904177
decision_type=2 2 2 2 2 2 2 2 2 2 2 2 2 2 2 2 2 2 2 2 2 2 2 2 2 2 2 2 2 2 2 2 2 2 2 2 2 2 2 2 2 2 2 2 2 2 2 2 2 2 2 2 2 2 2 2 2 2 2 2 2 2
left_child=3 2 -2 4 5 -1 -7 12 -6 10 11 -5 13 -8 38 16 27 31 19 39 41 25 24 26 -23 32 -24 -16 29 37 -30 -18 33 -22 -10 -26 -19 -3 -11 -17 -4 42 44 -43 46 -46 47 -20 56 -50 59 52 53 -52 -54 -56 -48 -58 -59 -45 -61 -62
right_child=1 28 40 9 8 6 7 -9 34 14 -12 -13 -14 -15 15 18 17 36 20 -21 21 22 23 -25 35 -27 -28 -29 30 -31 -32 -33 -34 -35 -36 -37 -38 -39 -40 -41 -42 43 -44 50 45 -47 48 -49 49 -51 51 -53 54 -55 55 -57 57 58 -60 60 61 -63
leaf_value=0.12559812633017417 0.22497676905938088 0.023432164078343948 -0.03377537998908102 -0.041959393441824915 0.19970723575484367 -0.025617405484297386 0.16096658889104493 0.1859458790447665 -0.049098014801808025 -0.007465686377271733 0.15603973885955538 0.13340555802499363 -0.032224663479758352 0.014074261793510987 -0.020533677201892319 0.099736302638715746 0.087487070946857315 0.12319174650478737 0.017702507362299055 0.17872765690049752 0.14116570249146618 0.2182398611055647 0.10485334260719159 0.19513933002171613 -0.048591838238226909 0.063190932063327071 -0.028683165534527225 0.11413869700034299 0.09362033383104458 -0.0090651412955552423 -0.01371036470259868 0.29389794971842254 -0.021563250357378397 -0.010774665766785731 0.10496860798819539 0.13908410775432048 -0.049799295165409325 0.15718796633518289 0.14583209327099464 -0.033544188099638564 0.10283741420496542 0.17066003604717248 0.10685261106215814 0.092976271649061956 0.15350688776607826 -0.0024179938642610397 -0.023277935429875551 0.17909294918100069 0.14481652967116873 -0.049436078634004253 0.038039872975914102 -0.034985092945328151 0.12097826402891182 0.26845275310255395 0.086364680271247329 -0.041762995214686481 -0.018568232179172705 0.027787924994601056 0.18910355480010241 -0.029812174390661972 -0.030263667011254509 0.1768775336887759
leaf_weight=3.4466173015534869 2.5554912425577641 2.9666072092950326 2.6311433017253876 4.6408874839544279 3.168634619563818 26.114372830837965 2.8737332597374934 1.9386142380535591 2.0550611205399036 2.1959739066660395 3.1061046235263348 2.2578943707048893 7.1321683041751385 4.8462402112782001 13.488243848085405 2.4499865844845772 2.004462700337172 1.5872644707560537 5.3324935846030703 2.4542438052594662 3.169891916215418 2.9673028141260174 2.6923881024122229 1.6842816397547711 1.7522206380963328 7.6950049772858611 10.024590600281952 2.220069106668233 3.4515780583024052 4.2940322048962116 26.659091245383024 1.6102828979492185 61.795596696436405 5.6805863045156002 3.5469670481979829 1.6712598651647566 2.5574639774858943 4.5088257007300854 2.8383152037858963 5.0155830942094308 3.2785215936601144 0.99164052680134673 3.1690392494201651 1.8819477111101139 2.7513438165187827 2.9094661027193069 105.97060729190707 1.5924783647060392 2.610244281589984 1.647978577762842 2.5859219320118454 15.988051101565359 2.3992752544581881 1.7448523789644239 2.3044426068663588 8.5497385635972005 13.815113488584759 5.9172222167253476 2.338504284620285 201.29433280602098 2.3523040451109405 1.6066378913819788
leaf_count=38 26 34 33 62 28 382 31 20 32 27 26 25 104 61 197 27 26 22 71 29 36 30 33 19 26 86 150 25 35 53 373 17 890 77 41 18 41 41 30 69 34 9 30 21 31 39 1576 17 29 21 36 236 27 21 26 127 193 81 27 3102 35 17
internal_value=0.000411201 0.0313154 0.0995448 -0.00221145 0.0254966 0.0101871 0.000529237 0.0414016 0.104815 -0.00506751 0.0609518 0.0158072 0.0210827 0.070753 -0.00634093 -0.00718952 0.0319535 0.0976247 -0.00904717 0.0538176 -0.0103437 0.00744252 0.0565444 0.0241751 0.12722 -0.00558105 0 -0.000582412 0.017201 0.063733 -0.000972404 0.186221 -0.0132213 0.0440549 0.0477037 0.0429551 0.0166129 0.105777 0.0791462 0.0102739 0.0416318 -0.0148812 -0.00400976 -0.0215154 -0.00654113 0.073848 -0.00989626 0.0575489 -0.0135051 0.069082 -0.0223985 0.00559403 0.0427616 0.135964 0.0111415 -0.0135638 -0.0163425 0.0166866 0.0757966 -0.0269601 -0.0281289 0.0548542
internal_weight=642.781 50.3453 8.46516 592.436 55.1224 46.3517 42.9051 16.7908 8.77066 537.314 10.0049 6.89878 14.8521 7.71997 527.309 522.274 23.4678 7.75947 498.807 9.91981 488.887 99.1331 20.792 14.4013 6.39078 78.3411 12.717 15.7083 41.8801 11.7695 30.1107 3.61475 70.6461 8.85048 5.60203 3.42348 4.14473 7.47543 5.03429 7.46557 5.90966 389.754 148.054 241.699 144.885 5.66081 139.225 6.92497 132.3 4.25822 240.708 33.5723 17.5842 4.33077 13.2535 10.8542 128.041 22.0708 8.25573 207.135 205.253 3.95894
internal_count=9126 629 93 8497 737 636 598 216 101 7760 113 87 196 92 7647 7590 328 106 7262 125 7137 1365 276 202 74 1089 183 222 536 128 408 43 1003 113 73 44 63 75 57 96 67 5772 2115 3657 2085 70 2015 88 1927 50 3648 473 237 57 180 153 1877 301 108 3175 3154 52
is_linear=0
shrinkage=0.05


Tree=11
num_leaves=63
num_cat=0
split_feature=458 241 331 154 289 6 183 367 402 72 73 54 69 182 224 367 58 458 157 325 73 175 136 202 91 229 7 371 23 267 273 246 456 12 289 68 359 312 199 195 377 19 26 449 387 404 292 272 49 415 243 338 314 113 166 206 203 174 148 227 373 54
split_gain=37.4286 18.5959 27.1788 21.8504 23.2321 22.0962 21.5019 21.1426 16.3635 15.5067 17.3982 17.8799 16.566 15.1599 15.0912 16.9991 14.7186 16.8246 23.9585 14.7122 30.7667 21.8257 18.2812 35.4342 34.4281 45.1675 17.5781 19.6068 16.0171 15.665 15.2536 14.3383 18.0187 13.8951 13.8705 13.6731 15.5956 13.227 16.1604 12.9742 17.3703 18.1796 12.922 14.5008 12.7644 12.7268 12.3838 12.051 11.9881 11.9356 11.6876 11.5611 11.5303 11.4751 11.3839 11.3237 10.9966 10.9549 10.8708 10.7272 10.3028 18.7917
threshold=1.483550012111664 0.4585500061511994 0.88405001163482677 0.37894999980926519 0.72584998607635509 -0.24630000442266461 -2.8894000053405757 0.39325000345706945 -2.0036500692367549 2.3904999494552617 0.31215000152587896 -4.56599998474121 3.5686500072479252 0.93744999170303356 0.7024500072002412 0.71285000443458568 0.045649999752640731 1.9480499625205996 0.47445000708103185 0.7348499894142152 0.65839999914169323 0.41169999539852148 0.53995001316070568 0.54019999504089367 0.42274999618530279 0.45274999737739569 0.11335000023245813 1.4843000173568728 0.62655001878738414 -5.5336999893188468 1.5440999865531924 -2.1753000020980831 0.80445000529289257 1.9825499653816225 0.70820000767707836 0.31750001013278967 0.89320001006126415 3.6019999980926518 0.59814998507499706 1.6990500092506411 0.80985000729560863 0.18495000153779986 0.80664998292922985 0.98414999246597301 0.65755000710487377 0.38314999639987951 0.9150499999523164 0.569249987602234 0.18315000087022784 0.9605500102043153 -2.9306999444961543 0.91804999113082897 0.94335001707077037 0.69890001416206371 0.27924999594688421 2.1317499876022343 0.60874998569488536 3.640550017356873 0.20854999870061877 0.82054999470710765 0.70434999465942394 -0.80434998869895924
decision_type=2 2 2 2 2 2 2 2 2 2 2 2 2 2 2 2 2 2 2 2 2 2 2 2 2 2 2 2 2 2 2 2 2 2 2 2 2 2 2 2 2 2 2 2 2 2 2 2 2 2 2 2 2 2 2 2 2 2 2 2 2 2
left_child=19 2 3 4 8 -6 47 13 44 10 11 -10 31 -3 -11 -16 33 34 -19 29 22 -22 26 24 25 -24 27 28 -21 -1 -26 49 57 42 45 36 -31 -37 56 46 41 -41 43 -9 59 -18 60 -5 -12 58 52 -4 -8 -49 -14 -42 -39 -33 -13 -2 61 -36
right_child=1 7 51 6 5 -7 50 16 9 14 48 12 54 -15 15 -17 17 18 -20 20 21 -23 23 -25 30 -27 -28 -29 -30 35 -32 32 -34 -35 39 37 -38 38 -40 40 55 -43 -44 -45 -46 -47 -48 53 -50 -51 -52 -53 -54 -55 -56 -57 -58 -59 -60 -61 -62 -63
leaf_value=0.13619466123217686 0.044349763219350177 0.0014252983140563729 0.21357222383743302 0.14431349744664621 0.0091149421840867623 0.19281881022404801 -0.019847382611853953 -0.0048330725405691197 0.14017083261246396 -0.019596180865199379 0.084592767448467249 0.14744433846062635 0.022894739878321801 0.14702341309173747 0.03596624615851933 0.14904603521922771 0.09039147891071736 -0.032434099085972161 0.17072518830945338 0.12649304315725013 0 0.22284319018190521 0.080573857507607066 -0.043891497557127401 -0.050356419985047376 0.4333032916611621 -0.03329719585177808 0.22065086096716555 -0.016145550915346588 0.18711668654761826 0.13052620586642102 -0.016807830236707819 0.090605964478733911 0.15004589930054513 0.10912773993825936 -0.025934426490025333 -0.045320055169395385 0.1117325842365649 0.17872420826385416 0.1892456165496029 -0.020515929322338724 -0.00043379362931069673 -0.027996766855335493 0.18017192546098301 0.017632098878081631 -0.027255020632339824 0.090578441562326556 0.10456071699167478 -0.029697055999035493 -0.031527670404038283 -0.026957428001528883 0.04292331503353547 0.12441345407089609 -0.037092662676954741 0.17639023752186112 0.12492101879508065 -0.050490618846397432 0.085846719970368565 0.0086373071165479626 0.17527474931927589 -0.030753212054627246 -0.024646905953489374
